-6.026433343850701174e-01 -1.060624803641057184e-01 1.219548189883566947e+00 1.856227663367343794e+00 -2.051114164367473069e+00 -3.853757170470489823e-01
5.767195119463505160e-01 1.507758468674579577e-01 5.627421808599554209e-01 2.260687376144435434e-01 -1.457215420648572790e+00 1.109173389884529293e+00
5.420982784211969552e-01 -5.667841203315950871e-01 6.427998631738988111e-01 2.495628922606597300e+00 -1.315860857135731310e+00 7.270871319621045048e-01
7.176566213550581441e-01 4.868300884448363841e-01 -6.228837417113567421e-01 2.239613815447152767e+00 7.047301185450456362e-01 -3.043490414960297041e-01
9.968551703308572431e-01 1.923190767188582839e+00 3.008844082747441639e-02 6.483415196255972734e-01 4.374752820416894644e-02 -1.625340236260822968e-01
5.635120313089797550e-01 -8.139592264673057853e-01 -1.127929407851643084e+00 -3.224796272698363109e-01 8.053541412091196061e-02 -1.131030287711007443e+00
3.636697056431204000e-01 1.049045560942657662e+00 -2.989140166931165687e+00 1.274938924447705846e+00 -1.441364981346086926e+00 -1.591660011263742458e-01
2.559788059865361287e+00 -1.463374070664335835e-01 -7.976303126762879225e-01 -4.296970676303070724e-01 -5.196452085490210759e-01 -2.240080587354953412e-01
-7.786105547960509021e-01 1.028821866780598171e+00 7.570576022706192454e-01 7.436989676463404697e-01 3.824447559069419494e-02 1.014014616699113303e+00
-4.555430428353058891e-01 2.135266239501243113e-01 -8.547503046849981301e-01 -1.858776189070838081e+00 1.313465804729907260e+00 -4.858827948905110050e-01
-9.121769775778854061e-01 -1.737350106377467007e+00 -2.956044888250574654e-01 -4.817541488312071518e-01 -1.914026370975691949e+00 1.381761047069790749e+00
-1.681098917118592606e+00 1.192738510745027902e+00 4.552666962678726947e-01 -1.251951799698085344e+00 1.185222214027711551e+00 1.239509523008495595e+00
1.300025027691595891e+00 2.259055791575151240e+00 -9.800471517590981785e-01 4.682792166441321347e-01 3.726487384742267484e-01 6.247341785011740756e-01
9.296961112271230343e-01 -1.545646338790017005e+00 1.440390528305564022e-01 9.796121278714340352e-01 1.761792960329784608e+00 2.052647888843814883e-01
-2.539038358024193684e-02 8.448658110527390575e-01 9.795192246142211401e-01 -6.984805849055080174e-01 7.395850534532106835e-01 4.934310392613583396e-01
1.760042238544249127e+00 -1.025761290653716545e-01 -4.726590471879331679e-01 -8.805236766663070425e-01 -1.715781993572178310e+00 4.797832171265770662e-01
6.289742838009366732e-01 5.083122573919909293e-01 2.368465907101219292e-01 -9.598281412676595847e-01 -2.021941450738891921e-01 4.113748251311206694e-01
-1.054575375823686878e+00 -1.319797310090387255e+00 1.524209548523857150e-01 1.514948304071128682e+00 2.507030004167727366e+00 -2.585998047183286630e-01
2.068031900464768411e-02 -6.008526093199346996e-02 -1.261553905480298665e+00 -8.356566021536691868e-02 7.288560949993121429e-01 8.794048614758974702e-01
1.272462008223526508e+00 1.173055043981998224e+00 -1.358603478750991744e+00 -2.233538424201796380e-01 1.038072336361396120e-01 -9.164532567790264483e-01
-1.799743205227892773e-01 7.305456232416861484e-01 -9.115117535086748879e-02 -1.018899075037455332e-01 5.509711045258154360e-01 1.125624710012372631e+00
4.054610452271430465e-01 -9.580428817948047904e-01 1.144324240240748747e+00 -1.911306681202537827e-01 1.118718863095053973e+00 6.221672766358770090e-01
9.791631948184716938e-01 2.030839335702312731e-01 2.660282029219614985e-01 -1.014879295445997726e-01 1.147630991483618301e-01 -8.419244588108819594e-01
9.383800425846484661e-01 -3.442904838166748749e-01 8.224991943452322207e-01 -2.296628436697174980e+00 -1.142891808820582611e+00 2.245363686559598282e-01
2.213039505066699553e-01 -4.062756729701806901e-01 -2.007190777862719600e-01 -1.743550726732383316e+00 6.080186980290273047e-01 -1.159972841388994674e-01
2.538982117302469033e-01 1.184383070886213113e-01 1.809168519089487503e+00 -9.225337300927288764e-01 6.865235033656452712e-01 2.743850954302890291e-02
-6.295420577299865039e-01 -6.900104529892757688e-01 6.563044461183821232e-01 -6.312520202811569003e-01 -7.731873202575061388e-01 -1.193669228378088920e-01
-2.050051809007076731e+00 -1.847599197990749398e-01 1.211195215593185770e+00 3.654962423583969500e-01 2.762576817580889021e-01 1.445962904581728603e+00
6.005639686307230607e-02 -2.122807588539809276e-01 -1.885705303584081172e+00 -3.872186320368766199e-01 2.058617962307581623e-02 -3.390979059363865011e-01
1.432453018068871486e+00 8.130197277127376720e-02 7.548225027633859163e-01 8.871584131127268069e-01 3.783775601749441719e-01 -1.709224563384143858e+00
7.605226625590363887e-02 7.528050847777515431e-01 4.995419652193385796e-01 -2.904561971620475136e-01 -7.057742895878709177e-01 8.750388555170173221e-01
1.211411830936396594e+00 6.704986079464294590e-01 1.501421566580353417e+00 6.158655496967000431e-01 -1.214350024067242684e+00 8.185402508488746065e-01
8.804331179359188297e-01 -1.410760681433139485e+00 -4.416438565228990032e-01 2.360021364831861312e+00 -1.017316614095477689e+00 -5.152380723738353430e-01
-2.300354788723652621e+00 -3.067337303931542691e-01 -8.055551416198439840e-01 -6.643312892995402175e-01 -1.889593128007486522e-01 1.298169926310687285e-03
-1.463608285600348946e+00 4.574640888698163765e-01 -8.166464211922770389e-01 1.689890261360657675e+00 -1.746734440365280472e+00 -2.846669961432272133e-01
8.610244825700794635e-01 -2.688385131344146028e+00 -1.910151292816923752e+00 1.847824781217536072e-01 -7.195631110836302469e-01 -2.656158887024710147e+00
7.357787779050795063e-01 7.375466146732723161e-01 2.583754166963856194e-02 -3.818842116222375682e-01 -1.521135539459234076e+00 3.381885826893250013e-01
1.277624670035396370e+00 6.635229973326113306e-01 8.428228721919849009e-02 -3.523343253553988252e-01 -7.176385576702002389e-01 5.743782513397324152e-01
1.265171661917857460e+00 -1.337090212383895138e-01 -8.022588459074371237e-01 1.398989969626395657e+00 2.275478570224085395e+00 1.845117223923558591e-01
1.616004903897207301e+00 4.444028058054370067e-01 1.327280499691831261e+00 -1.100549704782082250e+00 2.630846768300389438e-01 -4.502603488626288203e-02
-7.689231800050122523e-01 -1.105632249467194406e+00 4.217832904774142522e-01 -3.998140345043935118e-01 3.829867187637726045e-01 1.182066009244965299e-01
-8.827657639036154968e-01 -1.869559662142436796e-01 1.594324227301694707e-01 1.076813970185377389e+00 9.085468687175858593e-02 -8.152324063606100069e-01
5.380333176778813176e-01 -4.393113745759870126e-01 6.753509578181386974e-01 2.880542387048782849e-01 -1.159936426293382006e+00 -5.050642002739247349e-01
-8.653678461710435643e-01 2.157857015820443536e+00 9.555663744695526152e-01 -6.271192659998766628e-01 -2.130409025579751425e-01 -1.088828054101756287e-01
3.872541601769056152e-01 -1.025626512818833325e+00 -4.147622357438490726e-01 -1.288967388649908119e-01 -3.982354281438008625e-01 -7.626308851534019558e-03
7.690469488247968222e-03 3.735105892043442122e-01 -5.929393467513514038e-01 4.439471179068348872e-01 -6.414984267701924203e-01 7.481771544130483287e-02
5.453768918120741604e-01 6.792396942492971712e-02 -2.611550066958955529e+00 2.807933069395076794e-02 -6.768685856440916915e-01 1.368397102932366050e+00
-8.317657763725222475e-02 -1.477045151216466456e-01 -2.174947917871810077e+00 3.929427699449792866e-01 7.982529639625797202e-01 -2.847589209017885592e-01
1.765601594334977209e+00 1.110618282614136643e+00 8.404874896619138891e-01 -5.670759809268987039e-01 5.568526887481726195e-01 8.511450213463082060e-01
-9.048286409489234572e-01 1.513553038579024568e+00 6.167415023328359780e-01 3.117585945012932847e-01 1.466115286916163551e+00 -1.464483523303174162e-01
2.137553076790589035e+00 3.798367679432697597e-01 1.036907199961668025e-01 4.586450001146140099e-01 1.060963756962979565e-01 -5.894612453648649941e-01
3.972577199542238757e-01 5.430844187303934811e-01 9.013989076466664141e-01 2.206213901778211639e+00 1.988077993689957301e+00 -1.681098666215738557e+00
