1.195057421071836316e-02 3.361936090210305110e+02 -3.361936090210305110e+02 5.085025672025239487e+02 -5.085025672025239487e+02 3.528127810995541154e+02 -3.528127810995541154e+02 4.085594821770504268e+02 -4.085594821770504268e+02 4.287817328894644788e+02 -4.287817328894644788e+02 3.242432482269380785e+02 -3.242432482269380785e+02 4.608506821446620165e+02 -4.608506821446620165e+02 6.191619727239002486e+02 -6.191619727239002486e+02 4.949527303197035621e+02 -4.949527303197035621e+02 5.015307907669505880e+02 -5.015307907669505880e+02 5.129822288002415007e+02 -5.129822288002415007e+02 6.324876623705587235e+02 -6.324876623705587235e+02
-3.083326708141347072e-02 4.778331964158579126e+02 -4.778331964158579126e+02 6.092700246899318017e+02 -6.092700246899318017e+02 4.233332739116767129e+02 -4.233332739116767129e+02 5.521451745635849875e+02 -5.521451745635849875e+02 4.301674688734036067e+02 -4.301674688734036067e+02 3.350970150025877388e+02 -3.350970150025877388e+02 3.754437588466291231e+02 -3.754437588466291231e+02 3.924823238073068978e+02 -3.924823238073068978e+02 4.319957337055479911e+02 -4.319957337055479911e+02 5.286179291167715064e+02 -5.286179291167715064e+02 3.694764608955511562e+02 -3.694764608955511562e+02 4.676021275523671648e+02 -4.676021275523671648e+02
1.329958954872572686e-02 5.788757905956284731e+02 -5.788757905956284731e+02 4.914844461682037036e+02 -4.914844461682037036e+02 5.959822315936382893e+02 -5.959822315936382893e+02 5.201163742535990195e+02 -5.201163742535990195e+02 4.268711015511087794e+02 -4.268711015511087794e+02 5.513706797197042988e+02 -5.513706797197042988e+02 5.903366593354148790e+02 -5.903366593354148790e+02 4.728924620362094515e+02 -4.728924620362094515e+02 4.509196988614324368e+02 -4.509196988614324368e+02 5.601698203194007419e+02 -5.601698203194007419e+02 4.173175549179248378e+02 -4.173175549179248378e+02 6.091833706351557112e+02 -6.091833706351557112e+02
-2.955363468538095822e-03 3.316774033304801605e+02 -3.316774033304801605e+02 3.349357566210055097e+02 -3.349357566210055097e+02 4.908013106499917626e+02 -4.908013106499917626e+02 5.423911625642891750e+02 -5.423911625642891750e+02 6.162885884596814776e+02 -6.162885884596814776e+02 3.738683005863565540e+02 -3.738683005863565540e+02 4.493973905484812121e+02 -4.493973905484812121e+02 5.897118448780294102e+02 -5.897118448780294102e+02 5.197029527378890634e+02 -5.197029527378890634e+02 4.672429734457896302e+02 -4.672429734457896302e+02 6.253496981749434553e+02 -6.253496981749434553e+02 3.659301476709834446e+02 -3.659301476709834446e+02
-8.659966918095498775e-03 5.874476308576911379e+02 -5.874476308576911379e+02 6.019792498391612980e+02 -6.019792498391612980e+02 4.530278319969609697e+02 -4.530278319969609697e+02 6.242530403123191718e+02 -6.242530403123191718e+02 3.959158343345703202e+02 -3.959158343345703202e+02 3.753053373011317149e+02 -3.753053373011317149e+02 4.500635659020374533e+02 -4.500635659020374533e+02 3.459331509677344911e+02 -3.459331509677344911e+02 4.496461284075022604e+02 -4.496461284075022604e+02 5.680090618670004687e+02 -5.680090618670004687e+02 5.897341388725859588e+02 -5.897341388725859588e+02 6.010759428530773221e+02 -6.010759428530773221e+02
0.000000000000000000e+00 3.929374771868045286e+02 -3.929374771868045286e+02 4.337282601340325527e+02 -4.337282601340325527e+02 3.846568604279758574e+02 -3.846568604279758574e+02 3.573459638616690199e+02 -3.573459638616690199e+02 5.544814012131495247e+02 -5.544814012131495247e+02 6.105530415159781796e+02 -6.105530415159781796e+02 3.994837135663426011e+02 -3.994837135663426011e+02 4.294139325909021636e+02 -4.294139325909021636e+02 6.125917015034091264e+02 -6.125917015034091264e+02 5.586176594052094515e+02 -5.586176594052094515e+02 4.840260472050402427e+02 -4.840260472050402427e+02 4.696910580249755185e+02 -4.696910580249755185e+02
0.000000000000000000e+00 3.540573169761256054e+02 -3.540573169761256054e+02 4.285509145189886340e+02 -4.285509145189886340e+02 4.608640885044050606e+02 -4.608640885044050606e+02 4.854996541074688707e+02 -4.854996541074688707e+02 4.660149183782405089e+02 -4.660149183782405089e+02 3.912160203457003718e+02 -3.912160203457003718e+02 5.582877920612771732e+02 -5.582877920612771732e+02 4.317739315808423726e+02 -4.317739315808423726e+02 6.079026518106645653e+02 -6.079026518106645653e+02 5.000460686248705997e+02 -5.000460686248705997e+02 5.163297584449396709e+02 -5.163297584449396709e+02 6.170959919453274551e+02 -6.170959919453274551e+02
3.758762418536438707e-03 5.710114937905968873e+02 -5.710114937905968873e+02 5.019218761680361354e+02 -5.019218761680361354e+02 6.247537955472340627e+02 -6.247537955472340627e+02 3.789869936211615595e+02 -3.789869936211615595e+02 5.646531228175792876e+02 -5.646531228175792876e+02 4.272950930061622330e+02 -4.272950930061622330e+02 4.662271634619679617e+02 -4.662271634619679617e+02 5.373252756316230716e+02 -5.373252756316230716e+02 5.038576516955821489e+02 -5.038576516955821489e+02 5.040319728860630448e+02 -5.040319728860630448e+02 5.421206996961961977e+02 -5.421206996961961977e+02 5.523206187039897941e+02 -5.523206187039897941e+02
7.488679586638485007e-03 5.775706770251729267e+02 -5.775706770251729267e+02 4.890276853358164999e+02 -4.890276853358164999e+02 4.460025540790660443e+02 -4.460025540790660443e+02 3.395437776716805161e+02 -3.395437776716805161e+02 6.335717425181952649e+02 -6.335717425181952649e+02 4.362452534748174457e+02 -4.362452534748174457e+02 5.032793452250732571e+02 -5.032793452250732571e+02 4.880349573893854540e+02 -4.880349573893854540e+02 5.535645019458205525e+02 -5.535645019458205525e+02 3.276955034258289174e+02 -3.276955034258289174e+02 5.794915392281124014e+02 -5.794915392281124014e+02 3.893742121987463634e+02 -3.893742121987463634e+02
-2.219309456135426864e-02 6.078744471783825247e+02 -6.078744471783825247e+02 4.785977662897271330e+02 -4.785977662897271330e+02 4.141253277979978407e+02 -4.141253277979978407e+02 5.279944445155165340e+02 -5.279944445155165340e+02 3.592057995769150125e+02 -3.592057995769150125e+02 4.528594526228420136e+02 -4.528594526228420136e+02 6.352091163281194213e+02 -6.352091163281194213e+02 4.938485401902381682e+02 -4.938485401902381682e+02 3.437000621509808411e+02 -3.437000621509808411e+02 3.812191431963818218e+02 -3.812191431963818218e+02 4.354329584801712372e+02 -4.354329584801712372e+02 5.963423669662610109e+02 -5.963423669662610109e+02
-1.309173815144618232e-02 6.347894396156041239e+02 -6.347894396156041239e+02 3.818684218679961191e+02 -3.818684218679961191e+02 5.822245876651337539e+02 -5.822245876651337539e+02 4.259629880905438313e+02 -4.259629880905438313e+02 5.127848982080014366e+02 -5.127848982080014366e+02 3.953224473487382511e+02 -3.953224473487382511e+02 6.345046259799853487e+02 -6.345046259799853487e+02 5.025281647067694166e+02 -5.025281647067694166e+02 4.398992194541985441e+02 -4.398992194541985441e+02 4.473253492405494285e+02 -4.473253492405494285e+02 5.770954223340399949e+02 -5.770954223340399949e+02 5.231002447515661515e+02 -5.231002447515661515e+02
-7.439008749512473345e-03 4.112397383778486528e+02 -4.112397383778486528e+02 4.261454607456740860e+02 -4.261454607456740860e+02 5.634468273398342717e+02 -5.634468273398342717e+02 5.079159486113321691e+02 -5.079159486113321691e+02 5.482018240492038785e+02 -5.482018240492038785e+02 4.268363420929471772e+02 -4.268363420929471772e+02 4.420687838495477422e+02 -4.420687838495477422e+02 5.377708018580177622e+02 -5.377708018580177622e+02 4.303190869764829358e+02 -4.303190869764829358e+02 3.252137112675154071e+02 -3.252137112675154071e+02 4.793124289868820824e+02 -4.793124289868820824e+02 4.490746611347387898e+02 -4.490746611347387898e+02
-3.736701066147334049e-02 6.208532287205582634e+02 -6.208532287205582634e+02 3.949526535613156284e+02 -3.949526535613156284e+02 3.753856880700888041e+02 -3.753856880700888041e+02 6.308259894103485976e+02 -6.308259894103485976e+02 5.781607487561147991e+02 -5.781607487561147991e+02 5.008451573881192189e+02 -5.008451573881192189e+02 5.396276212632260467e+02 -5.396276212632260467e+02 3.752222140388802814e+02 -3.752222140388802814e+02 3.469366038585623073e+02 -3.469366038585623073e+02 5.218296812456741236e+02 -5.218296812456741236e+02 4.156942888596888679e+02 -4.156942888596888679e+02 4.485674428273694048e+02 -4.485674428273694048e+02
-2.467634589819068386e-03 4.121128054066396658e+02 -4.121128054066396658e+02 5.497699239100725208e+02 -5.497699239100725208e+02 4.513033489057690417e+02 -4.513033489057690417e+02 5.194827265382010637e+02 -5.194827265382010637e+02 4.467971341842255129e+02 -4.467971341842255129e+02 4.415960382061934979e+02 -4.415960382061934979e+02 4.291810335750704439e+02 -4.291810335750704439e+02 4.608904955041715539e+02 -4.608904955041715539e+02 6.010525694999132611e+02 -6.010525694999132611e+02 6.269511584411194463e+02 -6.269511584411194463e+02 5.962056796652676667e+02 -5.962056796652676667e+02 5.053224502656644859e+02 -5.053224502656644859e+02
-2.024811669362140860e-03 4.783100227380998604e+02 -4.783100227380998604e+02 4.211969665135033551e+02 -4.211969665135033551e+02 3.753748144780457778e+02 -3.753748144780457778e+02 4.524000943627209494e+02 -4.524000943627209494e+02 3.408941546867435477e+02 -3.408941546867435477e+02 3.618082895859666337e+02 -3.618082895859666337e+02 5.555095449189374222e+02 -5.555095449189374222e+02 3.350124432757603472e+02 -3.350124432757603472e+02 4.457009391062329655e+02 -4.457009391062329655e+02 5.836993517500825419e+02 -5.836993517500825419e+02 3.868454432854087486e+02 -3.868454432854087486e+02 3.887906888794100837e+02 -3.887906888794100837e+02
1.169837817891283133e-02 4.570278681438909985e+02 -4.570278681438909985e+02 5.274622342614693480e+02 -5.274622342614693480e+02 3.391614710369710792e+02 -3.391614710369710792e+02 4.170986372177291628e+02 -4.170986372177291628e+02 5.574973302956894941e+02 -5.574973302956894941e+02 5.635456104525273986e+02 -5.635456104525273986e+02 3.628223469805866443e+02 -3.628223469805866443e+02 4.058302654146378927e+02 -4.058302654146378927e+02 5.830122452860766771e+02 -5.830122452860766771e+02 3.764182987322510598e+02 -3.764182987322510598e+02 6.315648631986449573e+02 -6.315648631986449573e+02 5.072929055625991737e+02 -5.072929055625991737e+02
9.521050702159944423e-04 5.930996392705229709e+02 -5.930996392705229709e+02 6.225060898381366314e+02 -6.225060898381366314e+02 5.395866071368504890e+02 -5.395866071368504890e+02 4.686904753045635061e+02 -4.686904753045635061e+02 4.325018315131155759e+02 -4.325018315131155759e+02 4.317236951221557888e+02 -4.317236951221557888e+02 3.549642012645645650e+02 -3.549642012645645650e+02 3.623940036879093327e+02 -3.623940036879093327e+02 5.034919779199458389e+02 -5.034919779199458389e+02 5.772277926325785984e+02 -5.772277926325785984e+02 3.172632480333269882e+02 -3.172632480333269882e+02 4.593737662290052981e+02 -4.593737662290052981e+02
-2.805389147538358196e-04 4.601301860715394128e+02 -4.601301860715394128e+02 5.650096401076176562e+02 -5.650096401076176562e+02 4.269532225440100888e+02 -4.269532225440100888e+02 4.289886262646459159e+02 -4.289886262646459159e+02 6.263472427882949205e+02 -6.263472427882949205e+02 3.475589784445570558e+02 -3.475589784445570558e+02 4.430172905781948316e+02 -4.430172905781948316e+02 4.260810217372516604e+02 -4.260810217372516604e+02 3.327005047480976145e+02 -3.327005047480976145e+02 4.771313634633743845e+02 -4.771313634633743845e+02 3.472540323510876874e+02 -3.472540323510876874e+02 3.276266192050553627e+02 -3.276266192050553627e+02
0.000000000000000000e+00 5.941897972600608000e+02 -5.941897972600608000e+02 3.306807276680654581e+02 -3.306807276680654581e+02 3.583973546303503781e+02 -3.583973546303503781e+02 6.066785955373276238e+02 -6.066785955373276238e+02 4.942912901352139556e+02 -4.942912901352139556e+02 5.597460105121273273e+02 -5.597460105121273273e+02 5.592855144281023740e+02 -5.592855144281023740e+02 4.248172230741674866e+02 -4.248172230741674866e+02 5.289256280995743964e+02 -5.289256280995743964e+02 3.677375803081541221e+02 -3.677375803081541221e+02 4.290820922079165598e+02 -4.290820922079165598e+02 5.886008528886181921e+02 -5.886008528886181921e+02
0.000000000000000000e+00 4.853742453892124331e+02 -4.853742453892124331e+02 4.533198318674153029e+02 -4.533198318674153029e+02 5.498022865683608416e+02 -5.498022865683608416e+02 4.005944142909704624e+02 -4.005944142909704624e+02 4.349793004693146941e+02 -4.349793004693146941e+02 6.073298993878463534e+02 -6.073298993878463534e+02 5.214812235381613164e+02 -5.214812235381613164e+02 4.052632043123440440e+02 -4.052632043123440440e+02 5.650277617009550113e+02 -5.650277617009550113e+02 3.919480808779191534e+02 -3.919480808779191534e+02 5.904893745086266108e+02 -5.904893745086266108e+02 3.809811404781611373e+02 -3.809811404781611373e+02
2.490431751638627969e-02 5.082000032826178995e+02 -5.082000032826178995e+02 6.003996034960671295e+02 -6.003996034960671295e+02 5.909516047984824354e+02 -5.909516047984824354e+02 6.010762969423196864e+02 -6.010762969423196864e+02 3.769447108773542823e+02 -3.769447108773542823e+02 4.112236711046068649e+02 -4.112236711046068649e+02 5.092456962703888621e+02 -5.092456962703888621e+02 5.551052581675490956e+02 -5.551052581675490956e+02 5.955634708103206094e+02 -5.955634708103206094e+02 4.489322961016802083e+02 -4.489322961016802083e+02 5.987531059818932135e+02 -5.987531059818932135e+02 5.229439120845353273e+02 -5.229439120845353273e+02
8.217832044789236123e-03 5.822486474251462596e+02 -5.822486474251462596e+02 3.687059839706289495e+02 -3.687059839706289495e+02 3.689634611533912221e+02 -3.689634611533912221e+02 4.307335542345830390e+02 -4.307335542345830390e+02 5.811265580995800519e+02 -5.811265580995800519e+02 5.310608667756058594e+02 -5.310608667756058594e+02 3.445733936006922704e+02 -3.445733936006922704e+02 5.947880916702341665e+02 -5.947880916702341665e+02 5.632686936241840385e+02 -5.632686936241840385e+02 3.385152490067166582e+02 -3.385152490067166582e+02 3.803183206598624793e+02 -3.803183206598624793e+02 4.276730096786625381e+02 -4.276730096786625381e+02
0.000000000000000000e+00 3.283847806354723389e+02 -3.283847806354723389e+02 5.620220667448934364e+02 -5.620220667448934364e+02 5.989673516510135869e+02 -5.989673516510135869e+02 5.808283096760019362e+02 -5.808283096760019362e+02 5.450434648042224808e+02 -5.450434648042224808e+02 5.697476293179950062e+02 -5.697476293179950062e+02 4.750645615292407911e+02 -4.750645615292407911e+02 5.701788213380046955e+02 -5.701788213380046955e+02 4.626182934450734479e+02 -4.626182934450734479e+02 5.757682910241222771e+02 -5.757682910241222771e+02 3.285714212529318274e+02 -3.285714212529318274e+02 3.270166141209128909e+02 -3.270166141209128909e+02
6.600359288790775235e-03 3.998911143167384239e+02 -3.998911143167384239e+02 6.041875663959873464e+02 -6.041875663959873464e+02 6.239335825832627052e+02 -6.239335825832627052e+02 3.841270231357374882e+02 -3.841270231357374882e+02 5.054954827182953636e+02 -5.054954827182953636e+02 4.424843435858409180e+02 -4.424843435858409180e+02 4.920720465256775356e+02 -4.920720465256775356e+02 5.597409403930067811e+02 -5.597409403930067811e+02 5.539117926540502594e+02 -5.539117926540502594e+02 4.406677671018339311e+02 -4.406677671018339311e+02 5.372654822716458511e+02 -5.372654822716458511e+02 6.081439014994210766e+02 -6.081439014994210766e+02
9.332221940375060726e-03 6.285331997772480008e+02 -6.285331997772480008e+02 3.626851196677707776e+02 -3.626851196677707776e+02 5.935163553079856911e+02 -5.935163553079856911e+02 5.501986527774415663e+02 -5.501986527774415663e+02 3.809273710066898389e+02 -3.809273710066898389e+02 4.450178145960995266e+02 -4.450178145960995266e+02 3.431218655832645368e+02 -3.431218655832645368e+02 5.027348083539671961e+02 -5.027348083539671961e+02 3.814151679038160978e+02 -3.814151679038160978e+02 3.852015370816670838e+02 -3.852015370816670838e+02 3.365032448167699499e+02 -3.365032448167699499e+02 4.739099312853024912e+02 -4.739099312853024912e+02
-5.319136992972562511e-02 5.098664499722414121e+02 -5.098664499722414121e+02 4.376029339661027393e+02 -4.376029339661027393e+02 5.413342705755230782e+02 -5.413342705755230782e+02 5.639561287374775702e+02 -5.639561287374775702e+02 5.069342288275409487e+02 -5.069342288275409487e+02 6.009631615924773769e+02 -6.009631615924773769e+02 4.770731875133115523e+02 -4.770731875133115523e+02 4.086339004270183182e+02 -4.086339004270183182e+02 3.721582816712735848e+02 -3.721582816712735848e+02 6.011611555197232519e+02 -6.011611555197232519e+02 5.093514234960283034e+02 -5.093514234960283034e+02 3.561520644784865226e+02 -3.561520644784865226e+02
0.000000000000000000e+00 4.253087179247471568e+02 -4.253087179247471568e+02 4.908018613372909726e+02 -4.908018613372909726e+02 4.158578434485930870e+02 -4.158578434485930870e+02 5.600618596557776527e+02 -5.600618596557776527e+02 4.970551649293956302e+02 -4.970551649293956302e+02 5.979466167808180899e+02 -5.979466167808180899e+02 3.742551961867335422e+02 -3.742551961867335422e+02 4.603156831867271421e+02 -4.603156831867271421e+02 5.740183931209163575e+02 -5.740183931209163575e+02 4.104402538647643723e+02 -4.104402538647643723e+02 3.354731404178182856e+02 -3.354731404178182856e+02 5.182653233092130449e+02 -5.182653233092130449e+02
-9.434395148098823070e-03 6.223259495525475131e+02 -6.223259495525475131e+02 5.310655193904655107e+02 -5.310655193904655107e+02 5.349802160331435061e+02 -5.349802160331435061e+02 3.783830669654940948e+02 -3.783830669654940948e+02 6.205978239664178773e+02 -6.205978239664178773e+02 5.484958140991057007e+02 -5.484958140991057007e+02 5.312414342365874518e+02 -5.312414342365874518e+02 5.979126502382235913e+02 -5.979126502382235913e+02 3.771345585504363953e+02 -3.771345585504363953e+02 4.249846051524795030e+02 -4.249846051524795030e+02 4.403123459482895896e+02 -4.403123459482895896e+02 4.197863683306058533e+02 -4.197863683306058533e+02
5.263298191199535826e-04 6.235404735286557525e+02 -6.235404735286557525e+02 5.321196050619466860e+02 -5.321196050619466860e+02 3.412597475105068270e+02 -3.412597475105068270e+02 4.811598813806589874e+02 -4.811598813806589874e+02 4.763445032810038811e+02 -4.763445032810038811e+02 4.591428323925627524e+02 -4.591428323925627524e+02 5.236341177837533678e+02 -5.236341177837533678e+02 5.592769963466744230e+02 -5.592769963466744230e+02 4.819618674845997930e+02 -4.819618674845997930e+02 5.304229180139038817e+02 -5.304229180139038817e+02 6.135583291493086335e+02 -6.135583291493086335e+02 4.701974308326494452e+02 -4.701974308326494452e+02
2.986975415017223499e-03 5.308673142250020192e+02 -5.308673142250020192e+02 4.152132913269422829e+02 -4.152132913269422829e+02 5.141459841878969428e+02 -5.141459841878969428e+02 3.956237550123070719e+02 -3.956237550123070719e+02 4.559936428383813904e+02 -4.559936428383813904e+02 4.184767348681861563e+02 -4.184767348681861563e+02 4.414106057996388586e+02 -4.414106057996388586e+02 6.140009108473747119e+02 -6.140009108473747119e+02 5.100778165532572643e+02 -5.100778165532572643e+02 4.829481715170434768e+02 -4.829481715170434768e+02 4.071424705150205341e+02 -4.071424705150205341e+02 4.938170758481259099e+02 -4.938170758481259099e+02
2.008539056884576634e-03 4.852726060960042105e+02 -4.852726060960042105e+02 4.537250587600788663e+02 -4.537250587600788663e+02 4.875254781808631606e+02 -4.875254781808631606e+02 3.869583090355736772e+02 -3.869583090355736772e+02 5.633522280900691612e+02 -5.633522280900691612e+02 4.454744466449814695e+02 -4.454744466449814695e+02 4.894336232389263728e+02 -4.894336232389263728e+02 4.751443242484560301e+02 -4.751443242484560301e+02 5.399566263403564790e+02 -5.399566263403564790e+02 3.850040950836759066e+02 -3.850040950836759066e+02 5.287755721956950765e+02 -5.287755721956950765e+02 3.881188277458858806e+02 -3.881188277458858806e+02
-4.669447767252781455e-03 3.478280880260214190e+02 -3.478280880260214190e+02 5.400998447074628075e+02 -5.400998447074628075e+02 5.874514015738435546e+02 -5.874514015738435546e+02 4.452689729574125295e+02 -4.452689729574125295e+02 4.870555578301223818e+02 -4.870555578301223818e+02 6.264514741289045787e+02 -6.264514741289045787e+02 5.320886811542494570e+02 -5.320886811542494570e+02 6.010450172684272729e+02 -6.010450172684272729e+02 3.979719346396767037e+02 -3.979719346396767037e+02 4.801479872322384495e+02 -4.801479872322384495e+02 5.051926403440251647e+02 -5.051926403440251647e+02 3.646852526700430417e+02 -3.646852526700430417e+02
7.018646187190504546e-04 4.909295472998795731e+02 -4.909295472998795731e+02 5.911800922083540399e+02 -5.911800922083540399e+02 6.122178588764801361e+02 -6.122178588764801361e+02 6.109688152716973946e+02 -6.109688152716973946e+02 4.797093089489982276e+02 -4.797093089489982276e+02 5.742338250553707439e+02 -5.742338250553707439e+02 5.324670524107044685e+02 -5.324670524107044685e+02 6.105627325679528212e+02 -6.105627325679528212e+02 3.162127564891661109e+02 -3.162127564891661109e+02 3.305682782379325317e+02 -3.305682782379325317e+02 5.220147825014607861e+02 -5.220147825014607861e+02 3.344724188617805112e+02 -3.344724188617805112e+02
2.953952322825303956e-03 5.709115512416286720e+02 -5.709115512416286720e+02 4.927294308651117944e+02 -4.927294308651117944e+02 4.113576655607362795e+02 -4.113576655607362795e+02 5.960739931507091569e+02 -5.960739931507091569e+02 4.319808591991016442e+02 -4.319808591991016442e+02 3.454294397455131502e+02 -3.454294397455131502e+02 5.992884043543216421e+02 -5.992884043543216421e+02 3.926491453884092948e+02 -3.926491453884092948e+02 5.828686724647321853e+02 -5.828686724647321853e+02 3.574421132792817843e+02 -3.574421132792817843e+02 6.156767643524591449e+02 -6.156767643524591449e+02 4.585314686881368402e+02 -4.585314686881368402e+02
-2.207602948523666730e-02 3.399882214638907953e+02 -3.399882214638907953e+02 5.188783268109400524e+02 -5.188783268109400524e+02 3.443998770333722632e+02 -3.443998770333722632e+02 4.648588362476694442e+02 -4.648588362476694442e+02 3.504017038380886220e+02 -3.504017038380886220e+02 5.607114564127236918e+02 -5.607114564127236918e+02 5.576509529074190823e+02 -5.576509529074190823e+02 3.598641826348912787e+02 -3.598641826348912787e+02 4.991908246767271748e+02 -4.991908246767271748e+02 5.851522394464780064e+02 -5.851522394464780064e+02 5.947933702845060679e+02 -5.947933702845060679e+02 4.745886796939567489e+02 -4.745886796939567489e+02
1.203727730100885400e-02 3.945721265357612992e+02 -3.945721265357612992e+02 3.672587337381545467e+02 -3.672587337381545467e+02 3.867526444883017689e+02 -3.867526444883017689e+02 4.674033258395984376e+02 -4.674033258395984376e+02 5.854164992348296437e+02 -5.854164992348296437e+02 3.667942654497644526e+02 -3.667942654497644526e+02 5.683423825214064209e+02 -5.683423825214064209e+02 5.048702911764754617e+02 -5.048702911764754617e+02 4.635652396224555787e+02 -4.635652396224555787e+02 5.706743915300486378e+02 -5.706743915300486378e+02 3.584276704921470582e+02 -3.584276704921470582e+02 4.566483274700185007e+02 -4.566483274700185007e+02
-5.194665190960355387e-03 3.550772873072812672e+02 -3.550772873072812672e+02 4.463404489103645005e+02 -4.463404489103645005e+02 5.223773314282876754e+02 -5.223773314282876754e+02 5.631663810899796090e+02 -5.631663810899796090e+02 3.240052324039303926e+02 -3.240052324039303926e+02 5.665699337749158531e+02 -5.665699337749158531e+02 3.182092375663057737e+02 -3.182092375663057737e+02 4.832493159592427219e+02 -4.832493159592427219e+02 5.503942389336858696e+02 -5.503942389336858696e+02 3.968501651700300386e+02 -3.968501651700300386e+02 5.479448368526707327e+02 -5.479448368526707327e+02 5.869281857133406675e+02 -5.869281857133406675e+02
-2.348685611709473361e-02 6.124679675620607213e+02 -6.124679675620607213e+02 3.573390844042891104e+02 -3.573390844042891104e+02 5.730616331934124901e+02 -5.730616331934124901e+02 5.930759533699747408e+02 -5.930759533699747408e+02 6.435996344543632404e+02 -6.435996344543632404e+02 5.646974452799765913e+02 -5.646974452799765913e+02 5.539401523913102210e+02 -5.539401523913102210e+02 4.243720923218752432e+02 -4.243720923218752432e+02 5.236074212503560830e+02 -5.236074212503560830e+02 4.301455447168223145e+02 -4.301455447168223145e+02 5.154402994079551945e+02 -5.154402994079551945e+02 5.130988836907721407e+02 -5.130988836907721407e+02
1.011182629817436972e-02 6.237172711761704704e+02 -6.237172711761704704e+02 5.579678601832197273e+02 -5.579678601832197273e+02 3.722845520107332504e+02 -3.722845520107332504e+02 6.276809528032058552e+02 -6.276809528032058552e+02 5.606816638136097026e+02 -5.606816638136097026e+02 5.822866293491584884e+02 -5.822866293491584884e+02 5.598645695002786624e+02 -5.598645695002786624e+02 4.193652490465819369e+02 -4.193652490465819369e+02 4.993992102949442824e+02 -4.993992102949442824e+02 4.341996467742562800e+02 -4.341996467742562800e+02 5.079010390497255685e+02 -5.079010390497255685e+02 6.164869384328915203e+02 -6.164869384328915203e+02
8.343513298439730929e-04 4.975202238006587550e+02 -4.975202238006587550e+02 5.295844132997070801e+02 -5.295844132997070801e+02 6.075386429073803356e+02 -6.075386429073803356e+02 6.287464792676144043e+02 -6.287464792676144043e+02 3.927751487923021045e+02 -3.927751487923021045e+02 5.406342738282248774e+02 -5.406342738282248774e+02 6.114035540134898383e+02 -6.114035540134898383e+02 5.690602217954628941e+02 -5.690602217954628941e+02 3.735554631229573488e+02 -3.735554631229573488e+02 5.859153653628435450e+02 -5.859153653628435450e+02 5.828482116838467846e+02 -5.828482116838467846e+02 6.250414669022543421e+02 -6.250414669022543421e+02
8.420416636727828461e-03 5.937337407694610647e+02 -5.937337407694610647e+02 4.584958625797138438e+02 -4.584958625797138438e+02 6.350450666796871246e+02 -6.350450666796871246e+02 4.173836691139589448e+02 -4.173836691139589448e+02 4.726052682920652614e+02 -4.726052682920652614e+02 5.319328390617636160e+02 -5.319328390617636160e+02 4.035125778431317940e+02 -4.035125778431317940e+02 3.757814067250798757e+02 -3.757814067250798757e+02 5.012825200846709777e+02 -5.012825200846709777e+02 4.038744467394273556e+02 -4.038744467394273556e+02 3.291955847714993411e+02 -3.291955847714993411e+02 4.140571702178884834e+02 -4.140571702178884834e+02
1.108969449088493620e-03 4.487530019492928091e+02 -4.487530019492928091e+02 4.758457852578334837e+02 -4.758457852578334837e+02 3.370967756524243555e+02 -3.370967756524243555e+02 4.861302188479060646e+02 -4.861302188479060646e+02 5.700253153181545258e+02 -5.700253153181545258e+02 3.519019997091963319e+02 -3.519019997091963319e+02 5.892972422950654163e+02 -5.892972422950654163e+02 6.212249623137371373e+02 -6.212249623137371373e+02 5.048867125901471695e+02 -5.048867125901471695e+02 6.296285741283223842e+02 -6.296285741283223842e+02 3.487983401534398809e+02 -3.487983401534398809e+02 5.661570361187090157e+02 -5.661570361187090157e+02
2.530737416778436680e-02 6.038074933799342716e+02 -6.038074933799342716e+02 4.745841229206478715e+02 -4.745841229206478715e+02 3.288568996265946680e+02 -3.288568996265946680e+02 4.131833330913157170e+02 -4.131833330913157170e+02 6.181631921231991100e+02 -6.181631921231991100e+02 6.130632169885827807e+02 -6.130632169885827807e+02 4.284575683708374640e+02 -4.284575683708374640e+02 5.017417445871789141e+02 -5.017417445871789141e+02 5.880552031930938028e+02 -5.880552031930938028e+02 3.229463194381870608e+02 -3.229463194381870608e+02 3.366495888035071289e+02 -3.366495888035071289e+02 4.842193490152380946e+02 -4.842193490152380946e+02
5.154646443009926986e-06 3.975675909297899580e+02 -3.975675909297899580e+02 3.291638159186956614e+02 -3.291638159186956614e+02 5.946889903073833921e+02 -5.946889903073833921e+02 5.600864120055475723e+02 -5.600864120055475723e+02 5.417029574534091125e+02 -5.417029574534091125e+02 4.966981082990790810e+02 -4.966981082990790810e+02 4.874615328020492484e+02 -4.874615328020492484e+02 4.261348741336727812e+02 -4.261348741336727812e+02 5.565981571482224126e+02 -5.565981571482224126e+02 4.627366451927148319e+02 -4.627366451927148319e+02 5.233270944885066456e+02 -5.233270944885066456e+02 5.155254166772788267e+02 -5.155254166772788267e+02
-4.674948281216881329e-03 3.571299527584836824e+02 -3.571299527584836824e+02 4.731777530029129935e+02 -4.731777530029129935e+02 3.756924153948904745e+02 -3.756924153948904745e+02 4.665200097014190987e+02 -4.665200097014190987e+02 3.907210426169845050e+02 -3.907210426169845050e+02 5.316058986023119814e+02 -5.316058986023119814e+02 4.081266749977044697e+02 -4.081266749977044697e+02 5.932197746505387386e+02 -5.932197746505387386e+02 4.245702475197792296e+02 -4.245702475197792296e+02 4.711433395619839075e+02 -4.711433395619839075e+02 3.423989842057244459e+02 -3.423989842057244459e+02 4.650516383733301495e+02 -4.650516383733301495e+02
0.000000000000000000e+00 4.021603899054528029e+02 -4.021603899054528029e+02 4.754908215225914887e+02 -4.754908215225914887e+02 4.645278067551050185e+02 -4.645278067551050185e+02 3.177455926840819416e+02 -3.177455926840819416e+02 5.321209054351269288e+02 -5.321209054351269288e+02 3.459151900044666945e+02 -3.459151900044666945e+02 5.695239894167315242e+02 -5.695239894167315242e+02 4.500161025051047545e+02 -4.500161025051047545e+02 6.236353837346896398e+02 -6.236353837346896398e+02 4.716661685237780262e+02 -4.716661685237780262e+02 5.364179637970056547e+02 -5.364179637970056547e+02 3.960208898042326950e+02 -3.960208898042326950e+02
-2.565025582086025505e-02 6.339681458747887746e+02 -6.339681458747887746e+02 4.685963402742715402e+02 -4.685963402742715402e+02 5.024356069483329748e+02 -5.024356069483329748e+02 3.457314996325338257e+02 -3.457314996325338257e+02 4.347657394198474208e+02 -4.347657394198474208e+02 5.321712645284184191e+02 -5.321712645284184191e+02 4.590899571815808713e+02 -4.590899571815808713e+02 4.795824169023966874e+02 -4.795824169023966874e+02 5.515967087011658805e+02 -5.515967087011658805e+02 5.396826368409315364e+02 -5.396826368409315364e+02 3.886672986344565857e+02 -3.886672986344565857e+02 4.947112838787748501e+02 -4.947112838787748501e+02
5.258354671943681925e-03 4.815209125049730687e+02 -4.815209125049730687e+02 3.850125366911852325e+02 -3.850125366911852325e+02 6.319123663322824314e+02 -6.319123663322824314e+02 3.669689591455439768e+02 -3.669689591455439768e+02 5.580967842857940013e+02 -5.580967842857940013e+02 5.695534552365780883e+02 -5.695534552365780883e+02 3.282660878545244714e+02 -3.282660878545244714e+02 4.972744150000767718e+02 -4.972744150000767718e+02 5.564454489951842788e+02 -5.564454489951842788e+02 6.316252184057929071e+02 -6.316252184057929071e+02 4.638081844881659777e+02 -4.638081844881659777e+02 4.608310463947489666e+02 -4.608310463947489666e+02
-5.546960237695941140e-03 4.234445755292472313e+02 -4.234445755292472313e+02 5.588362234148594325e+02 -5.588362234148594325e+02 5.751267251733454486e+02 -5.751267251733454486e+02 3.478300494715817308e+02 -3.478300494715817308e+02 3.781911281272151655e+02 -3.781911281272151655e+02 5.286669915844639718e+02 -5.286669915844639718e+02 5.420127420104046223e+02 -5.420127420104046223e+02 5.748401546439516778e+02 -5.748401546439516778e+02 6.077868026043657892e+02 -6.077868026043657892e+02 5.276279918712555173e+02 -5.276279918712555173e+02 5.661885439210433333e+02 -5.661885439210433333e+02 6.177115220361873753e+02 -6.177115220361873753e+02
-1.864362009271530209e-03 3.521655789057168136e+02 -3.521655789057168136e+02 3.631780277108526889e+02 -3.631780277108526889e+02 6.002832044941762888e+02 -6.002832044941762888e+02 3.978106913857797622e+02 -3.978106913857797622e+02 6.348826607825048995e+02 -6.348826607825048995e+02 3.493246878561789117e+02 -3.493246878561789117e+02 3.896190423044736804e+02 -3.896190423044736804e+02 4.566801204980130251e+02 -4.566801204980130251e+02 4.976563557814959040e+02 -4.976563557814959040e+02 6.106735870856554129e+02 -6.106735870856554129e+02 4.674095772665425557e+02 -4.674095772665425557e+02 3.934353957837724352e+02 -3.934353957837724352e+02
-7.489368522916486741e-04 4.574635967708412068e+02 -4.574635967708412068e+02 5.430502857162164219e+02 -5.430502857162164219e+02 5.683001703026146743e+02 -5.683001703026146743e+02 5.459337936273792593e+02 -5.459337936273792593e+02 4.952856280897029819e+02 -4.952856280897029819e+02 4.743780476147125000e+02 -4.743780476147125000e+02 3.820719530415335043e+02 -3.820719530415335043e+02 3.624704435324291580e+02 -3.624704435324291580e+02 5.170224058930364208e+02 -5.170224058930364208e+02 4.605323169545592918e+02 -4.605323169545592918e+02 4.701711255796620321e+02 -4.701711255796620321e+02 5.663951611394162455e+02 -5.663951611394162455e+02
3.834122743432689896e-04 4.024698337031950359e+02 -4.024698337031950359e+02 4.848139028150574745e+02 -4.848139028150574745e+02 5.481745132057833416e+02 -5.481745132057833416e+02 3.198538562294263556e+02 -3.198538562294263556e+02 4.753267871111122531e+02 -4.753267871111122531e+02 4.403192366032559448e+02 -4.403192366032559448e+02 3.427137757639093252e+02 -3.427137757639093252e+02 6.358600415991122645e+02 -6.358600415991122645e+02 5.357032740392473897e+02 -5.357032740392473897e+02 4.982927019627519485e+02 -4.982927019627519485e+02 6.338027346237734037e+02 -6.338027346237734037e+02 3.975483559208248039e+02 -3.975483559208248039e+02
2.001588512257864057e-03 4.701620756537853936e+02 -4.701620756537853936e+02 5.149682059689625930e+02 -5.149682059689625930e+02 6.278204053166766698e+02 -6.278204053166766698e+02 4.069285222753122184e+02 -4.069285222753122184e+02 4.586188546528873076e+02 -4.586188546528873076e+02 4.234083176356706417e+02 -4.234083176356706417e+02 6.278489860789622981e+02 -6.278489860789622981e+02 5.442842720828296024e+02 -5.442842720828296024e+02 5.586274390420342115e+02 -5.586274390420342115e+02 4.624078222256695767e+02 -4.624078222256695767e+02 6.325308200900161637e+02 -6.325308200900161637e+02 5.518048190548515777e+02 -5.518048190548515777e+02
3.942521118215218043e-03 6.203683097458989550e+02 -6.203683097458989550e+02 5.120973330344085070e+02 -5.120973330344085070e+02 6.099218393316534730e+02 -6.099218393316534730e+02 4.600497977265588361e+02 -4.600497977265588361e+02 4.472242050237579747e+02 -4.472242050237579747e+02 3.800398620876666200e+02 -3.800398620876666200e+02 3.851287185857022450e+02 -3.851287185857022450e+02 3.449500934833438919e+02 -3.449500934833438919e+02 4.325561078329686211e+02 -4.325561078329686211e+02 3.824793956699156752e+02 -3.824793956699156752e+02 5.297054729697150606e+02 -5.297054729697150606e+02 3.468006444186275985e+02 -3.468006444186275985e+02
-3.713363031913889667e-02 5.096350707698441056e+02 -5.096350707698441056e+02 3.551503709673797289e+02 -3.551503709673797289e+02 4.869233469693739949e+02 -4.869233469693739949e+02 6.131201555039341429e+02 -6.131201555039341429e+02 4.332068767632856634e+02 -4.332068767632856634e+02 4.796022996106018468e+02 -4.796022996106018468e+02 5.969660824271962838e+02 -5.969660824271962838e+02 3.520980046511380124e+02 -3.520980046511380124e+02 4.557913242916961281e+02 -4.557913242916961281e+02 6.308143445594224659e+02 -6.308143445594224659e+02 3.971475702094888334e+02 -3.971475702094888334e+02 6.303769823832757311e+02 -6.303769823832757311e+02
5.456043589654850385e-04 5.865859205126259894e+02 -5.865859205126259894e+02 5.952809425185369037e+02 -5.952809425185369037e+02 5.404059690691867672e+02 -5.404059690691867672e+02 6.207853593712142128e+02 -6.207853593712142128e+02 5.900770142496224935e+02 -5.900770142496224935e+02 6.097155280757963283e+02 -6.097155280757963283e+02 6.041683861020986797e+02 -6.041683861020986797e+02 5.037283274854686397e+02 -5.037283274854686397e+02 4.542331279095817536e+02 -4.542331279095817536e+02 5.037638727672114101e+02 -5.037638727672114101e+02 5.949686952561158932e+02 -5.949686952561158932e+02 3.890278306036219078e+02 -3.890278306036219078e+02
3.988183456065194470e-03 5.372782393998443240e+02 -5.372782393998443240e+02 5.018272901978974119e+02 -5.018272901978974119e+02 4.422055450512226003e+02 -4.422055450512226003e+02 3.370454632647183075e+02 -3.370454632647183075e+02 6.100753505674565531e+02 -6.100753505674565531e+02 4.676316635984341588e+02 -4.676316635984341588e+02 3.266054957715717251e+02 -3.266054957715717251e+02 4.976824207552705275e+02 -4.976824207552705275e+02 5.476535039240216065e+02 -5.476535039240216065e+02 4.867818701279453535e+02 -4.867818701279453535e+02 4.524707596883239944e+02 -4.524707596883239944e+02 6.228364214048193617e+02 -6.228364214048193617e+02
-4.701413913762863758e-03 5.593134028006692233e+02 -5.593134028006692233e+02 6.251869241098522707e+02 -6.251869241098522707e+02 4.597764630971548172e+02 -4.597764630971548172e+02 5.060542280153414367e+02 -5.060542280153414367e+02 4.658903131189919122e+02 -4.658903131189919122e+02 4.002613828899219470e+02 -4.002613828899219470e+02 4.764324839741505002e+02 -4.764324839741505002e+02 5.290463694976715487e+02 -5.290463694976715487e+02 4.439943215375380419e+02 -4.439943215375380419e+02 5.447473177441650023e+02 -5.447473177441650023e+02 5.084808501394459768e+02 -5.084808501394459768e+02 4.382312673536922034e+02 -4.382312673536922034e+02
-8.659966918095493571e-03 4.607968973728885658e+02 -4.607968973728885658e+02 5.041147004895959185e+02 -5.041147004895959185e+02 5.977524821288157000e+02 -5.977524821288157000e+02 3.245578275401732071e+02 -3.245578275401732071e+02 6.269527987661801944e+02 -6.269527987661801944e+02 3.538128337898705240e+02 -3.538128337898705240e+02 3.997596385141359292e+02 -3.997596385141359292e+02 4.024678028651379691e+02 -4.024678028651379691e+02 4.159361298219297396e+02 -4.159361298219297396e+02 5.135315160770572902e+02 -5.135315160770572902e+02 4.754861949591791586e+02 -4.754861949591791586e+02 4.145017336076692800e+02 -4.145017336076692800e+02
5.956307379400967335e-03 4.099608091817052014e+02 -4.099608091817052014e+02 4.006638766731838359e+02 -4.006638766731838359e+02 4.781529451724628643e+02 -4.781529451724628643e+02 6.011940329394891478e+02 -6.011940329394891478e+02 4.585553612663438798e+02 -4.585553612663438798e+02 4.447347564483856104e+02 -4.447347564483856104e+02 4.835885132998323570e+02 -4.835885132998323570e+02 4.180520665808425065e+02 -4.180520665808425065e+02 4.842674057417747235e+02 -4.842674057417747235e+02 4.642943746732847785e+02 -4.642943746732847785e+02 4.597332552417827856e+02 -4.597332552417827856e+02 4.610020399464727348e+02 -4.610020399464727348e+02
-5.347774042722491100e-02 3.833578691437212456e+02 -3.833578691437212456e+02 5.127563153075128639e+02 -5.127563153075128639e+02 5.761780873773406029e+02 -5.761780873773406029e+02 6.083105083155857074e+02 -6.083105083155857074e+02 6.010699240179366143e+02 -6.010699240179366143e+02 5.038310703535330504e+02 -5.038310703535330504e+02 4.758950051506795376e+02 -4.758950051506795376e+02 4.714658400559974893e+02 -4.714658400559974893e+02 6.212054175176588160e+02 -6.212054175176588160e+02 3.418475117493113089e+02 -3.418475117493113089e+02 5.418690623635324073e+02 -5.418690623635324073e+02 3.802725810321585413e+02 -3.802725810321585413e+02
-1.146314123877488211e-01 3.308134937223836687e+02 -3.308134937223836687e+02 5.100452480228757395e+02 -5.100452480228757395e+02 4.970404624450720803e+02 -4.970404624450720803e+02 6.031264770276766285e+02 -6.031264770276766285e+02 3.939822460662743993e+02 -3.939822460662743993e+02 5.430859562340169759e+02 -5.430859562340169759e+02 3.901582452458163743e+02 -3.901582452458163743e+02 5.718074006528796644e+02 -5.718074006528796644e+02 5.960634658057774686e+02 -5.960634658057774686e+02 3.378358278205475926e+02 -3.378358278205475926e+02 3.569391551259523112e+02 -3.569391551259523112e+02 3.738073334299104431e+02 -3.738073334299104431e+02
7.167301945053741047e-03 3.243985178396003448e+02 -3.243985178396003448e+02 3.264752084654641067e+02 -3.264752084654641067e+02 4.561694416608948472e+02 -4.561694416608948472e+02 4.270898895849533687e+02 -4.270898895849533687e+02 4.417765032761856219e+02 -4.417765032761856219e+02 5.755129798297027719e+02 -5.755129798297027719e+02 3.566501811738051515e+02 -3.566501811738051515e+02 3.524533867299094823e+02 -3.524533867299094823e+02 4.051562700391569365e+02 -4.051562700391569365e+02 6.124708865503158677e+02 -6.124708865503158677e+02 4.700593002720698337e+02 -4.700593002720698337e+02 5.497993608445144673e+02 -5.497993608445144673e+02
-1.309173815144618232e-02 3.706794759798192445e+02 -3.706794759798192445e+02 5.025084193160493555e+02 -5.025084193160493555e+02 5.039492797411206197e+02 -5.039492797411206197e+02 5.825983407524297490e+02 -5.825983407524297490e+02 5.396902929631744428e+02 -5.396902929631744428e+02 5.735091138187245861e+02 -5.735091138187245861e+02 5.257788026923144571e+02 -5.257788026923144571e+02 6.318820700289809338e+02 -6.318820700289809338e+02 3.200735620215981498e+02 -3.200735620215981498e+02 4.475361763762816167e+02 -4.475361763762816167e+02 4.084941144316076702e+02 -4.084941144316076702e+02 4.043749178172571987e+02 -4.043749178172571987e+02
1.833855289430320109e-03 6.199196778341540721e+02 -6.199196778341540721e+02 4.035877787644078012e+02 -4.035877787644078012e+02 4.414947990941133753e+02 -4.414947990941133753e+02 3.981240782763445623e+02 -3.981240782763445623e+02 6.377408076958042784e+02 -6.377408076958042784e+02 4.071956581254033267e+02 -4.071956581254033267e+02 3.302483003575248404e+02 -3.302483003575248404e+02 3.715970641348508821e+02 -3.715970641348508821e+02 4.163231985839557296e+02 -4.163231985839557296e+02 3.370048772681191167e+02 -3.370048772681191167e+02 5.379379823572620580e+02 -5.379379823572620580e+02 4.924574834684038365e+02 -4.924574834684038365e+02
-8.206289793455549819e-03 6.280684406279042378e+02 -6.280684406279042378e+02 6.010813276578052182e+02 -6.010813276578052182e+02 3.256418304606133916e+02 -3.256418304606133916e+02 4.721081474335667849e+02 -4.721081474335667849e+02 4.805646283584387675e+02 -4.805646283584387675e+02 6.062446944450601904e+02 -6.062446944450601904e+02 4.857856727014828948e+02 -4.857856727014828948e+02 3.982871025739014499e+02 -3.982871025739014499e+02 3.831488931983142265e+02 -3.831488931983142265e+02 4.758361212788757939e+02 -4.758361212788757939e+02 5.891082716750757982e+02 -5.891082716750757982e+02 5.443241689213548398e+02 -5.443241689213548398e+02
4.250048354980339588e-02 3.864646586668756640e+02 -3.864646586668756640e+02 3.434621871800379722e+02 -3.434621871800379722e+02 5.403341109191771920e+02 -5.403341109191771920e+02 6.194999474145370186e+02 -6.194999474145370186e+02 5.952012355097868976e+02 -5.952012355097868976e+02 6.003910782225395906e+02 -6.003910782225395906e+02 3.506161957900128527e+02 -3.506161957900128527e+02 5.255985631835305867e+02 -5.255985631835305867e+02 4.173002185021813943e+02 -4.173002185021813943e+02 4.867922111484191987e+02 -4.867922111484191987e+02 6.244633211583163757e+02 -6.244633211583163757e+02 6.148117193747717693e+02 -6.148117193747717693e+02
1.091140041059064343e-03 4.532582592753304880e+02 -4.532582592753304880e+02 4.174925629820005497e+02 -4.174925629820005497e+02 5.323375136997545951e+02 -5.323375136997545951e+02 5.352008953256146242e+02 -5.352008953256146242e+02 3.402803266567507308e+02 -3.402803266567507308e+02 5.017455875612849354e+02 -5.017455875612849354e+02 5.442964428073067893e+02 -5.442964428073067893e+02 5.417229160378363986e+02 -5.417229160378363986e+02 5.322234905568230943e+02 -5.322234905568230943e+02 5.432515181428575488e+02 -5.432515181428575488e+02 4.698389643687319221e+02 -4.698389643687319221e+02 6.060748073617869522e+02 -6.060748073617869522e+02
-8.659966918095498775e-03 5.494886272373564680e+02 -5.494886272373564680e+02 5.401899808313781932e+02 -5.401899808313781932e+02 3.689033224287540520e+02 -3.689033224287540520e+02 5.186105757318831593e+02 -5.186105757318831593e+02 6.096957809841713924e+02 -6.096957809841713924e+02 3.867492250688111994e+02 -3.867492250688111994e+02 4.005475747955337056e+02 -4.005475747955337056e+02 3.973238353267032608e+02 -3.973238353267032608e+02 4.515246995261584289e+02 -4.515246995261584289e+02 6.102938645234661408e+02 -6.102938645234661408e+02 5.537780622337043042e+02 -5.537780622337043042e+02 3.913409259320786759e+02 -3.913409259320786759e+02
3.486050562005954881e-03 4.129212188959746186e+02 -4.129212188959746186e+02 5.054623942651928701e+02 -5.054623942651928701e+02 6.203249130765847212e+02 -6.203249130765847212e+02 6.184836526748664483e+02 -6.184836526748664483e+02 6.426594078223245106e+02 -6.426594078223245106e+02 4.619863377585608077e+02 -4.619863377585608077e+02 5.020350011467215836e+02 -5.020350011467215836e+02 5.411259606702625433e+02 -5.411259606702625433e+02 4.904466720279078231e+02 -4.904466720279078231e+02 5.178567430969736733e+02 -5.178567430969736733e+02 6.279314496036082573e+02 -6.279314496036082573e+02 6.303704942426186335e+02 -6.303704942426186335e+02
-2.175879221599566309e-03 5.339128436181587176e+02 -5.339128436181587176e+02 5.146385598771439618e+02 -5.146385598771439618e+02 4.331087308895518504e+02 -4.331087308895518504e+02 4.427269674084620874e+02 -4.427269674084620874e+02 4.787529498218368076e+02 -4.787529498218368076e+02 4.450104183249497396e+02 -4.450104183249497396e+02 5.657447575490612053e+02 -5.657447575490612053e+02 3.976196136723278869e+02 -3.976196136723278869e+02 5.156718493711309748e+02 -5.156718493711309748e+02 4.397990744906137479e+02 -4.397990744906137479e+02 6.166905268395435087e+02 -6.166905268395435087e+02 3.416919619664286643e+02 -3.416919619664286643e+02
2.094572384252398403e-03 5.281081034911225061e+02 -5.281081034911225061e+02 4.276949419372605234e+02 -4.276949419372605234e+02 3.715956823957251345e+02 -3.715956823957251345e+02 6.119806137794207643e+02 -6.119806137794207643e+02 6.010045785778856953e+02 -6.010045785778856953e+02 5.614695048514258815e+02 -5.614695048514258815e+02 5.408497080276446241e+02 -5.408497080276446241e+02 5.194916209790898165e+02 -5.194916209790898165e+02 5.317440731771793025e+02 -5.317440731771793025e+02 3.789837513795441737e+02 -3.789837513795441737e+02 4.737439135580281118e+02 -4.737439135580281118e+02 3.525638218255670608e+02 -3.525638218255670608e+02
-2.327968201782753752e-02 5.799664182084832191e+02 -5.799664182084832191e+02 5.575088749022510228e+02 -5.575088749022510228e+02 5.661076729753165182e+02 -5.661076729753165182e+02 5.331676440364426526e+02 -5.331676440364426526e+02 3.830330579615262536e+02 -3.830330579615262536e+02 3.658850841573897128e+02 -3.658850841573897128e+02 4.470142618294416934e+02 -4.470142618294416934e+02 4.081832914285260472e+02 -4.081832914285260472e+02 4.890360670835885344e+02 -4.890360670835885344e+02 4.931952606766130316e+02 -4.931952606766130316e+02 3.830279099066423214e+02 -3.830279099066423214e+02 4.748916380064080727e+02 -4.748916380064080727e+02
7.570665071517700476e-03 4.998298774223905525e+02 -4.998298774223905525e+02 3.722799154776427599e+02 -3.722799154776427599e+02 5.237140892390812041e+02 -5.237140892390812041e+02 3.296880577908260648e+02 -3.296880577908260648e+02 4.295688211644972512e+02 -4.295688211644972512e+02 5.883887864862743982e+02 -5.883887864862743982e+02 3.270592715186697887e+02 -3.270592715186697887e+02 3.577990030076019821e+02 -3.577990030076019821e+02 5.856287027731713124e+02 -5.856287027731713124e+02 5.900894514537903888e+02 -5.900894514537903888e+02 5.023797036384595458e+02 -5.023797036384595458e+02 4.416687815695466952e+02 -4.416687815695466952e+02
1.480316650631963507e-02 5.193536870023907568e+02 -5.193536870023907568e+02 4.470329666113548797e+02 -4.470329666113548797e+02 4.343990623387043684e+02 -4.343990623387043684e+02 5.260031544196283448e+02 -5.260031544196283448e+02 5.146210999733332301e+02 -5.146210999733332301e+02 4.367052451093501304e+02 -4.367052451093501304e+02 3.243863154292408240e+02 -3.243863154292408240e+02 5.148251422978904657e+02 -5.148251422978904657e+02 5.384856810653517414e+02 -5.384856810653517414e+02 3.708234802239749683e+02 -3.708234802239749683e+02 5.680561522595187398e+02 -5.680561522595187398e+02 4.811136053482752004e+02 -4.811136053482752004e+02
3.211294579814328448e-02 3.641851683960284163e+02 -3.641851683960284163e+02 6.209993579806545085e+02 -6.209993579806545085e+02 5.177162132945218218e+02 -5.177162132945218218e+02 3.800481458771515690e+02 -3.800481458771515690e+02 5.051152198888324847e+02 -5.051152198888324847e+02 5.097054326896203520e+02 -5.097054326896203520e+02 5.247212191610408354e+02 -5.247212191610408354e+02 4.744849910403750073e+02 -4.744849910403750073e+02 5.671477174678074107e+02 -5.671477174678074107e+02 4.332967840325682118e+02 -4.332967840325682118e+02 5.409180846116614703e+02 -5.409180846116614703e+02 5.537967472651239405e+02 -5.537967472651239405e+02
-2.748609752787076199e-02 3.967726024845503048e+02 -3.967726024845503048e+02 5.193691166136512720e+02 -5.193691166136512720e+02 5.260071828843532558e+02 -5.260071828843532558e+02 4.795666871127182844e+02 -4.795666871127182844e+02 4.582378081156494432e+02 -4.582378081156494432e+02 5.930716674903653711e+02 -5.930716674903653711e+02 3.192059758207283835e+02 -3.192059758207283835e+02 5.662771531893234851e+02 -5.662771531893234851e+02 3.964029067517335534e+02 -3.964029067517335534e+02 4.985009968747924063e+02 -4.985009968747924063e+02 4.686680622771805247e+02 -4.686680622771805247e+02 3.197637531390830077e+02 -3.197637531390830077e+02
-1.309173815144618232e-02 5.366654383066245373e+02 -5.366654383066245373e+02 3.814184372588497354e+02 -3.814184372588497354e+02 3.463960854120398949e+02 -3.463960854120398949e+02 3.753691825719419057e+02 -3.753691825719419057e+02 5.512708775661335494e+02 -5.512708775661335494e+02 3.797760355878759242e+02 -3.797760355878759242e+02 3.661202447529043411e+02 -3.661202447529043411e+02 5.862483563857452964e+02 -5.862483563857452964e+02 4.536681625484671940e+02 -4.536681625484671940e+02 6.106226195009381854e+02 -6.106226195009381854e+02 4.367993789600475338e+02 -4.367993789600475338e+02 5.663618673479143126e+02 -5.663618673479143126e+02
-3.960602882819153764e-02 4.201188261677442597e+02 -4.201188261677442597e+02 4.642616124183659849e+02 -4.642616124183659849e+02 4.770386693753162035e+02 -4.770386693753162035e+02 4.009389710843382773e+02 -4.009389710843382773e+02 5.874235397976461854e+02 -5.874235397976461854e+02 4.170316672786253207e+02 -4.170316672786253207e+02 4.078523806764154642e+02 -4.078523806764154642e+02 3.306985057335708120e+02 -3.306985057335708120e+02 6.106642685348110717e+02 -6.106642685348110717e+02 3.237048723667185186e+02 -3.237048723667185186e+02 4.020212853081791309e+02 -4.020212853081791309e+02 6.251346402979753520e+02 -6.251346402979753520e+02
3.224437287631366084e-02 6.055281853137038297e+02 -6.055281853137038297e+02 4.018254141925372664e+02 -4.018254141925372664e+02 3.826897844936001434e+02 -3.826897844936001434e+02 6.188344712533005350e+02 -6.188344712533005350e+02 5.754478568590186569e+02 -5.754478568590186569e+02 3.644730719048454830e+02 -3.644730719048454830e+02 4.938680561797402220e+02 -4.938680561797402220e+02 5.135931712830785045e+02 -5.135931712830785045e+02 5.201235662627494776e+02 -5.201235662627494776e+02 5.470805765901424138e+02 -5.470805765901424138e+02 4.309082574152481584e+02 -4.309082574152481584e+02 4.480493060703067272e+02 -4.480493060703067272e+02
-4.418481816032948824e-03 3.926847302533820425e+02 -3.926847302533820425e+02 4.663105832347906698e+02 -4.663105832347906698e+02 5.105509618747651643e+02 -5.105509618747651643e+02 5.355897352662965432e+02 -5.355897352662965432e+02 6.149795794557276167e+02 -6.149795794557276167e+02 3.623032940432711939e+02 -3.623032940432711939e+02 4.828819435870337315e+02 -4.828819435870337315e+02 5.860460148745312381e+02 -5.860460148745312381e+02 4.380775445405786286e+02 -4.380775445405786286e+02 3.423344509471799029e+02 -3.423344509471799029e+02 4.855492919476640168e+02 -4.855492919476640168e+02 4.372421352991335652e+02 -4.372421352991335652e+02
-1.643245585579592512e-04 4.763456932329583537e+02 -4.763456932329583537e+02 4.538158066106722117e+02 -4.538158066106722117e+02 6.095669542293090899e+02 -6.095669542293090899e+02 5.747327454766178789e+02 -5.747327454766178789e+02 3.519303774377161176e+02 -3.519303774377161176e+02 5.377114030758368699e+02 -5.377114030758368699e+02 4.611626639423812435e+02 -4.611626639423812435e+02 5.967835143223867362e+02 -5.967835143223867362e+02 5.581346095193557630e+02 -5.581346095193557630e+02 3.387445106116171019e+02 -3.387445106116171019e+02 5.583186941327365957e+02 -5.583186941327365957e+02 5.111976851089117986e+02 -5.111976851089117986e+02
1.790151132774381358e-03 3.234913639770537088e+02 -3.234913639770537088e+02 3.333937867217310895e+02 -3.333937867217310895e+02 5.278928734968411618e+02 -5.278928734968411618e+02 5.219804449078600328e+02 -5.219804449078600328e+02 3.448503142694761436e+02 -3.448503142694761436e+02 3.871636824117727542e+02 -3.871636824117727542e+02 6.343303367741546026e+02 -6.343303367741546026e+02 4.602708742351636033e+02 -4.602708742351636033e+02 3.326869162779543672e+02 -3.326869162779543672e+02 4.352322370487423768e+02 -4.352322370487423768e+02 4.978853814521475556e+02 -4.978853814521475556e+02 3.260765914205312583e+02 -3.260765914205312583e+02
-6.781730277860212840e-03 5.761673987172207489e+02 -5.761673987172207489e+02 4.958620319349558940e+02 -4.958620319349558940e+02 4.561203975590279356e+02 -4.561203975590279356e+02 4.781016343080057140e+02 -4.781016343080057140e+02 4.217647625330776009e+02 -4.217647625330776009e+02 3.778017993338999645e+02 -3.778017993338999645e+02 4.401738511628385595e+02 -4.401738511628385595e+02 3.991551232522431860e+02 -3.991551232522431860e+02 5.263360846005564326e+02 -5.263360846005564326e+02 5.345067490921757098e+02 -5.345067490921757098e+02 4.045654917314741397e+02 -4.045654917314741397e+02 5.130470325716167963e+02 -5.130470325716167963e+02
-1.380574956702569633e-02 6.284048290336675109e+02 -6.284048290336675109e+02 6.128737239637592893e+02 -6.128737239637592893e+02 3.712607463894482862e+02 -3.712607463894482862e+02 3.463346748019198458e+02 -3.463346748019198458e+02 6.259405638036465689e+02 -6.259405638036465689e+02 3.859018844455134740e+02 -3.859018844455134740e+02 4.571205687337526911e+02 -4.571205687337526911e+02 4.760281174894002447e+02 -4.760281174894002447e+02 3.829967805967702930e+02 -3.829967805967702930e+02 3.848826654152444462e+02 -3.848826654152444462e+02 3.980652067668927430e+02 -3.980652067668927430e+02 5.369499362977672945e+02 -5.369499362977672945e+02
0.000000000000000000e+00 6.186976615928082310e+02 -6.186976615928082310e+02 4.379880143964711579e+02 -4.379880143964711579e+02 4.820004121899429492e+02 -4.820004121899429492e+02 4.402526684559227306e+02 -4.402526684559227306e+02 4.559572791874440441e+02 -4.559572791874440441e+02 5.501928725228915482e+02 -5.501928725228915482e+02 4.549100089133477809e+02 -4.549100089133477809e+02 6.349268594402738017e+02 -6.349268594402738017e+02 5.147715178482924330e+02 -5.147715178482924330e+02 5.323141369992806631e+02 -5.323141369992806631e+02 4.556097356604673223e+02 -4.556097356604673223e+02 5.789826336219558698e+02 -5.789826336219558698e+02
-7.042666682227211733e-03 5.929805763498246733e+02 -5.929805763498246733e+02 5.815713641170506207e+02 -5.815713641170506207e+02 4.993995185877270728e+02 -4.993995185877270728e+02 3.768074112794063240e+02 -3.768074112794063240e+02 4.600075859882400664e+02 -4.600075859882400664e+02 5.754735631036602399e+02 -5.754735631036602399e+02 5.107557034361667547e+02 -5.107557034361667547e+02 6.100035957014121095e+02 -6.100035957014121095e+02 6.098803442375113946e+02 -6.098803442375113946e+02 3.490098032646912998e+02 -3.490098032646912998e+02 6.318223337114253582e+02 -6.318223337114253582e+02 5.158317988935250469e+02 -5.158317988935250469e+02
1.272794509218386043e-02 4.323517376155676857e+02 -4.323517376155676857e+02 4.188911357819416708e+02 -4.188911357819416708e+02 4.640673089465101384e+02 -4.640673089465101384e+02 4.071971774424107480e+02 -4.071971774424107480e+02 3.956437338397165036e+02 -3.956437338397165036e+02 4.482688696345587118e+02 -4.482688696345587118e+02 5.801180988168508748e+02 -5.801180988168508748e+02 6.228480154060729319e+02 -6.228480154060729319e+02 6.039722100559216642e+02 -6.039722100559216642e+02 4.249004391977801447e+02 -4.249004391977801447e+02 4.428464309201268065e+02 -4.428464309201268065e+02 3.383306247398329560e+02 -3.383306247398329560e+02
1.041723161113544205e-03 5.599679586282641139e+02 -5.599679586282641139e+02 3.836621831652683454e+02 -3.836621831652683454e+02 3.833437237793963845e+02 -3.833437237793963845e+02 5.006154730797558727e+02 -5.006154730797558727e+02 5.622793774309470791e+02 -5.622793774309470791e+02 3.682405104337213402e+02 -3.682405104337213402e+02 3.870230230402930260e+02 -3.870230230402930260e+02 4.576890307269218283e+02 -4.576890307269218283e+02 4.902606930134457457e+02 -4.902606930134457457e+02 6.142856438092765075e+02 -6.142856438092765075e+02 5.984762514263470621e+02 -5.984762514263470621e+02 4.729594383994693771e+02 -4.729594383994693771e+02
-1.979376379749878817e-02 3.897050766351918014e+02 -3.897050766351918014e+02 5.545211023704638365e+02 -5.545211023704638365e+02 4.674088501664299429e+02 -4.674088501664299429e+02 4.930188180105510583e+02 -4.930188180105510583e+02 5.185551905362751768e+02 -5.185551905362751768e+02 5.291127086061322871e+02 -5.291127086061322871e+02 3.840797395374393659e+02 -3.840797395374393659e+02 4.226082686378260291e+02 -4.226082686378260291e+02 3.876667475796476765e+02 -3.876667475796476765e+02 5.577501000422914785e+02 -5.577501000422914785e+02 4.738339281721424641e+02 -4.738339281721424641e+02 5.499855750141837234e+02 -5.499855750141837234e+02
8.952130842582797787e-04 5.075626345407519580e+02 -5.075626345407519580e+02 3.626793132177295433e+02 -3.626793132177295433e+02 4.387794428272599134e+02 -4.387794428272599134e+02 5.156503122296776382e+02 -5.156503122296776382e+02 3.650505811920028805e+02 -3.650505811920028805e+02 3.356051103575446746e+02 -3.356051103575446746e+02 5.773405179455994585e+02 -5.773405179455994585e+02 5.366815378995470383e+02 -5.366815378995470383e+02 4.575858907569207190e+02 -4.575858907569207190e+02 4.120195290156881924e+02 -4.120195290156881924e+02 5.825108324133672113e+02 -5.825108324133672113e+02 4.608645008421320881e+02 -4.608645008421320881e+02
-1.918425783706533688e-02 3.287797217213684462e+02 -3.287797217213684462e+02 4.072408627909361485e+02 -4.072408627909361485e+02 4.623367456918564358e+02 -4.623367456918564358e+02 5.903459446972290152e+02 -5.903459446972290152e+02 4.457861150366130687e+02 -4.457861150366130687e+02 4.590732674861705505e+02 -4.590732674861705505e+02 6.307156686292048562e+02 -6.307156686292048562e+02 5.250564324397035989e+02 -5.250564324397035989e+02 3.960043965684199634e+02 -3.960043965684199634e+02 4.188171778673048493e+02 -4.188171778673048493e+02 4.700211805006009627e+02 -4.700211805006009627e+02 6.286734480914998358e+02 -6.286734480914998358e+02
-4.051061575467502368e-02 3.768028316297503011e+02 -3.768028316297503011e+02 4.756494911938904693e+02 -4.756494911938904693e+02 4.671154064604859286e+02 -4.671154064604859286e+02 3.206714061592658140e+02 -3.206714061592658140e+02 5.760151069129996131e+02 -5.760151069129996131e+02 4.776840421717168965e+02 -4.776840421717168965e+02 3.292401073900863366e+02 -3.292401073900863366e+02 5.846583049349040948e+02 -5.846583049349040948e+02 3.690162791457133267e+02 -3.690162791457133267e+02 3.553088995720585217e+02 -3.553088995720585217e+02 3.352218324478560021e+02 -3.352218324478560021e+02 5.013822920264500453e+02 -5.013822920264500453e+02
5.873975188537381049e-04 3.812838777832308210e+02 -3.812838777832308210e+02 4.432933456626906263e+02 -4.432933456626906263e+02 4.757118004743148276e+02 -4.757118004743148276e+02 5.789995657407821454e+02 -5.789995657407821454e+02 4.724020297264012243e+02 -4.724020297264012243e+02 6.269839141722425211e+02 -6.269839141722425211e+02 4.807663495240397538e+02 -4.807663495240397538e+02 5.865017152685974224e+02 -5.865017152685974224e+02 3.620564501031501550e+02 -3.620564501031501550e+02 4.835844927359838721e+02 -4.835844927359838721e+02 5.486597521059758265e+02 -5.486597521059758265e+02 6.103437730243623491e+02 -6.103437730243623491e+02
-4.905160584816260078e-03 4.051880947592030111e+02 -4.051880947592030111e+02 3.865002537700691505e+02 -3.865002537700691505e+02 6.257315268963506014e+02 -6.257315268963506014e+02 4.965738716621186768e+02 -4.965738716621186768e+02 4.213037501312473410e+02 -4.213037501312473410e+02 4.250893424693393854e+02 -4.250893424693393854e+02 3.250066411324706337e+02 -3.250066411324706337e+02 4.517555343214207824e+02 -4.517555343214207824e+02 5.483072593185437427e+02 -5.483072593185437427e+02 3.855154440079679716e+02 -3.855154440079679716e+02 5.372815447622878082e+02 -5.372815447622878082e+02 3.403014035190486197e+02 -3.403014035190486197e+02
3.717869988121975250e-02 4.113324649930425494e+02 -4.113324649930425494e+02 4.906389571430524370e+02 -4.906389571430524370e+02 5.733896612919554627e+02 -5.733896612919554627e+02 5.750788543845700360e+02 -5.750788543845700360e+02 6.383434246578907505e+02 -6.383434246578907505e+02 3.392424685912513951e+02 -3.392424685912513951e+02 5.160889779587575958e+02 -5.160889779587575958e+02 3.418553041130750785e+02 -3.418553041130750785e+02 4.837519444482207405e+02 -4.837519444482207405e+02 6.319399610524378659e+02 -6.319399610524378659e+02 6.183700561983091575e+02 -6.183700561983091575e+02 4.119489212014580062e+02 -4.119489212014580062e+02
-5.075686823311925840e-03 5.011395009158808875e+02 -5.011395009158808875e+02 3.509932744552953068e+02 -3.509932744552953068e+02 3.181065612812738550e+02 -3.181065612812738550e+02 6.262927168297576372e+02 -6.262927168297576372e+02 3.530974846926108057e+02 -3.530974846926108057e+02 3.941422781385298322e+02 -3.941422781385298322e+02 4.554611119046523982e+02 -4.554611119046523982e+02 4.291596448522701053e+02 -4.291596448522701053e+02 5.540158386216965027e+02 -5.540158386216965027e+02 6.287617273445632691e+02 -6.287617273445632691e+02 5.045658696306111324e+02 -5.045658696306111324e+02 5.737885069221898675e+02 -5.737885069221898675e+02
-1.674052776283820520e-03 3.290983073534301866e+02 -3.290983073534301866e+02 6.163427541190650345e+02 -6.163427541190650345e+02 6.095533114938408517e+02 -6.095533114938408517e+02 4.195041532038412129e+02 -4.195041532038412129e+02 4.091806429412202419e+02 -4.091806429412202419e+02 4.540546332095494790e+02 -4.540546332095494790e+02 5.911478360975494297e+02 -5.911478360975494297e+02 5.274971091551652762e+02 -5.274971091551652762e+02 5.599609846873546530e+02 -5.599609846873546530e+02 5.274788193375974288e+02 -5.274788193375974288e+02 4.672812713363144326e+02 -4.672812713363144326e+02 4.408665215046380013e+02 -4.408665215046380013e+02
-2.768391730007169552e-03 3.426970414245188294e+02 -3.426970414245188294e+02 5.043011063553410622e+02 -5.043011063553410622e+02 5.053697094111674915e+02 -5.053697094111674915e+02 5.842416852069518427e+02 -5.842416852069518427e+02 5.780637101426765412e+02 -5.780637101426765412e+02 5.164956176581097225e+02 -5.164956176581097225e+02 6.164168801085999121e+02 -6.164168801085999121e+02 5.370984825840304211e+02 -5.370984825840304211e+02 4.476228579567243742e+02 -4.476228579567243742e+02 5.692437125237006512e+02 -5.692437125237006512e+02 6.023348601206238300e+02 -6.023348601206238300e+02 4.547641931227066721e+02 -4.547641931227066721e+02
0.000000000000000000e+00 3.310908212182112038e+02 -3.310908212182112038e+02 4.795627127399798724e+02 -4.795627127399798724e+02 3.800597404799693209e+02 -3.800597404799693209e+02 3.630916173154071203e+02 -3.630916173154071203e+02 5.217747058567449585e+02 -5.217747058567449585e+02 5.042468222419307153e+02 -5.042468222419307153e+02 5.510572611213508480e+02 -5.510572611213508480e+02 4.693380640044024403e+02 -4.693380640044024403e+02 5.409737045332979051e+02 -5.409737045332979051e+02 6.384949265568751571e+02 -6.384949265568751571e+02 3.431914440760563139e+02 -3.431914440760563139e+02 4.072227780227580070e+02 -4.072227780227580070e+02
1.394852867019030253e-02 5.356265565625689078e+02 -5.356265565625689078e+02 3.952096549178879741e+02 -3.952096549178879741e+02 6.343747977168391117e+02 -6.343747977168391117e+02 4.743312248299164935e+02 -4.743312248299164935e+02 5.677708147063867727e+02 -5.677708147063867727e+02 5.473670091878393578e+02 -5.473670091878393578e+02 5.027572085711400973e+02 -5.027572085711400973e+02 6.342149482532919365e+02 -6.342149482532919365e+02 3.137222929963039064e+02 -3.137222929963039064e+02 3.999925672637555181e+02 -3.999925672637555181e+02 5.333075230277269156e+02 -5.333075230277269156e+02 4.442427755297272824e+02 -4.442427755297272824e+02
1.388500437663317544e-02 3.636000970674195969e+02 -3.636000970674195969e+02 5.455416861859134769e+02 -5.455416861859134769e+02 5.975220643770920788e+02 -5.975220643770920788e+02 5.372261012189371741e+02 -5.372261012189371741e+02 4.468074495490570257e+02 -4.468074495490570257e+02 3.197636898725864967e+02 -3.197636898725864967e+02 4.486242862244720868e+02 -4.486242862244720868e+02 5.837543535567845083e+02 -5.837543535567845083e+02 5.324188105402887459e+02 -5.324188105402887459e+02 5.119234765657359958e+02 -5.119234765657359958e+02 4.526197872990412634e+02 -4.526197872990412634e+02 4.071346226944873479e+02 -4.071346226944873479e+02
8.074387452255570377e-03 5.177425393096028756e+02 -5.177425393096028756e+02 3.507403773957379371e+02 -3.507403773957379371e+02 4.840003192169224917e+02 -4.840003192169224917e+02 4.020835215874869277e+02 -4.020835215874869277e+02 4.209216391089033777e+02 -4.209216391089033777e+02 3.447121413304980138e+02 -3.447121413304980138e+02 5.405613830190771978e+02 -5.405613830190771978e+02 4.310603779576537136e+02 -4.310603779576537136e+02 3.278033609797569170e+02 -3.278033609797569170e+02 4.643781771000429330e+02 -4.643781771000429330e+02 3.397009046259001366e+02 -3.397009046259001366e+02 6.309115273844651028e+02 -6.309115273844651028e+02
2.001588512257864057e-03 4.796588938041269330e+02 -4.796588938041269330e+02 5.301463493242237064e+02 -5.301463493242237064e+02 4.058036558320691256e+02 -4.058036558320691256e+02 4.484394901787567278e+02 -4.484394901787567278e+02 4.265501003773268280e+02 -4.265501003773268280e+02 4.704925734186161890e+02 -4.704925734186161890e+02 5.016992555715956996e+02 -5.016992555715956996e+02 5.649781620514963834e+02 -5.649781620514963834e+02 3.586647674135313082e+02 -3.586647674135313082e+02 5.626247409163346447e+02 -5.626247409163346447e+02 4.572685311703187949e+02 -4.572685311703187949e+02 4.232840921006260828e+02 -4.232840921006260828e+02
-2.766118170341498247e-02 4.917925163351198421e+02 -4.917925163351198421e+02 4.593069222819661377e+02 -4.593069222819661377e+02 4.019555774866189495e+02 -4.019555774866189495e+02 3.661495071889859219e+02 -3.661495071889859219e+02 4.689037059404273009e+02 -4.689037059404273009e+02 5.058701686589211590e+02 -5.058701686589211590e+02 4.018904362339565637e+02 -4.018904362339565637e+02 5.125803618764048224e+02 -5.125803618764048224e+02 5.201549938346091722e+02 -5.201549938346091722e+02 5.850196254259672060e+02 -5.850196254259672060e+02 6.088354644891993530e+02 -6.088354644891993530e+02 4.732834481212311744e+02 -4.732834481212311744e+02
-2.955363468538095822e-03 6.000655994258225974e+02 -6.000655994258225974e+02 6.248409506830462306e+02 -6.248409506830462306e+02 4.254118103503680572e+02 -4.254118103503680572e+02 4.388333983422742790e+02 -4.388333983422742790e+02 4.184563080701029207e+02 -4.184563080701029207e+02 4.066971937514107367e+02 -4.066971937514107367e+02 5.909265240047460566e+02 -5.909265240047460566e+02 3.615676138757826834e+02 -3.615676138757826834e+02 5.173553811564490843e+02 -5.173553811564490843e+02 6.077055191611482314e+02 -6.077055191611482314e+02 4.746643976916787437e+02 -4.746643976916787437e+02 3.382541956405592032e+02 -3.382541956405592032e+02
0.000000000000000000e+00 3.546629918380385220e+02 -3.546629918380385220e+02 4.406890060259746065e+02 -4.406890060259746065e+02 4.904987473138582459e+02 -4.904987473138582459e+02 3.450129586889032112e+02 -3.450129586889032112e+02 3.634590789729408016e+02 -3.634590789729408016e+02 3.494463737746265792e+02 -3.494463737746265792e+02 5.951317990923096204e+02 -5.951317990923096204e+02 3.346650527340845542e+02 -3.346650527340845542e+02 5.256280498648491175e+02 -5.256280498648491175e+02 4.981664988989826384e+02 -4.981664988989826384e+02 4.404818485828523649e+02 -4.404818485828523649e+02 5.409490836501310014e+02 -5.409490836501310014e+02
1.379566229425715877e-02 3.834251780559234817e+02 -3.834251780559234817e+02 4.813811909121977237e+02 -4.813811909121977237e+02 6.253444993552968754e+02 -6.253444993552968754e+02 4.142937816430319913e+02 -4.142937816430319913e+02 3.510619358827923975e+02 -3.510619358827923975e+02 3.201476047009280705e+02 -3.201476047009280705e+02 4.832045085401908295e+02 -4.832045085401908295e+02 5.290813162800418468e+02 -5.290813162800418468e+02 3.937475739758554596e+02 -3.937475739758554596e+02 3.276733682720533238e+02 -3.276733682720533238e+02 3.665113311363412549e+02 -3.665113311363412549e+02 3.761622673084000894e+02 -3.761622673084000894e+02
2.001588512257864057e-03 3.945521704364711582e+02 -3.945521704364711582e+02 5.831457156926223888e+02 -5.831457156926223888e+02 5.604986772962654413e+02 -5.604986772962654413e+02 4.206959740142248165e+02 -4.206959740142248165e+02 4.093894530009848722e+02 -4.093894530009848722e+02 5.712983258620749893e+02 -5.712983258620749893e+02 4.387763454985718568e+02 -4.387763454985718568e+02 4.371126657454586280e+02 -4.371126657454586280e+02 4.133617797048569855e+02 -4.133617797048569855e+02 4.938165397905643772e+02 -4.938165397905643772e+02 3.540537050834193451e+02 -3.540537050834193451e+02 3.826786025939086358e+02 -3.826786025939086358e+02
0.000000000000000000e+00 3.672431825185549314e+02 -3.672431825185549314e+02 5.068438139717235345e+02 -5.068438139717235345e+02 3.732903422405320271e+02 -3.732903422405320271e+02 6.303782801049710542e+02 -6.303782801049710542e+02 6.356474011162479201e+02 -6.356474011162479201e+02 5.791145543654836274e+02 -5.791145543654836274e+02 6.321682287521732633e+02 -6.321682287521732633e+02 6.058886130859622199e+02 -6.058886130859622199e+02 3.260215639558454654e+02 -3.260215639558454654e+02 4.822839504585577970e+02 -4.822839504585577970e+02 5.252462630340153282e+02 -5.252462630340153282e+02 3.871514936727680265e+02 -3.871514936727680265e+02
-1.864362009271530209e-03 5.721722276877394506e+02 -5.721722276877394506e+02 5.144893728528409156e+02 -5.144893728528409156e+02 5.262804437695692741e+02 -5.262804437695692741e+02 3.175411973713089537e+02 -3.175411973713089537e+02 6.157117173420315339e+02 -6.157117173420315339e+02 4.866307901762161237e+02 -4.866307901762161237e+02 6.351162295262338375e+02 -6.351162295262338375e+02 3.599348021749273130e+02 -3.599348021749273130e+02 5.585609968066901274e+02 -5.585609968066901274e+02 4.589865195818932762e+02 -4.589865195818932762e+02 3.597890944587362583e+02 -3.597890944587362583e+02 5.411681883748952941e+02 -5.411681883748952941e+02
-1.886794572518920091e-03 3.803001369926920461e+02 -3.803001369926920461e+02 5.539597947162046694e+02 -5.539597947162046694e+02 6.073148153571081593e+02 -6.073148153571081593e+02 3.887189586159022383e+02 -3.887189586159022383e+02 4.389652238467921279e+02 -4.389652238467921279e+02 4.845579781380082522e+02 -4.845579781380082522e+02 4.271543134466524521e+02 -4.271543134466524521e+02 5.965475324092315077e+02 -5.965475324092315077e+02 3.912790876685500621e+02 -3.912790876685500621e+02 3.388083920839927146e+02 -3.388083920839927146e+02 3.722944794015188563e+02 -3.722944794015188563e+02 4.983546075232473527e+02 -4.983546075232473527e+02
-1.049661165467323347e-03 6.114589367971512957e+02 -6.114589367971512957e+02 3.136857285862944877e+02 -3.136857285862944877e+02 3.703851862456975823e+02 -3.703851862456975823e+02 5.324451579522603879e+02 -5.324451579522603879e+02 5.903772422403368410e+02 -5.903772422403368410e+02 4.138854351925028823e+02 -4.138854351925028823e+02 4.067662258526207211e+02 -4.067662258526207211e+02 6.213546125771122206e+02 -6.213546125771122206e+02 5.179769407676872106e+02 -5.179769407676872106e+02 6.344403528446068776e+02 -6.344403528446068776e+02 6.019001122747619092e+02 -6.019001122747619092e+02 6.213539614575919359e+02 -6.213539614575919359e+02
-2.805389147538358196e-04 6.092229904425505538e+02 -6.092229904425505538e+02 6.194900601868512240e+02 -6.194900601868512240e+02 5.578618613802108257e+02 -5.578618613802108257e+02 3.945812420330200894e+02 -3.945812420330200894e+02 4.409210030390677275e+02 -4.409210030390677275e+02 4.561875933361223474e+02 -4.561875933361223474e+02 3.660426431599771036e+02 -3.660426431599771036e+02 3.988589410173103715e+02 -3.988589410173103715e+02 5.932270337886556035e+02 -5.932270337886556035e+02 4.705503788598525148e+02 -4.705503788598525148e+02 5.933181218888056492e+02 -5.933181218888056492e+02 4.077786975033309318e+02 -4.077786975033309318e+02
1.436706192451517664e-03 3.625021817274757154e+02 -3.625021817274757154e+02 6.151012092414858898e+02 -6.151012092414858898e+02 3.621582327633126965e+02 -3.621582327633126965e+02 3.703289261599622932e+02 -3.703289261599622932e+02 4.515849424174546698e+02 -4.515849424174546698e+02 5.665143925167221823e+02 -5.665143925167221823e+02 3.463133820793586892e+02 -3.463133820793586892e+02 3.835262843403456259e+02 -3.835262843403456259e+02 5.654602540547551826e+02 -5.654602540547551826e+02 4.712375875524771232e+02 -4.712375875524771232e+02 5.835634156089034832e+02 -5.835634156089034832e+02 6.232922794222509992e+02 -6.232922794222509992e+02
-1.864362009271530209e-03 4.814692577495296746e+02 -4.814692577495296746e+02 5.139078571070972430e+02 -5.139078571070972430e+02 4.172274898473162921e+02 -4.172274898473162921e+02 5.324839666683810719e+02 -5.324839666683810719e+02 4.658980003352183985e+02 -4.658980003352183985e+02 5.178527369426412861e+02 -5.178527369426412861e+02 4.606601031294517838e+02 -4.606601031294517838e+02 4.978057062296333015e+02 -4.978057062296333015e+02 5.769893689489983899e+02 -5.769893689489983899e+02 5.427970361463728750e+02 -5.427970361463728750e+02 6.177889473555902669e+02 -6.177889473555902669e+02 4.198595295587812188e+02 -4.198595295587812188e+02
1.410003409407055083e-02 5.885090470737330861e+02 -5.885090470737330861e+02 3.697391114553801117e+02 -3.697391114553801117e+02 3.784678921615386571e+02 -3.784678921615386571e+02 3.170112292059747006e+02 -3.170112292059747006e+02 5.418767373030166254e+02 -5.418767373030166254e+02 5.177374314435579663e+02 -5.177374314435579663e+02 5.463036237208746115e+02 -5.463036237208746115e+02 5.100546857830998988e+02 -5.100546857830998988e+02 3.998217000295978778e+02 -3.998217000295978778e+02 3.947526748163134016e+02 -3.947526748163134016e+02 4.390925812035349622e+02 -4.390925812035349622e+02 4.848227146427941534e+02 -4.848227146427941534e+02
2.333827765749161773e-02 5.054579146664534051e+02 -5.054579146664534051e+02 3.796523425400497445e+02 -3.796523425400497445e+02 4.121695340251961284e+02 -4.121695340251961284e+02 4.839096279670931153e+02 -4.839096279670931153e+02 5.091699388501501744e+02 -5.091699388501501744e+02 5.386257730099658829e+02 -5.386257730099658829e+02 5.576440299123458999e+02 -5.576440299123458999e+02 5.598641035466999938e+02 -5.598641035466999938e+02 5.981331557154878737e+02 -5.981331557154878737e+02 5.482623414358699847e+02 -5.482623414358699847e+02 5.362854170207219795e+02 -5.362854170207219795e+02 4.539262241853224964e+02 -4.539262241853224964e+02
6.417130461055754395e-04 5.862248687930215283e+02 -5.862248687930215283e+02 4.819904774644545569e+02 -4.819904774644545569e+02 6.212668960519453094e+02 -6.212668960519453094e+02 4.423947254738592392e+02 -4.423947254738592392e+02 4.570703452874919321e+02 -4.570703452874919321e+02 5.942068537049930228e+02 -5.942068537049930228e+02 6.341906670092369041e+02 -6.341906670092369041e+02 3.849213922630848970e+02 -3.849213922630848970e+02 3.893245703785326555e+02 -3.893245703785326555e+02 3.962529587286618948e+02 -3.962529587286618948e+02 3.605650214482184879e+02 -3.605650214482184879e+02 6.312397141803912746e+02 -6.312397141803912746e+02
-7.489368522916486741e-04 3.845205658464572025e+02 -3.845205658464572025e+02 5.221441814277657159e+02 -5.221441814277657159e+02 4.216701592249658574e+02 -4.216701592249658574e+02 5.693876810055199940e+02 -5.693876810055199940e+02 5.719402797989827150e+02 -5.719402797989827150e+02 4.546651179333987898e+02 -4.546651179333987898e+02 6.050217358433277468e+02 -6.050217358433277468e+02 5.816712545276017181e+02 -5.816712545276017181e+02 3.590236855071053697e+02 -3.590236855071053697e+02 6.092140421672047523e+02 -6.092140421672047523e+02 3.975883433263149414e+02 -3.975883433263149414e+02 4.817830283868624974e+02 -4.817830283868624974e+02
-1.855519738788661069e-02 3.451954922484101758e+02 -3.451954922484101758e+02 3.771891928481334730e+02 -3.771891928481334730e+02 4.218116126898092944e+02 -4.218116126898092944e+02 5.888770389273074670e+02 -5.888770389273074670e+02 5.678369800128833731e+02 -5.678369800128833731e+02 3.934401582310495087e+02 -3.934401582310495087e+02 4.272205518274159886e+02 -4.272205518274159886e+02 6.306392201874018610e+02 -6.306392201874018610e+02 4.593562717606388333e+02 -4.593562717606388333e+02 3.691395562708693205e+02 -3.691395562708693205e+02 6.292870962736350293e+02 -6.292870962736350293e+02 3.662245001599894181e+02 -3.662245001599894181e+02
8.358158243016529723e-03 5.347200829145984926e+02 -5.347200829145984926e+02 5.083170362503120714e+02 -5.083170362503120714e+02 4.272011412898798426e+02 -4.272011412898798426e+02 4.950249380627003006e+02 -4.950249380627003006e+02 5.876268132264524411e+02 -5.876268132264524411e+02 3.238950634671345483e+02 -3.238950634671345483e+02 5.974219262363602638e+02 -5.974219262363602638e+02 5.922022428267360965e+02 -5.922022428267360965e+02 4.963462764114336778e+02 -4.963462764114336778e+02 4.927192915395984869e+02 -4.927192915395984869e+02 3.910922551178982189e+02 -3.910922551178982189e+02 5.552563571612953410e+02 -5.552563571612953410e+02
1.248279323334541661e-02 6.165379876868126985e+02 -6.165379876868126985e+02 6.256485964027860973e+02 -6.256485964027860973e+02 3.287368364785078825e+02 -3.287368364785078825e+02 6.270248732369162781e+02 -6.270248732369162781e+02 3.533657855231330700e+02 -3.533657855231330700e+02 6.003285800821064413e+02 -6.003285800821064413e+02 5.982869356508390410e+02 -5.982869356508390410e+02 4.117310350148613338e+02 -4.117310350148613338e+02 3.263775748374440013e+02 -3.263775748374440013e+02 4.283711648795115821e+02 -4.283711648795115821e+02 5.455152350579057838e+02 -5.455152350579057838e+02 4.240255202287184488e+02 -4.240255202287184488e+02
-1.049661165467323347e-03 4.839248681260159515e+02 -4.839248681260159515e+02 5.667124484999942524e+02 -5.667124484999942524e+02 3.588380918709564753e+02 -3.588380918709564753e+02 5.081801773197572061e+02 -5.081801773197572061e+02 5.981250030019283486e+02 -5.981250030019283486e+02 5.746655089347322019e+02 -5.746655089347322019e+02 4.842678377435499328e+02 -4.842678377435499328e+02 4.856752365917095062e+02 -4.856752365917095062e+02 5.173595987117201958e+02 -5.173595987117201958e+02 3.858381458496874643e+02 -3.858381458496874643e+02 3.755043315467170260e+02 -3.755043315467170260e+02 4.009552078476234556e+02 -4.009552078476234556e+02
-2.943423620835292770e-02 4.530067068168489754e+02 -4.530067068168489754e+02 4.215872698679611972e+02 -4.215872698679611972e+02 5.446685847705522292e+02 -5.446685847705522292e+02 5.678742004843422819e+02 -5.678742004843422819e+02 6.234284314024481546e+02 -6.234284314024481546e+02 3.695605368928518715e+02 -3.695605368928518715e+02 5.653785741408876220e+02 -5.653785741408876220e+02 4.532168609455320620e+02 -4.532168609455320620e+02 3.184478204177113980e+02 -3.184478204177113980e+02 5.295398736647199485e+02 -5.295398736647199485e+02 4.668419191321082735e+02 -4.668419191321082735e+02 5.501550385810302259e+02 -5.501550385810302259e+02
-1.776766705045160558e-02 4.207979971998918813e+02 -4.207979971998918813e+02 4.413903323475866500e+02 -4.413903323475866500e+02 3.640210027220616666e+02 -3.640210027220616666e+02 4.788018477117714724e+02 -4.788018477117714724e+02 4.394237517930498598e+02 -4.394237517930498598e+02 5.045667514241672507e+02 -5.045667514241672507e+02 4.413577716233205024e+02 -4.413577716233205024e+02 5.099497599945464685e+02 -5.099497599945464685e+02 5.611353495949348371e+02 -5.611353495949348371e+02 5.430355047386593697e+02 -5.430355047386593697e+02 5.179591664281763315e+02 -5.179591664281763315e+02 3.739975763225403398e+02 -3.739975763225403398e+02
-3.271826797979745030e-03 3.240910838851210087e+02 -3.240910838851210087e+02 4.471810160949171973e+02 -4.471810160949171973e+02 5.234004488133093673e+02 -5.234004488133093673e+02 4.989937884641019537e+02 -4.989937884641019537e+02 4.392573356321042297e+02 -4.392573356321042297e+02 5.308392439180170186e+02 -5.308392439180170186e+02 6.286327096478437397e+02 -6.286327096478437397e+02 3.923283630529244874e+02 -3.923283630529244874e+02 4.072352354156549836e+02 -4.072352354156549836e+02 3.991560275217738649e+02 -3.991560275217738649e+02 5.566387157416116906e+02 -5.566387157416116906e+02 3.272271663379083861e+02 -3.272271663379083861e+02
6.526381504834149897e-04 3.814822837780224631e+02 -3.814822837780224631e+02 3.395582369991582254e+02 -3.395582369991582254e+02 4.730007974085635283e+02 -4.730007974085635283e+02 4.433784203464508096e+02 -4.433784203464508096e+02 5.601919558088616213e+02 -5.601919558088616213e+02 6.040720710237543472e+02 -6.040720710237543472e+02 4.529631536386030461e+02 -4.529631536386030461e+02 4.914380716898780861e+02 -4.914380716898780861e+02 5.606388366979748525e+02 -5.606388366979748525e+02 4.918466559077747888e+02 -4.918466559077747888e+02 5.481861709012868005e+02 -5.481861709012868005e+02 5.452658926208423509e+02 -5.452658926208423509e+02
6.627978981519131244e-03 4.764409864145555957e+02 -4.764409864145555957e+02 5.271784048561075906e+02 -5.271784048561075906e+02 5.454404751246825072e+02 -5.454404751246825072e+02 5.305880463400740155e+02 -5.305880463400740155e+02 6.356573485452416890e+02 -6.356573485452416890e+02 5.546155236648476148e+02 -5.546155236648476148e+02 5.908457773246366287e+02 -5.908457773246366287e+02 3.984440949608481901e+02 -3.984440949608481901e+02 3.728955317666922156e+02 -3.728955317666922156e+02 5.406001832593245808e+02 -5.406001832593245808e+02 4.950183737478930652e+02 -4.950183737478930652e+02 4.817676173280107719e+02 -4.817676173280107719e+02
1.731304419682353629e-02 4.345778363646670641e+02 -4.345778363646670641e+02 5.400585128327066968e+02 -5.400585128327066968e+02 5.856650265574089644e+02 -5.856650265574089644e+02 3.354611226103980925e+02 -3.354611226103980925e+02 4.259109150820774516e+02 -4.259109150820774516e+02 3.867668200627846318e+02 -3.867668200627846318e+02 3.392871083649249613e+02 -3.392871083649249613e+02 3.934212554143419425e+02 -3.934212554143419425e+02 4.830201640258383122e+02 -4.830201640258383122e+02 4.179106274155275855e+02 -4.179106274155275855e+02 3.490877431960382182e+02 -3.490877431960382182e+02 4.675850599123416487e+02 -4.675850599123416487e+02
1.972330042160792829e-02 3.212739701700869546e+02 -3.212739701700869546e+02 4.002607368869816469e+02 -4.002607368869816469e+02 3.476187659044104521e+02 -3.476187659044104521e+02 3.293674544686639933e+02 -3.293674544686639933e+02 4.250903180209494963e+02 -4.250903180209494963e+02 5.491416459593292529e+02 -5.491416459593292529e+02 3.235995257879955602e+02 -3.235995257879955602e+02 5.067364516559259187e+02 -5.067364516559259187e+02 3.599984872490168186e+02 -3.599984872490168186e+02 4.597226369414719898e+02 -4.597226369414719898e+02 3.371545576572817140e+02 -3.371545576572817140e+02 4.105352648047660296e+02 -4.105352648047660296e+02
9.717330587188447973e-04 3.413783901454513057e+02 -3.413783901454513057e+02 4.412422265409812780e+02 -4.412422265409812780e+02 5.071665936851275092e+02 -5.071665936851275092e+02 5.414401357287548535e+02 -5.414401357287548535e+02 4.183353357071949290e+02 -4.183353357071949290e+02 4.999251766163055777e+02 -4.999251766163055777e+02 5.542868478935722578e+02 -5.542868478935722578e+02 3.523455361605294911e+02 -3.523455361605294911e+02 5.946172906148140100e+02 -5.946172906148140100e+02 4.663253360887238728e+02 -4.663253360887238728e+02 4.358800139837023266e+02 -4.358800139837023266e+02 6.273233236140573581e+02 -6.273233236140573581e+02
1.329958954872572686e-02 4.126183684786973345e+02 -4.126183684786973345e+02 4.225377681649741248e+02 -4.225377681649741248e+02 5.692541251456864302e+02 -5.692541251456864302e+02 5.905715459909424681e+02 -5.905715459909424681e+02 4.905082497899148279e+02 -4.905082497899148279e+02 3.474095608050549231e+02 -3.474095608050549231e+02 3.510530096219685561e+02 -3.510530096219685561e+02 3.372979885876153503e+02 -3.372979885876153503e+02 5.108372264626336801e+02 -5.108372264626336801e+02 4.919038649493220419e+02 -4.919038649493220419e+02 4.351956947966453413e+02 -4.351956947966453413e+02 4.302625824048184882e+02 -4.302625824048184882e+02
-7.761095908379129701e-03 4.483088379093223352e+02 -4.483088379093223352e+02 5.475978384719620635e+02 -5.475978384719620635e+02 4.267483738855833622e+02 -4.267483738855833622e+02 3.817152823391307948e+02 -3.817152823391307948e+02 5.223012854913989713e+02 -5.223012854913989713e+02 5.888207092766938331e+02 -5.888207092766938331e+02 5.656388387337760832e+02 -5.656388387337760832e+02 5.168765798989294353e+02 -5.168765798989294353e+02 5.528555931933591410e+02 -5.528555931933591410e+02 5.008001110725639364e+02 -5.008001110725639364e+02 5.749688948380886586e+02 -5.749688948380886586e+02 4.985130356269521030e+02 -4.985130356269521030e+02
2.140395169767865882e-02 5.573144633987566294e+02 -5.573144633987566294e+02 4.552405312777287918e+02 -4.552405312777287918e+02 5.820507296772145764e+02 -5.820507296772145764e+02 4.829305536609295473e+02 -4.829305536609295473e+02 5.135961955930663407e+02 -5.135961955930663407e+02 4.158315972116851640e+02 -4.158315972116851640e+02 3.347635235224367420e+02 -3.347635235224367420e+02 3.278412912262920713e+02 -3.278412912262920713e+02 4.940587919003524462e+02 -4.940587919003524462e+02 3.855677190335296132e+02 -3.855677190335296132e+02 4.013431537296800116e+02 -4.013431537296800116e+02 5.238371785417846240e+02 -5.238371785417846240e+02
1.772533096371490396e-02 5.314616997292255292e+02 -5.314616997292255292e+02 4.772930371110261376e+02 -4.772930371110261376e+02 4.712655578299080616e+02 -4.712655578299080616e+02 3.831263792645148669e+02 -3.831263792645148669e+02 4.789187736070056189e+02 -4.789187736070056189e+02 3.564824577431090802e+02 -3.564824577431090802e+02 4.343507965986456725e+02 -4.343507965986456725e+02 4.908405540463810439e+02 -4.908405540463810439e+02 5.803194102512092059e+02 -5.803194102512092059e+02 6.078217455783919831e+02 -6.078217455783919831e+02 3.326916252444751194e+02 -3.326916252444751194e+02 3.490894918111109746e+02 -3.490894918111109746e+02
-1.392705606961784810e-02 5.066276205002502024e+02 -5.066276205002502024e+02 4.154226275293361255e+02 -4.154226275293361255e+02 5.801401385046583528e+02 -5.801401385046583528e+02 5.622380035891700345e+02 -5.622380035891700345e+02 3.862145013748207134e+02 -3.862145013748207134e+02 5.523564816142820746e+02 -5.523564816142820746e+02 3.933343162649778719e+02 -3.933343162649778719e+02 5.271899543819803284e+02 -5.271899543819803284e+02 3.216175446353185521e+02 -3.216175446353185521e+02 3.388215164768657246e+02 -3.388215164768657246e+02 3.535050518963804507e+02 -3.535050518963804507e+02 5.123499238855213207e+02 -5.123499238855213207e+02
1.031348767664663595e-02 4.411765327696812733e+02 -4.411765327696812733e+02 3.736225910503819705e+02 -3.736225910503819705e+02 3.747411929408120841e+02 -3.747411929408120841e+02 4.590698496143427292e+02 -4.590698496143427292e+02 3.857874985109004911e+02 -3.857874985109004911e+02 6.272607767431554748e+02 -6.272607767431554748e+02 5.757038563113560485e+02 -5.757038563113560485e+02 4.938552261767450204e+02 -4.938552261767450204e+02 5.448854191921889196e+02 -5.448854191921889196e+02 3.837169585646509518e+02 -3.837169585646509518e+02 4.345126107116586809e+02 -4.345126107116586809e+02 4.624630615072327942e+02 -4.624630615072327942e+02
-1.394333829620049252e-02 3.312681584530707823e+02 -3.312681584530707823e+02 3.139651882395565963e+02 -3.139651882395565963e+02 4.008381624256045939e+02 -4.008381624256045939e+02 6.042971030814449023e+02 -6.042971030814449023e+02 3.226679690811915862e+02 -3.226679690811915862e+02 4.188859471831574410e+02 -4.188859471831574410e+02 4.598935624824088109e+02 -4.598935624824088109e+02 4.311603308155970353e+02 -4.311603308155970353e+02 5.432449762045243915e+02 -5.432449762045243915e+02 3.233847902682300059e+02 -3.233847902682300059e+02 6.210320689365818225e+02 -6.210320689365818225e+02 6.326585543079431773e+02 -6.326585543079431773e+02
-5.812007788014710019e-02 4.456021411012329168e+02 -4.456021411012329168e+02 4.242322147607068814e+02 -4.242322147607068814e+02 4.225052869610329367e+02 -4.225052869610329367e+02 3.498352177146949771e+02 -3.498352177146949771e+02 6.015128566995732626e+02 -6.015128566995732626e+02 6.136374621220147674e+02 -6.136374621220147674e+02 3.468778458226058774e+02 -3.468778458226058774e+02 4.455392275950420071e+02 -4.455392275950420071e+02 4.100636492753396851e+02 -4.100636492753396851e+02 6.113936291352105172e+02 -6.113936291352105172e+02 4.903319047927191150e+02 -4.903319047927191150e+02 4.697837319486720276e+02 -4.697837319486720276e+02
-4.674948281216881329e-03 3.997158705354282802e+02 -3.997158705354282802e+02 3.569160630057145909e+02 -3.569160630057145909e+02 6.107949799955742947e+02 -6.107949799955742947e+02 4.737317142829419936e+02 -4.737317142829419936e+02 3.899875882856641738e+02 -3.899875882856641738e+02 6.172520937373108154e+02 -6.172520937373108154e+02 3.815173240217779949e+02 -3.815173240217779949e+02 3.310114882539397172e+02 -3.310114882539397172e+02 5.294400374300271324e+02 -5.294400374300271324e+02 5.950779137249741098e+02 -5.950779137249741098e+02 5.416252464191259151e+02 -5.416252464191259151e+02 6.142672529633942986e+02 -6.142672529633942986e+02
0.000000000000000000e+00 6.288638238167659438e+02 -6.288638238167659438e+02 6.092193746410808899e+02 -6.092193746410808899e+02 3.463208004597843228e+02 -3.463208004597843228e+02 6.011974505631534385e+02 -6.011974505631534385e+02 4.719197117516820299e+02 -4.719197117516820299e+02 5.664635927688611901e+02 -5.664635927688611901e+02 4.075135613852672236e+02 -4.075135613852672236e+02 6.153844003252793300e+02 -6.153844003252793300e+02 3.454239964241235157e+02 -3.454239964241235157e+02 3.367517827605863658e+02 -3.367517827605863658e+02 5.478983637977978560e+02 -5.478983637977978560e+02 3.543473401948840547e+02 -3.543473401948840547e+02
5.600120001284430993e-02 6.359542414907649572e+02 -6.359542414907649572e+02 5.796545167147460234e+02 -5.796545167147460234e+02 4.827520332740332378e+02 -4.827520332740332378e+02 5.741303667866905016e+02 -5.741303667866905016e+02 4.118807050708159068e+02 -4.118807050708159068e+02 5.484186431477193082e+02 -5.484186431477193082e+02 4.177579991898348339e+02 -4.177579991898348339e+02 6.120089836600743638e+02 -6.120089836600743638e+02 3.558429257862965187e+02 -3.558429257862965187e+02 5.231571993480638412e+02 -5.231571993480638412e+02 5.846063125322990572e+02 -5.846063125322990572e+02 4.543205802427392541e+02 -4.543205802427392541e+02
8.736282025197418533e-04 4.216662949749261884e+02 -4.216662949749261884e+02 4.447701201612704835e+02 -4.447701201612704835e+02 6.242787281859526729e+02 -6.242787281859526729e+02 5.541352371448401755e+02 -5.541352371448401755e+02 3.270072420294505946e+02 -3.270072420294505946e+02 5.861730614913414001e+02 -5.861730614913414001e+02 4.543612392197541681e+02 -4.543612392197541681e+02 4.428336480653935041e+02 -4.428336480653935041e+02 5.705896055011654653e+02 -5.705896055011654653e+02 5.558688132432125713e+02 -5.558688132432125713e+02 5.176423916303850774e+02 -5.176423916303850774e+02 6.122403038730114986e+02 -6.122403038730114986e+02
-7.978398716145931879e-03 5.357022974665276251e+02 -5.357022974665276251e+02 5.834972126246168500e+02 -5.834972126246168500e+02 4.237594325374859636e+02 -4.237594325374859636e+02 5.125659355026566573e+02 -5.125659355026566573e+02 3.663510181417761942e+02 -3.663510181417761942e+02 3.620615148066313509e+02 -3.620615148066313509e+02 4.929293951778916494e+02 -4.929293951778916494e+02 5.682341291424959309e+02 -5.682341291424959309e+02 3.543845876920585738e+02 -3.543845876920585738e+02 3.318931704112979446e+02 -3.318931704112979446e+02 5.235152407577739950e+02 -5.235152407577739950e+02 6.045022828329834965e+02 -6.045022828329834965e+02
-3.959654127525207359e-03 3.669855165674556474e+02 -3.669855165674556474e+02 4.253871828608548071e+02 -4.253871828608548071e+02 5.537269125124771563e+02 -5.537269125124771563e+02 5.281968451317782183e+02 -5.281968451317782183e+02 5.406749769984854765e+02 -5.406749769984854765e+02 3.394844390143631472e+02 -3.394844390143631472e+02 4.527862287650063990e+02 -4.527862287650063990e+02 5.221894682474350020e+02 -5.221894682474350020e+02 3.824375854650986071e+02 -3.824375854650986071e+02 3.337726903091090662e+02 -3.337726903091090662e+02 3.176394454491187389e+02 -3.176394454491187389e+02 5.737984474347418882e+02 -5.737984474347418882e+02
-1.993256549238535055e-02 5.128502505087120653e+02 -5.128502505087120653e+02 5.851918016212057410e+02 -5.851918016212057410e+02 4.463654673132945732e+02 -4.463654673132945732e+02 3.941480845637969992e+02 -3.941480845637969992e+02 6.105866351752172250e+02 -6.105866351752172250e+02 3.527674769211615740e+02 -3.527674769211615740e+02 4.754336954763317635e+02 -4.754336954763317635e+02 4.875429526708649064e+02 -4.875429526708649064e+02 5.931705259852636800e+02 -5.931705259852636800e+02 5.773814458742721172e+02 -5.773814458742721172e+02 3.977475192342549803e+02 -3.977475192342549803e+02 3.915577632022049102e+02 -3.915577632022049102e+02
-1.387842385020292800e-03 5.281786559567284485e+02 -5.281786559567284485e+02 3.656357381175105274e+02 -3.656357381175105274e+02 5.615006876944155465e+02 -5.615006876944155465e+02 4.746237346598476847e+02 -4.746237346598476847e+02 3.633421659795963592e+02 -3.633421659795963592e+02 5.018157593466700064e+02 -5.018157593466700064e+02 5.290614229135463802e+02 -5.290614229135463802e+02 5.324961594498809063e+02 -5.324961594498809063e+02 5.967892614005825180e+02 -5.967892614005825180e+02 5.551277614780424301e+02 -5.551277614780424301e+02 5.465101309847474340e+02 -5.465101309847474340e+02 4.737603910789646875e+02 -4.737603910789646875e+02
2.361038332291199096e-02 5.920278281958078423e+02 -5.920278281958078423e+02 5.336741658920319651e+02 -5.336741658920319651e+02 5.700977699378715897e+02 -5.700977699378715897e+02 5.530113417727737897e+02 -5.530113417727737897e+02 3.281541960058157770e+02 -3.281541960058157770e+02 5.028233789765188817e+02 -5.028233789765188817e+02 4.600554067301939654e+02 -4.600554067301939654e+02 3.898448139164024155e+02 -3.898448139164024155e+02 3.475859291803260476e+02 -3.475859291803260476e+02 6.026843921580676806e+02 -6.026843921580676806e+02 3.571731737022313382e+02 -3.571731737022313382e+02 6.363987818064894100e+02 -6.363987818064894100e+02
1.470644175597980718e-02 5.719785369058843116e+02 -5.719785369058843116e+02 3.215010775641770806e+02 -3.215010775641770806e+02 3.861700299349138277e+02 -3.861700299349138277e+02 5.993532309939972720e+02 -5.993532309939972720e+02 6.205563784667400569e+02 -6.205563784667400569e+02 4.387256915845659933e+02 -4.387256915845659933e+02 5.433303801229507144e+02 -5.433303801229507144e+02 3.788885851070825197e+02 -3.788885851070825197e+02 5.171737603644606907e+02 -5.171737603644606907e+02 4.240231208652126611e+02 -4.240231208652126611e+02 6.335245600384962472e+02 -6.335245600384962472e+02 4.731160665134784153e+02 -4.731160665134784153e+02
8.459638650174787500e-03 3.397348478819799311e+02 -3.397348478819799311e+02 5.950603578452664806e+02 -5.950603578452664806e+02 4.052096803870994108e+02 -4.052096803870994108e+02 5.739527468310768654e+02 -5.739527468310768654e+02 4.886632498067014581e+02 -4.886632498067014581e+02 4.787617546749065696e+02 -4.787617546749065696e+02 3.616502604690177805e+02 -3.616502604690177805e+02 4.177147055106038351e+02 -4.177147055106038351e+02 4.418222153813592286e+02 -4.418222153813592286e+02 5.071900926550808890e+02 -5.071900926550808890e+02 4.313334413240232834e+02 -4.313334413240232834e+02 4.896731299180541441e+02 -4.896731299180541441e+02
5.369416894309149424e-03 3.783265524113758715e+02 -3.783265524113758715e+02 4.638379091887989603e+02 -4.638379091887989603e+02 4.314467740087773109e+02 -4.314467740087773109e+02 5.538101256261737717e+02 -5.538101256261737717e+02 5.424630626825544368e+02 -5.424630626825544368e+02 5.564702522470906842e+02 -5.564702522470906842e+02 5.009069177222387452e+02 -5.009069177222387452e+02 3.481962588091577118e+02 -3.481962588091577118e+02 5.022858290052068924e+02 -5.022858290052068924e+02 5.447105781726668283e+02 -5.447105781726668283e+02 5.013888667522125502e+02 -5.013888667522125502e+02 3.929825536887029784e+02 -3.929825536887029784e+02
1.126085371491434596e-02 5.504845264661054216e+02 -5.504845264661054216e+02 4.922032751032155602e+02 -4.922032751032155602e+02 3.421198084719973735e+02 -3.421198084719973735e+02 4.970118047964926973e+02 -4.970118047964926973e+02 3.791334847873141598e+02 -3.791334847873141598e+02 3.413941020576572782e+02 -3.413941020576572782e+02 5.235079883316432188e+02 -5.235079883316432188e+02 3.552306504285268147e+02 -3.552306504285268147e+02 4.080491198467190088e+02 -4.080491198467190088e+02 3.602975899967480586e+02 -3.602975899967480586e+02 4.386822227627436064e+02 -4.386822227627436064e+02 5.265406645785780029e+02 -5.265406645785780029e+02
0.000000000000000000e+00 3.308703761468239577e+02 -3.308703761468239577e+02 5.159170639710293926e+02 -5.159170639710293926e+02 4.638193433105575991e+02 -4.638193433105575991e+02 4.847015898783115517e+02 -4.847015898783115517e+02 5.299184974750548918e+02 -5.299184974750548918e+02 4.917673711160842345e+02 -4.917673711160842345e+02 3.627299968917016599e+02 -3.627299968917016599e+02 5.897099662664801372e+02 -5.897099662664801372e+02 5.037990320871001018e+02 -5.037990320871001018e+02 3.617795306580824786e+02 -3.617795306580824786e+02 5.309353660929084526e+02 -5.309353660929084526e+02 5.773319524141813872e+02 -5.773319524141813872e+02
3.707452292137500965e-02 5.061975635167195264e+02 -5.061975635167195264e+02 5.402344647865897969e+02 -5.402344647865897969e+02 4.142812273689885387e+02 -4.142812273689885387e+02 4.646408869753417434e+02 -4.646408869753417434e+02 3.604285863611940499e+02 -3.604285863611940499e+02 5.015543360453113451e+02 -5.015543360453113451e+02 3.826645637471931991e+02 -3.826645637471931991e+02 5.759147868514701258e+02 -5.759147868514701258e+02 5.782613848860814869e+02 -5.782613848860814869e+02 4.029260909665269423e+02 -4.029260909665269423e+02 3.704111252645328705e+02 -3.704111252645328705e+02 4.176115972098089628e+02 -4.176115972098089628e+02
-7.177043184023708736e-04 5.907210524287736462e+02 -5.907210524287736462e+02 5.781171583306894490e+02 -5.781171583306894490e+02 5.188768955475873099e+02 -5.188768955475873099e+02 4.978900658832274075e+02 -4.978900658832274075e+02 5.868510377608045019e+02 -5.868510377608045019e+02 5.947724939403208282e+02 -5.947724939403208282e+02 4.147652023132188788e+02 -4.147652023132188788e+02 5.573745180603606286e+02 -5.573745180603606286e+02 5.965148896099864260e+02 -5.965148896099864260e+02 5.822435575312892979e+02 -5.822435575312892979e+02 5.269766886169610416e+02 -5.269766886169610416e+02 3.984047481946482208e+02 -3.984047481946482208e+02
