-2.757176105847198300e-01 -1.965401505894607048e+00 -3.023381277535684974e-01 -7.494852826400043577e-01 -8.835227885497658473e-01 2.606066688612482807e-01 -1.296439143420395901e+00 8.344925227732973294e-01 2.221196586288106012e+00 -1.355836545521263758e+00 4.091652172392176157e-01 -1.708775221441510173e+00
-1.461074418424521237e+00 2.565622546332069209e-01 2.376978804498966813e+00 1.580444804626217392e+00 -1.392894127335290722e-01 3.590677999415417543e-01 1.635235572990710207e+00 -7.929226879214938684e-02 -1.516783504611391331e+00 1.017453503419350203e-01 -2.207490665065297897e+00 2.098434229496003722e-01
4.727078707577962030e-02 -1.303399820394824271e+00 -6.895331720230284400e-01 -5.256310247521642220e-02 7.003371772266053785e-01 2.657778272841581635e-01 -3.817699661877940742e-01 7.959472543085057694e-01 7.710367613374909945e-01 3.736778486069790572e-01 1.128682570647187688e+00 -5.912911455673093286e-01
-1.465530309031606748e+00 7.074390802639738407e-01 -3.998298171397241668e-02 3.342800266234139617e+00 5.746338793938960965e-01 -1.077412647373637400e+00 1.840386576682116138e+00 -1.278269824103628327e+00 -9.331377466098830231e-01 -1.862453772085868930e+00 1.932039656242118264e-01 -1.596766596383856762e-01
-3.227643684643880517e-01 1.379766386275604440e+00 5.076499272410247565e-01 -3.201478927819947362e-01 -7.712486023837863414e-01 2.482015927577661540e-01 3.693497743030729752e-01 -1.529996531304202434e-01 -1.032647710595213431e+00 1.359740423704093759e+00 -9.951445173745596673e-01 5.472709350935577310e-01
-1.927519424669803305e+00 -2.798179576461795603e-01 6.634457411414038663e-01 -4.770516917721363548e-01 1.507479891839880737e-01 3.583323353911782028e-01 -7.138797166953515516e-01 -1.682175880965150805e+00 -3.376665363922863872e-01 6.347028833261768588e-01 -1.453222630125600379e+00 -1.102621975082404004e+00
2.265099075514084848e-01 2.129381545903979434e-01 7.407159200221646866e-01 4.080427248307741395e-02 -1.431608824111449518e+00 -7.192423569838220232e-02 -1.238635079104106085e+00 -3.189508268799512991e-01 3.893294825406433124e-01 2.127884971894515032e-01 -2.495321611462774647e-01 -7.528003016995121754e-01
1.135917848857308954e+00 5.325994530190862886e-01 -4.824848645655054336e-01 1.844617743145664068e+00 2.289308099610949578e-03 2.242055547470275911e+00 -1.605479974967645607e+00 4.857529608504784768e-01 5.686796462456761292e-01 2.275701559863206325e-01 5.070121959271634005e-01 1.053853950666077566e+00
-3.202972642817517035e-01 -1.379874222669520645e+00 2.007029209712730911e+00 2.204616758575317081e-01 -2.104863499442936603e-01 4.557512512463011978e-02 -2.785706963681549575e-01 1.113970962072584614e+00 1.046933520808611906e+00 -1.487748607202395712e-01 -7.646123115379346302e-01 1.757949945593912711e+00
-1.418801562076431377e+00 1.190691427993918028e+00 7.240960842951971177e-01 -9.294645025664864946e-01 -2.102599081587781804e-01 -1.271199251808948771e-01 -7.857465849287487147e-01 6.112341675623509385e-01 -3.549784162452389313e-02 6.532526383213008159e-02 1.000170434606714176e+00 1.294363079450233878e+00
-7.973979167982996330e-01 3.999015270784266329e-01 2.543356669862951724e-01 -1.977827909070231649e-01 5.799310529730311581e-01 4.291906131805142688e-02 -5.948347610237281202e-01 1.118977246810457515e+00 -2.021274354815545404e+00 1.561408665702255227e-01 1.119262354594595887e+00 -5.628432436002792638e-01
2.342335525329531098e-01 -3.240600662845738000e+00 1.420673627995592714e+00 -4.377326900007406651e-01 1.737109971908137040e-01 -1.018380959347906289e+00 1.998690172090735184e-01 1.613277932229642886e+00 1.521224506951202482e+00 -2.538124986691458473e-01 -4.428072212179013367e-01 -6.224224291005294590e-02
-5.580475135630287298e-01 5.385412320899405358e-01 -1.456387438514709309e+00 -5.204666259935736283e-01 4.650271518493823697e-01 3.266853559935789519e-01 -4.027039461022362543e-01 5.177320864174111970e-01 -3.674579413608998757e-01 -5.002673037053561034e-01 4.738069593921124811e-01 -1.952955548272233832e+00
1.663780488634483690e-01 7.603539168243526047e-01 -1.184240545054451310e-01 -9.031371097354459199e-01 1.421036140902332823e-01 1.363319101808820655e+00 8.236323659760579341e-01 -5.614257630252736941e-01 2.315135657980088801e+00 -1.808584020893049038e+00 2.012731373055610007e+00 -3.495182013917622621e-01
-4.358040595797453842e-01 2.174751955313562579e+00 8.957236890385311678e-01 5.108727742268972527e-01 1.539238753456706021e+00 -7.702133376105252394e-01 -3.083403468398016600e-01 -2.176606743265932786e-01 -6.316737082397471115e-01 -1.286443960856263002e+00 -1.316716146568598922e-01 -5.939668092751855255e-01
1.010739213051277535e-01 4.082895589678932069e-01 3.932145042813441904e-01 1.159384466826213350e-01 -1.049283780516019338e-01 1.395883115075507108e+00 -3.906576027753444480e-01 4.912610555161639470e-01 2.921612454724961672e-01 7.568362248551778748e-01 1.175086434049043893e+00 -4.132842527382944442e-01
2.408985506452318681e+00 -3.677361968746835352e-02 -1.604571843871777315e+00 1.652807793155395721e+00 -1.068602895746991077e+00 -5.066935442163262859e-01 -7.718230930484185626e-01 -5.257863372124735868e-01 1.678083365271723748e+00 1.789187389360459735e+00 2.235787218960449962e+00 -2.649206527818409596e-02
-5.214987932734667098e-01 -5.652436786183593354e-01 1.165789330661600065e+00 -2.257135177886044008e+00 -1.678044120111670479e+00 -1.088258839357548080e+00 1.001644183581050784e+00 2.451417991208362235e+00 5.109487682598828906e-01 -8.371217854076419274e-01 -1.272362996390743684e+00 9.819160067658005975e-02
-8.595764337441283987e-01 1.228062189991554254e+00 -6.750084684381545408e-01 -1.636440412010176981e+00 -2.443412894108674960e-01 1.667519281649682661e+00 8.448881629779413094e-02 -9.941097880704641288e-02 -1.947780722889102534e-01 -6.213689237538335686e-01 -6.158763970821155009e-01 1.040315210362638965e+00
-1.490960727763606330e+00 7.689288769870185059e-01 -7.185370387398621883e-01 -1.196805864413031939e+00 -3.664201401940097025e-01 -3.177062086734001589e-01 -4.361971290525388373e-02 1.185117889649084794e-01 -1.675061204659921588e+00 3.795515233791131315e-01 1.704255199903654816e+00 -2.613622611948059893e-01
-6.440515456861101162e-01 5.275308391625913584e-01 -1.310550816258247320e+00 -6.971087420733129703e-01 4.221171558727672690e-01 2.307737092217027275e+00 -5.552711698548772334e-01 -7.982163420764082362e-02 -1.313404306303019853e+00 -2.302285885441410773e+00 6.093093587053373117e-01 -7.792111649539199547e-01
5.191162486780687146e-01 -1.007540436414431806e+00 -5.492601404939509990e-01 2.704035708128803561e-01 -6.660839113443314252e-01 -1.616295523933108380e-01 9.418259954629607522e-01 1.576734148732705121e+00 4.422623882253371441e-01 5.198595304009098195e-01 3.992419384428466111e-01 7.551811664212988440e-01
6.394779338914379219e-01 1.376558186792912641e+00 1.076536140946615872e+00 -1.018919407399534904e+00 -1.641609554742718968e-01 1.414918262487895317e+00 1.434742018377712369e-01 6.710269785404425757e-01 -1.072483857611862490e+00 -6.731184130803613552e-01 1.714874743192757123e+00 -2.073853955622361467e-01
-1.612828041762689457e+00 -1.269052669111472076e+00 1.728806084865717629e+00 1.791088956761993867e+00 1.232334582460357097e+00 4.646262799354122230e-01 8.216732771950974179e-01 1.373279519050315312e+00 -2.593629955537320453e-01 4.992915877706903816e-01 1.180113530918698528e+00 6.616329905636605391e-01
-2.509581208598738455e-01 6.597903452215123088e-02 -2.530965835303096156e+00 1.127760907997108042e+00 2.804156827648075279e+00 2.267657690101549939e+00 7.457436367650153164e-01 -1.990991787280499414e-01 2.867192168287347465e-01 -1.245640648316830301e+00 -3.991881549409411617e-02 1.259999965664348742e-01
8.895179064139084255e-03 7.358178891499170815e-01 -2.122466662730742470e+00 -5.955266809260117977e-01 -1.625556532210580274e+00 -8.910878187499893244e-01 -4.309967041053551773e-01 -6.447895085406514237e-01 1.566640346785607596e+00 6.686820717701970063e-01 1.055673898564038149e+00 2.183615559025834096e-01
9.639811964609545925e-01 1.083138952566337965e+00 -1.548065177066639153e+00 4.505744558160467150e-01 -4.979851211647336462e-01 -1.208757533859760036e+00 -2.416218896584202691e-01 3.023245546646774473e-01 -1.286627339735511855e-01 -1.429426528515236772e+00 -9.801097750242163675e-01 3.091484656303557510e-01
-1.329431614260365491e+00 -7.792788729717232687e-01 8.567847473524301330e-03 -2.716224878299030032e-01 1.482615986019789889e-01 -1.868273425493583328e+00 -7.661450462314910170e-02 2.650235441919450777e-02 -4.795665976687854548e-01 1.248578601821259904e+00 1.372984260184092253e+00 -8.080518991876721735e-01
-7.021978105218202870e-01 9.954831841191746911e-01 3.698143176489108175e-01 -2.106051885462679074e+00 -1.293992946021641721e+00 1.143062379807180395e+00 -5.869167804986245018e-01 -9.871390073888924865e-01 7.329363924375823514e-01 -3.228919816214850247e-01 8.334685707221571871e-01 8.297604225261272504e-01
-3.535983692970918746e-01 1.182436627824008601e+00 1.331105389802339500e+00 -8.107441241944178187e-03 -8.842241424897357566e-03 3.053727035613682528e-01 -2.172707619342697793e-01 4.471269689319080920e-02 -1.433605668839929015e+00 -1.565429258358456588e+00 1.136708529795567912e+00 -1.090719749592310162e-01
-1.326565775722946539e+00 -1.186024613059663890e+00 -4.606535088932403044e-01 -1.604824540731380811e+00 1.704264828268445386e+00 -2.115894633188362128e-01 3.685250835194497365e-01 1.364798163601798064e+00 -7.576696002972466149e-01 -4.029713495052162364e-01 8.951784978740742194e-01 -3.376301020805256847e-01
-8.111163220055944700e-01 6.338344511942932691e-01 1.322336108814123889e-01 1.956893766940581481e+00 8.585176052144541936e-01 7.206417922340671023e-01 -6.189038667833662855e-01 -1.817985910081872714e+00 -1.446020251965998593e+00 1.339080944458446831e+00 9.154814152132976224e-01 3.837858005565160102e-01
-5.121103230510195559e-01 -1.301061058091302070e-01 -3.360429859647000028e-01 7.908254027004966158e-01 -3.570499951116566650e-02 -9.814487045570676749e-01 -2.559626308295433472e-01 -8.329899266602185381e-01 -9.380860036675363611e-01 3.094344763745299209e-01 -7.509612411020888390e-01 -1.358264570781670288e+00
1.007725660570515158e+00 3.120752580343680305e-01 1.052329830264972399e+00 9.101142045263390656e-01 -3.158582076237785308e-01 1.282171257322022029e-01 -6.120284345602085008e-01 -7.458004239030321392e-01 1.286272757309794512e+00 -6.263000570255372601e-01 -1.075532209599855848e+00 1.215640303179002402e+00
4.366650594725866585e-01 1.183550513000766413e+00 -9.183169774125120588e-01 4.554086933396262471e-01 -6.529582596157215146e-01 3.155760319450648943e-01 -4.011053334584382402e-01 -3.404850999224556807e-01 -1.101265027760377935e+00 -8.311170241004907089e-01 -4.792495938289508817e-01 -4.018766043884814954e-01
-1.419975207249493332e+00 -2.773619135131665803e-01 1.761731174027016289e+00 9.640852956263029627e-01 -2.406604104062119442e-01 4.733455864001357427e-01 1.973963305163923154e+00 -5.517915328500184735e-01 -5.986330499386963849e-02 -8.137102705141570080e-01 1.014444444392344630e-01 2.872424468164297973e-01
3.082068419619671262e-01 3.618113927096600763e-02 1.779479946480927166e-01 1.014860304911726629e+00 4.837540046326190279e-01 1.363047699776539723e+00 -2.594065669048297718e-01 -1.628720525836453659e+00 -1.510882192670447211e+00 7.154479972094984763e-01 7.029430165086825166e-02 9.058894994510560128e-01
-1.194150505370704218e+00 -1.765337067307683361e+00 -6.041563292727735179e-01 4.929173559079833566e-01 -1.217519439761551858e+00 -1.897255205593523231e+00 -1.096754095962770403e+00 5.575426890940962110e-01 8.700110406493950510e-01 5.162553531210174462e-01 -1.463309679208141034e+00 -7.563478200686827302e-01
5.012569170058693846e-01 1.333754804406247219e-01 -4.107956067765685670e-01 -1.262607602371641713e+00 1.204561062038312230e-01 3.453920618414941246e-01 -1.342344481644619281e+00 2.817063263498705283e-01 -7.137023262154952308e-01 -2.394727544928184904e-01 1.017485546578975608e+00 -1.448238222660782171e+00
-1.377866270648091251e-01 4.090702088032018291e-01 1.430343166149331269e-01 2.168998741547974785e+00 1.183516622930727236e+00 8.442524005739221460e-01 -9.390045421895364397e-01 -3.225376432992344000e-01 -6.055674861712224688e-01 -1.018770714091401901e-02 2.863938382711925801e-01 1.051859651906727811e+00
-4.791509682913959733e-01 5.491992074562199733e-01 8.877598075125531230e-02 -6.063268691479363204e-01 2.701469334552515367e-01 7.005654707242511270e-01 -1.692047419130687513e-01 -1.387949862522111326e-03 5.662038464157751472e-01 1.373322556394412253e+00 6.417186199100135546e-01 -8.139153714261248007e-01
-9.494125986165685704e-02 -5.201215172651284524e-01 2.905382315812532479e-01 -6.401785663574642848e-01 3.795703552557633254e-01 3.932556567725224994e-01 2.138032442812645151e+00 -1.734506754428850536e-02 2.252463192213290458e-02 -1.284829559647659991e-01 -1.640738885882360165e-01 -6.536921462106261016e-01
-1.108205540465504901e+00 8.052993769024103798e-01 -3.576962688801448714e-02 1.009217479799516592e+00 8.133899529045538479e-01 -1.335088974760985980e+00 -8.167117822339077515e-02 4.373586102461127223e-01 -2.670695394773851539e-01 -1.697776515411885123e+00 -7.490849971242693472e-01 9.778335325516238630e-01
7.058996628112230720e-01 -8.652283349948581836e-01 7.748969686634198384e-01 1.122100559077136239e+00 -7.212095191311457265e-01 -4.414709084567924879e-01 1.186966691738301494e+00 -3.891442316467143003e-01 -1.085381736332185820e+00 4.924473949283313945e-01 4.778443967183194085e-01 -9.974049258740166346e-01
9.315847301301523053e-01 -6.961296756046814194e-01 -2.636069256789542514e+00 1.393001610662856660e+00 -1.401897022828685058e-01 9.269747177692200246e-01 6.170713223413760717e-01 1.893613427580342068e-01 -1.601909570396512272e+00 -9.708594308795546191e-01 -2.375915852328125966e-01 1.237107073283236991e+00
-7.771186149709924385e-01 -1.562479538433332760e+00 -7.738056392936423222e-01 -2.414662051287515820e-01 3.818518395510346330e-01 -5.743052880032527563e-01 9.681591512600195015e-01 -1.018128186185626838e+00 4.504209570337618374e-01 -6.241148672669493136e-01 -9.892542595855196019e-01 -1.529787328302079918e-01
4.825426034585752338e-02 -9.125719729287252724e-01 2.920354279553458166e-01 1.609142830732146701e+00 1.410476648631350249e+00 -1.527659829391386559e+00 -1.315071476727694311e+00 -4.185726437914923936e-01 2.030854362585431172e+00 -1.088014561017472071e+00 8.203078593049665246e-01 -9.952602371767764744e-01
-3.047002883774709292e-01 1.436821827314905375e+00 1.986355223783485835e+00 -1.780635124555444371e+00 5.193096117044446736e-01 1.002426962859853443e+00 -1.268836247605963918e-01 9.504272743569771587e-01 -1.354670692814512245e+00 -2.947791956804221569e-01 -5.093641466107667881e-01 -8.778604924549198163e-01
-9.535843797221108531e-01 -5.820738936812425157e-01 -6.050931444419156424e-01 -3.220580682715221688e-01 -7.367210207603136496e-01 -9.714126483537287304e-02 2.581013943062393859e-02 -3.272699574109996234e+00 -2.661384660918654221e-01 -6.471040370854833079e-02 -1.466239026512938137e+00 1.237834014998401289e+00
6.535149124652992469e-01 -4.027416473969133714e-02 5.455168897399774453e-02 1.069918633745300385e+00 1.178188966705977059e+00 3.416921085008666759e-01 -1.328455181480483693e+00 -6.144316305081404250e-01 -7.225231623623930011e-01 -2.639960272403207853e-01 -1.493557666233669590e+00 -1.087710955609435537e+00
4.254700884481368850e-01 -5.121769013559653860e-01 8.165111468513471804e-01 1.953271313660840613e+00 1.342558663127125129e+00 -1.339154576392918461e+00 1.451348130493356647e+00 -1.492627398371365599e+00 7.981870169623858091e-01 -1.339710437839428392e-01 -1.183783268482730411e-01 1.097598056097749630e+00
3.850632539685595601e-01 -1.392294756909776776e+00 4.526398792129439630e-01 -5.639483428895655237e-01 -5.848840145394053058e-01 2.666657853320071769e+00 -7.229913810380713679e-01 -5.633694262868101273e-03 1.208332617143748733e+00 -1.570945776525347171e+00 7.859748878900667257e-02 2.178172788665990733e-01
