-9.307299701886162513e-01 2.126754639822393822e-01 -1.028623771222250127e-01 5.148503190905926452e-01
2.576918173015557145e-01 -9.737518921660005544e-01 -1.615318060929477273e+00 -1.048918995166052026e+00
4.781105217215681491e-01 -3.564462620262551229e-01 -6.396555788834966394e-02 -1.102016571045695947e+00
1.246616254927243705e+00 3.141294605666019452e-02 -7.509687493398887748e-01 -1.880423319451927922e-01
7.308092063573456976e-01 9.317934645141853212e-01 2.341042009377734823e-01 5.509667611893258599e-01
9.716058277967259960e-02 2.529504657880466967e-01 1.858854185105773826e-01 5.626403142452842676e-01
-9.514324617041153287e-01 -9.626479107548234770e-01 5.989664198273971785e-01 7.782993704132539214e-01
-9.909111125442805479e-01 8.362762749563550368e-01 -3.930702932800929084e-01 -5.239952381416923544e-01
-1.137537632910466723e+00 -4.007657065041880240e-01 5.717026462300470180e-02 -4.209394527498473981e-01
2.731851437332816768e-01 1.833344034744214701e+00 -2.679504681655395792e-01 9.713100013241253439e-02
-1.264206888044068444e+00 -4.135957761783153330e-01 -2.070864184404210551e-01 1.817658255304807069e+00
-2.013376782962197353e+00 4.142328898118430303e-01 3.072438107374396710e-01 -3.193113606730555443e-01
1.275006892120765123e+00 1.186285863656926232e+00 1.542818013609212890e+00 1.437409407005096007e+00
2.083898289479313992e-01 7.431921159819413480e-01 -1.056336295492015381e-01 -8.326105860592843966e-01
-5.900158775406340039e-01 -5.208577880327907028e-01 -7.009137485115136679e-01 -7.356975346492873324e-01
5.225237501258598316e-01 -1.932670549812012473e+00 4.145750038745869004e-01 -4.191723259400001456e-01
1.091959418022099004e-01 -4.043991147860911406e-01 -8.281814125894150225e-01 -4.705230383631629071e-02
-2.349992652028957796e+00 5.523996827990963476e-01 -6.656948639896824726e-01 -1.196194571177450205e+00
-1.303278706213043980e+00 5.945694027710121121e-01 9.313798770924119896e-01 9.313824059103870123e-01
-5.046034789249967956e-01 -6.392629286059230143e-02 -1.251585303785618108e-01 -3.523975828820211653e-01
-5.757843965616634696e-01 1.531503794049014378e+00 -1.089557632095490419e-01 1.287460701272784003e-01
3.870535209917151942e-01 1.380730541648151677e+00 -7.131716181241067876e-01 -2.143710617384397388e+00
1.969960740524293819e+00 -8.454633442893150219e-01 -6.593507814655917842e-01 -2.317594307655464814e+00
-3.820181514109891596e-01 -8.429967169704243313e-01 6.837502828688115653e-01 8.105165758745083160e-01
1.545537397282751302e-01 -5.854935070236753081e-01 8.516772926680999944e-01 -1.891127008789383890e-01
-2.413647868652730732e-01 -5.158021135224879483e-01 -5.855335482275665360e-01 -2.144110900460033040e-02
2.189302568868852550e+00 1.395895314204865345e+00 4.192097522454108632e-02 9.722716857544845270e-01
1.413969901427809761e+00 4.272302083448258347e-01 1.936687089551342167e-01 1.902212347441965656e+00
9.369982818437994077e-01 5.084671334178706426e-01 -3.029469934605585890e-01 9.946542445606926242e-01
-1.567499909709244132e+00 -7.654070110316722741e-02 -1.694403467032257193e+00 1.502907976487167341e+00
-7.273744739235969703e-02 9.251583032395985784e-01 -1.575214564640939008e+00 -5.479294968092762730e-01
-1.275346244507973958e+00 -6.653115373245331587e-02 -4.822349925294816542e-01 1.503138046737530820e+00
3.164717731185229699e+00 -1.331488732671940678e+00 1.671625062448765242e-01 4.671435702191994305e-02
-1.256388198077083462e+00 -9.230797658536105121e-01 -2.147071684694752847e+00 -1.723248167841112011e+00
5.523069999668917332e-03 2.050093678951944831e+00 -1.201183818134208714e+00 -3.963116972951419847e-01
5.280965407107229836e-01 2.919538418615087449e-01 -3.411836772526283812e-01 -3.288168544825404993e-01
-1.750781401545644878e+00 5.312917240022896337e-01 -3.499255997414851826e-01 3.159769765746934800e-01
-3.586958623838264471e-01 -1.240978117893752675e+00 9.886186496588590389e-01 -4.089482562731883847e-02
1.632765163854370538e+00 -2.749142942564478664e-01 -4.031997654067162595e-01 5.371804156352792958e-01
1.907284316261222079e+00 1.284339524955080969e-01 -1.396683461837628926e-01 1.710508905775732114e+00
9.585609156205546766e-01 1.165887915397302577e-01 -1.433512712131383315e+00 4.688981603306582868e-01
-1.951014485121853381e+00 -6.906586905139257271e-02 -9.363431317567123546e-01 2.261675982367637172e-01
4.999537309335012614e-01 -2.310693685060110081e+00 8.738649643941104328e-01 -6.911417805612442289e-02
2.036059726737918935e-02 -1.696070656758383866e+00 -1.016091385507551070e+00 1.475071560130476023e+00
-1.494853261575877612e+00 2.927488120018567619e-01 -5.103793864764420984e-01 3.032766685638721427e+00
4.869826650462108497e-01 -1.416847552700726931e+00 5.791464937521567657e-01 1.218853353867298539e-01
5.047964713698088746e-02 1.135402324733695151e-01 -4.286550558295466606e-01 -5.959824699491289568e-01
4.250875419656853782e-01 -4.905769702693799639e-01 -1.862534040857611595e-01 5.753786858841037494e-02
-3.708667205904973563e-01 6.913696882394443355e-01 1.442679931835401108e+00 2.638748061126447997e-01
6.021547086839632579e-01 4.459385298908967454e-02 1.673362116913162112e-01 7.586889590963693530e-01
-7.820434254732744339e-01 5.049438112646915666e-01 -6.852458612444430885e-01 -8.909803002890247514e-01
-1.005298053993922469e+00 1.975377506079354584e+00 1.532844386388411140e+00 -8.011400651767066616e-01
