7.693226079138102413e-01 -1.831655124104413446e+00 -6.968408979690662308e-01 -9.296117485391560686e-01
-1.286084619244913574e+00 3.412175309793978872e-01 -8.587096902908719631e-01 9.173286299484056938e-01
-9.165934683672545269e-01 -3.989230550588361845e-01 -3.493509103995169895e-01 1.273254517745851522e-01
-1.133595975928973765e+00 1.054499519885948589e-01 -4.292795423153868972e-01 1.423436200049031708e+00
-3.042179057383979091e-01 8.819130794900863490e-01 8.302528434462170814e-01 -1.082159335819857127e+00
1.228746266533592424e+00 -1.892498796270442873e-01 -1.115557015548348518e+00 9.753847598593115564e-02
-4.952839952639900289e-01 2.129862373399898923e-01 -1.743089971901756075e+00 2.674038328011438606e-02
-5.981505936542915736e-01 -3.760342253424684977e-01 5.639146657374203286e-01 1.450171018155127500e+00
-3.871361779844109674e-01 1.072320058117012032e+00 5.957022671829830252e-01 -7.396584997501629566e-01
4.728521167486876564e-01 4.539166916052233547e-01 9.283633384205433048e-01 -2.029329415391921021e+00
1.127885262932393218e+00 1.287153152487329422e+00 -6.956239474180487825e-01 -2.995349812776445741e+00
-8.010945067511549000e-01 1.574189974396991709e-01 -1.042330838846109886e+00 4.686908842426865673e-01
-1.482443171244133551e-01 6.920008574830477377e-01 2.609716907301639632e-01 -5.871407173401875790e-01
-8.464112534585380709e-01 -6.212565490207784258e-01 -1.815867776771539210e-01 -2.903567201113584906e-01
2.550080045780415361e+00 -5.445336577469293005e-01 -1.173551857803558418e+00 -2.449786071761260176e-01
9.506769225796147804e-01 3.215538074482317543e-01 -1.827408585973234190e-01 -6.636112067916469792e-01
5.143696160535627948e-01 1.496444487355407249e+00 -1.227923472873793997e+00 -1.980491802575028160e-01
-2.061906166942495844e+00 1.077526939666655137e+00 -6.019614205923390360e-01 2.174269526299746347e-01
6.039002063912582985e-01 -6.711374643958517572e-01 -7.732172656090048335e-01 4.970451520648075938e-01
8.258389387601364762e-01 -1.091404061303965944e+00 4.724604589443562874e-01 -1.830828510437854550e+00
8.115997873571861865e-01 -2.053700498528934215e-01 6.262675342551016211e-01 1.162007356647495465e-01
-1.188627918862682487e+00 2.082249375153246984e-01 1.935949530607276259e+00 1.431567893429429583e+00
2.388358925388859022e-01 3.345474806999613193e-01 -8.048040985826764304e-01 5.648036252151847902e-01
-6.116181832838839538e-01 -7.992096274381328413e-01 2.117626636604069024e+00 -1.846671711845098221e-02
-2.642981432668991104e+00 1.301788353778536404e-02 -1.374226313657092691e+00 -1.438637804116553731e+00
1.858112545735091659e-01 1.619332737052221693e+00 -2.784280477259662434e-01 -4.752899085175619764e-01
-4.920298224138202614e-01 -1.113845224394319322e+00 1.209456270491523933e+00 3.316589714900777808e-01
-5.369016554938279562e-01 3.582715324483455865e-01 8.695330655651646590e-02 1.277467510661779437e+00
1.125552938078976162e+00 -9.433654664489997399e-02 9.053808511821556104e-01 1.222390385037933624e+00
6.976936848030356186e-01 -1.164338966587826096e+00 3.463604190992617959e-01 -3.452880055994161368e-01
-8.018548304459105491e-01 6.177550236180506804e-01 -9.674723439957848559e-01 3.451124259627932345e-01
-3.907340782999990103e-01 5.462257422328350431e-01 -3.095492875570506341e-01 7.935689319487893023e-02
-1.805392434057129930e-02 1.971706219235018140e-02 -1.888112248418997302e-02 7.884041574395042051e-01
6.040054299664645576e-01 -7.377701689452698108e-01 -1.347299248637298996e+00 1.292490304557260217e+00
-1.776521588192764289e+00 -5.699615027827836800e-01 -1.813856059241457375e-01 1.636899651120457211e+00
1.573662090337830666e+00 6.501903648060594065e-01 -1.684631488128713883e+00 -1.548716751418489856e+00
1.243669420421930294e+00 -1.398212965928697038e+00 5.755207780385352967e-01 1.201455736327203594e+00
-7.567126830221441169e-01 1.025436456033322230e+00 1.002928906322395841e+00 -4.568850828469204761e-01
-1.517691489976826791e+00 5.548360992726927288e-01 -6.972509427680428917e-01 2.135200968559105572e-01
-7.495494354863817543e-01 6.345704830758500670e-01 -7.327542120259293856e-01 -4.645651045362929055e-01
-3.358864870125162772e-01 7.037618234978300080e-01 -1.119211640053136447e+00 -1.681674170599865570e-01
-2.512073600697489972e+00 7.582277540219674039e-01 -1.952775490724398544e-01 8.103023298867694235e-01
1.090724904362076614e-01 1.252465750988898396e-01 -4.284684863667639204e-02 3.826602827134415463e-01
2.870865498323516007e+00 -9.240274074415713579e-02 9.566454598109368490e-01 -1.822609830896306571e+00
1.682175470574301057e+00 -4.046409523248657436e-01 -6.725112152650255526e-01 1.619434032206658491e+00
-9.547510471454085934e-01 4.788507971426967935e-01 1.021965218830004796e+00 -1.085631676937147683e+00
-1.918573502456559554e+00 -4.125261879265177400e-01 -1.920531039894079361e+00 -2.916883518169544054e-01
-7.065768855608971499e-01 -1.554981247753351559e+00 -7.884520352835304446e-02 1.703894444107057371e+00
-6.964906789607588911e-01 -2.847018162095274474e-01 -1.496363492407674044e-02 2.163099382550409455e+00
-5.459510033013232899e-01 1.537184738658013750e+00 8.464321646530068577e-01 2.007601235232565617e+00
2.624411911758126603e-01 2.184320084645025251e+00 5.570987354294074101e-02 1.680439078685445342e-01
-1.413484568995766910e+00 9.934643506657043766e-01 -2.877692441909655008e-01 -1.388647615532646817e+00
