0.000000000000000000e+00 1.119338891063973051e+03 -1.119338891063973051e+03 1.785482352737038127e+03 -1.785482352737038127e+03 1.566994797537586692e+03 -1.566994797537586692e+03
-7.317809588645302066e-02 1.124624168945975498e+03 -1.124624168945975498e+03 1.164661966986902144e+03 -1.164661966986902144e+03 1.846885433462300853e+03 -1.846885433462300853e+03
-8.671341814657096067e-03 9.533211658260227068e+02 -9.533211658260227068e+02 1.629979897250965678e+03 -1.629979897250965678e+03 1.675395853818607520e+03 -1.675395853818607520e+03
4.886861135823377007e-03 1.719507802761002722e+03 -1.719507802761002722e+03 1.167520454195113871e+03 -1.167520454195113871e+03 1.389117803117317180e+03 -1.389117803117317180e+03
1.076813679775241901e-02 1.005180228437389474e+03 -1.005180228437389474e+03 1.745404097302525088e+03 -1.745404097302525088e+03 1.148004844545439710e+03 -1.148004844545439710e+03
2.980031134503760733e-03 1.704446548169685457e+03 -1.704446548169685457e+03 9.477420163475254640e+02 -9.477420163475254640e+02 1.413857141785596923e+03 -1.413857141785596923e+03
-1.364131541399613880e-02 1.264499340536256568e+03 -1.264499340536256568e+03 1.787991269868191921e+03 -1.787991269868191921e+03 9.615739825750342789e+02 -9.615739825750342789e+02
0.000000000000000000e+00 9.460516782100568207e+02 -9.460516782100568207e+02 9.173095894294727941e+02 -9.173095894294727941e+02 1.705716509447744784e+03 -1.705716509447744784e+03
0.000000000000000000e+00 1.509434835913827328e+03 -1.509434835913827328e+03 1.683668431720831222e+03 -1.683668431720831222e+03 1.790893056007068708e+03 -1.790893056007068708e+03
0.000000000000000000e+00 1.337568831455876534e+03 -1.337568831455876534e+03 1.491075429854219010e+03 -1.491075429854219010e+03 1.511254643919896580e+03 -1.511254643919896580e+03
5.681121901617805503e-02 1.684955180866351611e+03 -1.684955180866351611e+03 1.140438502356220624e+03 -1.140438502356220624e+03 1.513844941536542137e+03 -1.513844941536542137e+03
6.651263704401435758e-03 1.648563568040244036e+03 -1.648563568040244036e+03 9.964977510758897097e+02 -9.964977510758897097e+02 1.082214638965960148e+03 -1.082214638965960148e+03
0.000000000000000000e+00 1.089494748151024623e+03 -1.089494748151024623e+03 1.498271583739832977e+03 -1.498271583739832977e+03 1.127679467408269147e+03 -1.127679467408269147e+03
9.976895556602156240e-03 1.285539450309253425e+03 -1.285539450309253425e+03 1.679505118364186046e+03 -1.679505118364186046e+03 1.425198668067615699e+03 -1.425198668067615699e+03
3.325631852200717879e-03 1.806262383056334329e+03 -1.806262383056334329e+03 1.095735204967081017e+03 -1.095735204967081017e+03 1.801173350886945627e+03 -1.801173350886945627e+03
3.325631852200717879e-03 9.580301870230600798e+02 -9.580301870230600798e+02 1.485767499967520280e+03 -1.485767499967520280e+03 1.256619810256043365e+03 -1.256619810256043365e+03
2.327942296540501388e-02 9.807299174947627307e+02 -9.807299174947627307e+02 1.778113860849878620e+03 -1.778113860849878620e+03 1.183894219874473720e+03 -1.183894219874473720e+03
-9.160948224104936569e-04 1.339684085086237474e+03 -1.339684085086237474e+03 9.406607886399597191e+02 -9.406607886399597191e+02 1.488524451940214931e+03 -1.488524451940214931e+03
3.325631852200717879e-03 1.514934377583978858e+03 -1.514934377583978858e+03 1.381717513047944749e+03 -1.381717513047944749e+03 1.654265868723987751e+03 -1.654265868723987751e+03
0.000000000000000000e+00 1.222123156304668782e+03 -1.222123156304668782e+03 1.729290899109317024e+03 -1.729290899109317024e+03 9.474052389193977888e+02 -9.474052389193977888e+02
0.000000000000000000e+00 1.110048826129536565e+03 -1.110048826129536565e+03 8.985197236469641666e+02 -8.985197236469641666e+02 1.513627521668481450e+03 -1.513627521668481450e+03
0.000000000000000000e+00 1.569549651320855901e+03 -1.569549651320855901e+03 1.601899050138770917e+03 -1.601899050138770917e+03 1.677070013933361452e+03 -1.677070013933361452e+03
0.000000000000000000e+00 1.332034253640940960e+03 -1.332034253640940960e+03 1.683411540703643141e+03 -1.683411540703643141e+03 1.012059467454351534e+03 -1.012059467454351534e+03
0.000000000000000000e+00 9.321850459459434433e+02 -9.321850459459434433e+02 1.092067761418295959e+03 -1.092067761418295959e+03 1.284956421396847645e+03 -1.284956421396847645e+03
0.000000000000000000e+00 1.609000781972323466e+03 -1.609000781972323466e+03 1.310605144874386724e+03 -1.310605144874386724e+03 1.592481172481933527e+03 -1.592481172481933527e+03
0.000000000000000000e+00 1.487915372029304308e+03 -1.487915372029304308e+03 1.560695427693941610e+03 -1.560695427693941610e+03 1.388255064478568784e+03 -1.388255064478568784e+03
0.000000000000000000e+00 1.456892035621847299e+03 -1.456892035621847299e+03 1.567188093445987761e+03 -1.567188093445987761e+03 1.628712947125022993e+03 -1.628712947125022993e+03
0.000000000000000000e+00 1.123736402813786754e+03 -1.123736402813786754e+03 1.124073757217134244e+03 -1.124073757217134244e+03 1.535389445194954533e+03 -1.535389445194954533e+03
0.000000000000000000e+00 1.642556748350703856e+03 -1.642556748350703856e+03 1.457773641664320166e+03 -1.457773641664320166e+03 1.276222995346211746e+03 -1.276222995346211746e+03
0.000000000000000000e+00 1.495488387515084014e+03 -1.495488387515084014e+03 1.391289505961458190e+03 -1.391289505961458190e+03 1.105408099805153824e+03 -1.105408099805153824e+03
0.000000000000000000e+00 1.324170634475226962e+03 -1.324170634475226962e+03 1.286929189664083651e+03 -1.286929189664083651e+03 1.188234414262447899e+03 -1.188234414262447899e+03
0.000000000000000000e+00 1.721386680246424476e+03 -1.721386680246424476e+03 1.242884263869119195e+03 -1.242884263869119195e+03 1.374571526497548575e+03 -1.374571526497548575e+03
0.000000000000000000e+00 1.759205040123562640e+03 -1.759205040123562640e+03 9.430025723877606652e+02 -9.430025723877606652e+02 1.169476413824991596e+03 -1.169476413824991596e+03
0.000000000000000000e+00 1.120403613133465797e+03 -1.120403613133465797e+03 1.134973688418667962e+03 -1.134973688418667962e+03 1.118277754762321592e+03 -1.118277754762321592e+03
0.000000000000000000e+00 1.184857089600524660e+03 -1.184857089600524660e+03 9.681135069137294522e+02 -9.681135069137294522e+02 1.611376182390282338e+03 -1.611376182390282338e+03
0.000000000000000000e+00 1.554602945502073453e+03 -1.554602945502073453e+03 1.603248799619192596e+03 -1.603248799619192596e+03 9.393794051845784452e+02 -9.393794051845784452e+02
0.000000000000000000e+00 1.286357153086632252e+03 -1.286357153086632252e+03 1.020793057456839165e+03 -1.020793057456839165e+03 1.416018744688301013e+03 -1.416018744688301013e+03
0.000000000000000000e+00 1.115992066206282743e+03 -1.115992066206282743e+03 1.707316519706119834e+03 -1.707316519706119834e+03 1.026415817513616275e+03 -1.026415817513616275e+03
0.000000000000000000e+00 1.012463979427974778e+03 -1.012463979427974778e+03 1.572761395722203133e+03 -1.572761395722203133e+03 1.578555549459724944e+03 -1.578555549459724944e+03
0.000000000000000000e+00 1.273771305379547357e+03 -1.273771305379547357e+03 1.612311453997262106e+03 -1.612311453997262106e+03 1.632878773325511020e+03 -1.632878773325511020e+03
0.000000000000000000e+00 1.088670964474639732e+03 -1.088670964474639732e+03 1.763670909429870790e+03 -1.763670909429870790e+03 1.215268472386821713e+03 -1.215268472386821713e+03
0.000000000000000000e+00 1.575031882150266256e+03 -1.575031882150266256e+03 1.571816453070779289e+03 -1.571816453070779289e+03 1.700021597638538196e+03 -1.700021597638538196e+03
0.000000000000000000e+00 1.451809968634951701e+03 -1.451809968634951701e+03 9.347851864123197174e+02 -9.347851864123197174e+02 1.143683022951005569e+03 -1.143683022951005569e+03
0.000000000000000000e+00 1.432175895892307835e+03 -1.432175895892307835e+03 1.076435181384046700e+03 -1.076435181384046700e+03 9.534908935047195655e+02 -9.534908935047195655e+02
0.000000000000000000e+00 1.223700950132526032e+03 -1.223700950132526032e+03 1.500540818051497581e+03 -1.500540818051497581e+03 1.352703693458369344e+03 -1.352703693458369344e+03
0.000000000000000000e+00 1.787121124896955507e+03 -1.787121124896955507e+03 9.300336466381739911e+02 -9.300336466381739911e+02 1.205158295442520739e+03 -1.205158295442520739e+03
0.000000000000000000e+00 1.786743403064564973e+03 -1.786743403064564973e+03 1.203560843458933959e+03 -1.203560843458933959e+03 1.294869443099265936e+03 -1.294869443099265936e+03
0.000000000000000000e+00 1.095753561716089735e+03 -1.095753561716089735e+03 1.567340379081060291e+03 -1.567340379081060291e+03 1.193300918049501433e+03 -1.193300918049501433e+03
0.000000000000000000e+00 1.270883793737179303e+03 -1.270883793737179303e+03 1.670691189309049605e+03 -1.670691189309049605e+03 1.829606446286899427e+03 -1.829606446286899427e+03
0.000000000000000000e+00 1.423784885724504420e+03 -1.423784885724504420e+03 1.169629157915616133e+03 -1.169629157915616133e+03 1.304913996488212888e+03 -1.304913996488212888e+03
0.000000000000000000e+00 1.679093788355512061e+03 -1.679093788355512061e+03 9.057290299924909505e+02 -9.057290299924909505e+02 1.056022018257213631e+03 -1.056022018257213631e+03
0.000000000000000000e+00 1.658382122515280571e+03 -1.658382122515280571e+03 1.347723046200259887e+03 -1.347723046200259887e+03 1.031215783249232800e+03 -1.031215783249232800e+03
