-1.038468145061653747e+00 9.154990659483782656e-01 -4.535775825883675005e-01 -4.148815134442075392e-01 9.012512667522644128e-01 7.778611290364437769e-01 5.066958231091890363e-01 -1.648113218574445593e+00 -3.467759822806844583e-01 -1.208483581959303388e+00
-4.811868908509036036e-01 4.411954716098047125e-01 -4.688638340787499303e-01 -1.488947760435878287e+00 4.764479120639839582e-01 -1.836930770061172835e-01 1.637643959282695238e+00 1.558305752373668196e-01 5.098047163675233362e-01 1.004849705860552112e+00
7.757933904428717664e-01 7.350537923450564115e-01 -2.299028044505031954e+00 -1.233938043325941258e+00 1.064021443112572518e+00 2.512775511372703718e+00 5.718331774320093430e-01 1.250488548069320083e-01 -1.358956166613066063e+00 -8.899791083006133863e-02
-9.859883152634854042e-01 5.116548028682079696e-01 5.200553232209301768e-01 6.467794302241485216e-01 -8.264382512262632430e-01 1.181131019268534921e+00 1.033030238720185900e-01 -7.340631211571836401e-01 6.051711058591057180e-01 -2.098055683602849442e+00
-1.712498847329185114e+00 -3.828651535116319726e-01 -8.048967972617182554e-01 1.950082990463613219e+00 -2.308835659464850920e+00 1.717225231973847077e-01 -3.042101665701495872e+00 -4.358782424926988530e-01 -2.595639838381760267e+00 -6.678393968056810515e-01
9.684726186530283609e-01 1.933841482453656058e+00 -1.730021964247120680e-01 1.088758900909114535e+00 6.631423692207986109e-01 -4.261787774027430142e-01 -5.068864269235672237e-01 -6.915062662107253066e-01 -2.383904962977603681e+00 1.749681321091376210e-02
4.807638861428804034e-01 -3.694234335634207778e-01 -2.091291782127210119e+00 1.150628196974045336e-01 3.229516231762578626e-01 1.563708575963915770e+00 8.518981075941610692e-01 -9.960035663762681346e-02 -2.860348551365821026e-03 5.518230605712695080e-01
-1.395135961879540920e+00 4.337434599021563336e-02 1.365762931857587903e+00 -1.708030783292988908e-01 7.935833312746824741e-02 1.691217931022165055e-01 1.025706796334463489e+00 -8.681806044316682236e-01 5.558565524802827618e-01 6.857737848531491043e-01
-3.275601855264559936e-01 2.475850067080720418e-01 -1.161557329522023618e+00 -1.611793711119730022e+00 -3.383256283280123844e-01 -2.836178268733461127e+00 -9.880578253411760603e-02 -1.370712150829186182e+00 -1.285220653410546615e-02 1.396301285605461961e+00
2.540503437989166668e-01 7.455850994027816148e-01 -3.505547875111224010e-01 -1.090728964668648437e+00 7.727650240934013093e-01 3.313158727565365669e-01 -2.557040252566600835e-01 -2.117488070303585532e-02 -6.325922517142967827e-01 -6.044776489953275836e-03
3.833732790989224926e-02 -9.328438424631593784e-02 1.804371141821825342e+00 -7.533938161933020350e-01 7.606979220686007626e-01 7.765868982502013296e-01 -1.273278806808437302e+00 -5.430780542540251110e-01 -2.408842651027502668e-01 6.197434976399959217e-01
6.665225474548616136e-01 1.475599333246081502e-01 -1.656015634506697795e-02 1.380763428231113421e+00 1.550042018460164595e-01 3.410067192511037626e-01 -4.271978017790656890e-01 -2.815202121364542842e-01 5.555626740043723144e-01 -2.092348914434125184e+00
6.725613716544884824e-01 1.769760736167630855e+00 1.057752655498155336e+00 1.211637189182977581e+00 -3.674337385480276330e-01 3.405625217030807533e-02 3.111872235998056069e-01 3.270406516408807390e-02 2.637631530698616000e+00 3.114405716364953558e-01
7.357221281247025013e-01 -1.516618951605762433e+00 1.319107712958056622e+00 1.240854658570487601e+00 1.809056476661965007e+00 2.037865667622626109e+00 1.400424998956054212e+00 -3.324044446441132283e-01 1.324637237089753894e+00 -1.657128380902125109e+00
4.345429163657766325e-01 -4.244566288473725080e-01 -7.818539315431164427e-01 -1.795701590970197437e+00 5.042381642074848097e-02 -8.116285818373482064e-01 7.637530958080589183e-02 6.608341730884546017e-01 -4.166494997991386784e-01 1.694200476425610224e+00
8.198362993596509662e-01 8.405829006489935473e-01 8.973755591427178269e-01 5.049848582462007629e-01 -1.807201020268823788e+00 -1.360030437225882016e+00 -8.351900588092743272e-01 8.513681398472885409e-01 9.050301654909130855e-01 5.082722285791584360e-01
8.303842379897784509e-01 -2.779466735751607298e-01 -2.201727289810679888e+00 2.689521753731292097e-01 3.412157324547162029e-01 5.551802257963245335e-01 3.864235216427718833e-01 6.594538492850617883e-01 -7.271032545045476025e-01 -1.402104485264346057e+00
1.421340970326596231e+00 -1.579249855657827994e-01 1.845350371000215262e+00 -5.357370245350917548e-01 -2.096809288901324564e+00 -1.583531118730568954e+00 1.286136450424044231e+00 -5.993495077606492139e-01 -1.496538942141217188e+00 8.886077822834226314e-01
1.079177628510312736e+00 -1.564933311334899324e+00 -1.127828575527505039e+00 6.200620116958588390e-01 -1.953792768126207946e+00 -1.323457373957310362e-02 4.797213393905540024e-01 1.434470822225014652e-02 -1.047009355435806199e+00 2.637412541073806405e-01
3.043406510187163794e-01 -1.788766664024591391e+00 1.130897673128911762e+00 1.382724174576932530e+00 2.402562235415044434e-01 -1.082244822089903469e+00 1.083360269289905586e+00 -8.674991337524691204e-01 -1.179086079229764439e-01 -2.751808579337437499e-01
-1.533023964142993023e+00 -1.168701940466776668e+00 -2.250006928190424471e+00 -7.594794792342298706e-01 -3.129705443809156495e-01 -1.430292435203568857e+00 -6.497240035059435037e-01 -1.104490793661208753e-01 -8.506538904783392807e-01 2.341042298862541227e+00
-1.212438676440541929e+00 2.783426366698201204e-01 -1.406418484649590850e+00 -3.260980439177060264e-01 3.532017160638054043e-01 1.704803671088401529e-01 -5.935064823063737616e-02 6.914452910579345080e-01 5.962804025431972521e-01 6.126648700215545640e-01
-8.617916915349632667e-01 7.840009310776473450e-01 -2.042834790841353554e-01 -2.225562686689055436e+00 1.159625444764118107e+00 -1.398319645402647193e+00 -1.933628417692051238e-01 8.916219910024894002e-01 2.069024993144016555e+00 -6.446985041973095631e-01
5.811926811056759012e-01 8.074914859289814562e-01 -8.009824705493003849e-01 2.423011982977246737e-01 -5.832229229017987793e-01 8.996028074838053890e-01 -2.775832005771139976e-01 -1.073398820019444866e+00 1.816082665482604330e+00 2.551821275986613791e-01
-5.775957830445470620e-01 -2.267355139500493166e+00 -1.196699837114395315e+00 -2.488573287253842414e-01 3.155552469107018587e-01 2.168656275512349740e+00 -3.066395342262924206e+00 1.899575340232285692e-01 1.406321609992049915e+00 -8.269821696541843625e-01
-5.905826301219495589e-01 1.737454857751638437e+00 9.664892519394959747e-01 1.395963480601670748e-01 -3.711764670567203606e-01 -1.485654497926802153e-01 -6.486552095698445708e-01 -7.445262417070717120e-01 1.169330114992106040e+00 3.681141804307679899e-01
-1.695869966856102584e+00 -3.486553691121991871e-01 3.590017558493825423e-01 -1.112853363019323139e+00 4.096232251932421797e-01 -1.459166764356496060e+00 3.075397978772796970e-01 2.337079977351885329e+00 -2.398408542346154859e-01 -1.818142300266368805e+00
1.951609567326903605e+00 8.437921969365589359e-01 -3.769025249143427292e-01 5.552282767258680529e-01 1.468675471695399137e+00 -3.985937630398167508e-01 -1.322989642443504477e-01 1.007543249973233079e+00 1.720790815118131034e+00 -5.538094507007785827e-01
5.907819134831063801e-01 -1.949171944734119588e+00 -5.249146206002972548e-01 -1.789554334479942221e-01 3.076542584587937390e-01 -1.278480610260172678e+00 -2.883543151953877337e-01 3.049333581207057886e+00 1.772504463719491330e+00 1.452740818732263017e+00
4.050512790345952019e-01 1.909755031957528937e+00 4.516322343769733072e-01 8.224734016831202199e-01 -9.338168073365311628e-01 2.087208138412343095e-01 3.496792900314401459e-02 -1.308156616523427740e+00 -8.891795424057010733e-01 -8.568896542111812398e-01
6.649145160713318958e-01 9.326654572617548711e-02 -7.567754109218292058e-01 -7.127949251534432262e-01 1.887000098839100026e-01 -5.250873093714446549e-01 9.006838725117545241e-01 -1.579043320667457673e+00 3.466438228788845666e-01 -8.362519945029274204e-01
1.194066492893320230e+00 -2.003207457007292636e+00 -2.318849117890475764e-01 3.916735672598329332e-01 -1.210501516778168973e+00 2.500852638783386817e-01 -1.914024570970939143e+00 4.832668548177588841e-01 -1.384475734574952988e+00 5.832170901506675831e-01
4.247553112101105643e-01 4.508759661100036342e-01 -1.182030568310581814e-01 8.949566991863728838e-01 -4.598703256023710384e-02 -6.092276094817942189e-01 4.924430180505866561e-01 8.811401770556371860e-01 -1.457019118477498321e+00 1.378939522727679057e+00
-1.778415139893606625e-02 -3.687245064633951075e-01 8.521525962434923773e-01 -1.175227472250477190e+00 -5.645365722273710807e-01 -2.653033902585717030e+00 1.520135469549799501e+00 8.273838600962155621e-01 -1.332373218297577266e-01 1.041387689558764956e-01
6.207216290039484496e-01 5.524206029036191623e-01 -1.610485567099690707e+00 1.086271158493180566e+00 3.006247978572538226e-01 2.907524927395345737e-01 -1.545287341335834341e+00 -5.151072343087240712e-01 -1.447669174739811548e-01 -2.760036045051504905e-01
2.329398187972835099e-02 -3.556191226929523302e-02 -3.151043629816244196e-01 -8.544543889913207568e-01 -9.444318333763913609e-01 -2.183695122434525349e+00 -7.480386458842051001e-01 -2.932738581215195151e-01 5.181810991105872954e-01 -8.861873391727844718e-01
1.334535005596245050e+00 2.054777971808864623e-01 -3.449077089059043311e-01 1.394341236509139437e+00 -9.516329315728496718e-01 3.815932303001107750e-01 -1.315267418523839993e+00 1.746863129105553913e-01 -4.329400484005379024e-01 -6.695009116701311491e-01
-1.148685869305473339e+00 9.921107126122190589e-01 1.101009928076230465e-01 -5.462426003937529417e-01 1.228847562162586504e+00 5.062210690361091947e-01 2.130447687165185844e+00 1.318298327101335154e-01 -3.395168055750627523e-01 5.900762363981609804e-01
-3.792929649519772850e-01 -8.341999775133076556e-01 3.549068813081003859e-01 2.017656259602134572e+00 1.330483983160012817e+00 1.721418968992100673e+00 -1.717883043952116440e-01 -1.687592579583798158e-01 4.831722432888969077e-01 -8.724578100142423853e-01
1.045300214015093765e+00 -8.956012624571014769e-01 6.211832867534220620e-02 -6.928670666273606393e-01 1.032514797259519224e+00 1.108128107297558618e+00 1.707482847624118005e-01 -1.254007218459162409e+00 -5.752401592988295453e-01 9.170791634959383209e-01
-7.276144041324889011e-01 4.682869653698878420e-01 -1.780515554138680512e-01 4.342471570923384649e-01 -1.871657587739443906e+00 -5.532343490329397762e-01 -2.547031298038374469e+00 1.424299726796346865e+00 1.133481864936259242e+00 9.260367325889075074e-01
-3.870329372678267821e-01 -5.635363488299857115e-01 2.832123327100411481e-01 1.300996783360065301e+00 -3.905152093359236520e-01 8.113417901436025259e-01 -8.160494964018506492e-01 -2.233841343702092364e-01 -1.228279196989563900e-02 -2.401921581267566219e-01
-2.110284325469658384e+00 -7.733655139510570153e-01 8.593748673238242874e-01 7.065857158293363804e-01 6.031052457336341099e-01 1.321759371103498282e+00 4.815305905636670381e-01 1.265844041177967561e-01 -8.625347449056094962e-02 -4.770501951213556024e-01
1.526300372661348577e-03 1.254079429207414220e-01 1.588356945476873949e-01 -2.388170538906207341e+00 6.565574463642204206e-01 1.518166155879825396e-01 -7.455583537421807128e-01 -1.154648265893071235e+00 -9.757061414377720121e-01 -1.126281705406988021e+00
2.939177115985985855e-01 6.099962425802560873e-01 8.342820049902702761e-01 1.852710346874339553e+00 -5.157768598773677660e-01 3.314437437890557780e-01 -3.519564038206793311e-01 4.441742634283706304e-01 9.550378577429530225e-01 6.626636570019962535e-01
6.469954171897859263e-01 -1.236505025831369092e-01 8.525326340537708880e-01 -6.777555325620210347e-02 -1.681907775689630347e+00 -1.573439921144469844e+00 8.886679058503136330e-01 -1.055059107872186319e-01 -4.469356610182373402e-01 4.427941990496009894e-01
-4.375124988500866952e-01 2.502107152252754929e+00 9.878089586192675409e-01 -8.691929154775281940e-01 1.272869602645464004e+00 2.582564511775699637e-02 7.693262846165969115e-01 -1.978591398223076281e+00 2.127239011769476384e+00 1.497340564531367546e+00
-1.217052047432157558e+00 -1.147292972474297068e+00 -1.605597590396047603e-01 -7.589154858762168221e-01 -2.780830815668336453e-01 -3.450612058288959338e-01 -1.891563968960155995e+00 -6.278204484852686340e-01 1.358719389124275256e+00 3.285280712757868149e-01
9.582255596717935697e-01 -9.251914577231320491e-01 1.411380867188960941e+00 1.416954796318612653e+00 4.707565433979086778e-01 9.765127727956555148e-01 -7.510680570925433175e-01 4.312630948921478691e-01 2.190329192892038979e+00 3.161725836262212486e-01
-9.417060846086078296e-01 -8.280712043663361888e-01 -2.834013269516192854e-02 -8.728082764022231377e-01 -5.463145271137644921e-01 -1.183767593128163265e-01 2.582238298768536611e-01 -4.054527799354336048e-01 -1.352922797494588991e+00 -1.926827202573367509e-02
-9.658744769322671342e-01 -8.216561626509149008e-01 6.236014460940605408e-01 4.066259590178679661e-01 -2.136049685136932386e+00 -6.650986784264517615e-01 7.542272443702142948e-02 1.454043914920076119e+00 1.020175340839280853e+00 -3.324680114302374645e-01
8.704974937704511584e-01 -1.622463981703376801e+00 -1.714536955872621338e+00 1.173097866078913976e+00 2.030338149671135017e+00 6.389285910958704406e-02 -3.996876658083114986e-01 -1.877170535799185469e+00 6.442437086062006157e-01 -1.413797076619204063e+00
