1.008178314456373625e+00 1.559713552421918524e-02 1.796539679366881082e+00 2.828157956712917809e-01 -1.324102726862295354e+00 4.200073132463448267e-01
1.685392952049081128e+00 -5.456578892425896221e-01 8.935832989644272306e-01 -1.469108573583450372e+00 5.204102958396596146e-02 -1.570901034586375644e+00
8.122118498892859639e-01 2.165918536538723183e-01 -1.449752649365821655e-01 -6.677584095266017039e-01 5.200946124222484146e-01 7.893561077418971283e-01
-5.503603203852194259e-01 -9.122911330158467447e-01 -2.211879430086753362e-01 4.677176229749275826e-01 -8.255232826579866900e-01 7.248511843555083267e-01
4.030538715721529441e-01 -8.599795145218684933e-01 2.085106575750521052e-01 3.487087405502019982e-02 -1.885856280384174410e-01 6.540710024288011182e-01
1.014415702772250905e+00 -1.598349449725233518e+00 -1.466234966470112040e-02 -3.352788292375066814e-01 -5.969681009755646306e-01 -1.576930068153239439e+00
-2.869992239243988053e-01 -1.623530125667370649e+00 -5.903013182614279541e-01 -2.353600381029633259e-01 -6.836127343571229975e-01 -4.553233646659691214e-01
-1.299937694999459215e+00 2.459853588456093032e+00 3.039087881530835866e-01 5.246087043490148538e-01 7.475328948383719307e-01 -1.837411546654035277e+00
4.074078925341313440e-01 -8.059464655456040072e-01 1.600413593928893485e+00 -6.588718345641423335e-01 1.049576178253185388e+00 -9.756458665939329866e-02
-9.191721366680756233e-01 2.740910422156599968e-01 1.307822431068802749e-01 1.794624187606664867e+00 -1.205623681289876431e-01 -1.062478014256495740e-01
-4.680169137875920815e-01 2.900055016339159741e-01 -1.444271041104850939e+00 4.718348567316236752e-01 -4.878435212123732323e-01 -2.474810125617119827e-01
-1.174256008002029783e-01 -7.131476909480086723e-01 1.165323556911698200e+00 -6.752627210870608687e-01 1.052727635443542642e+00 -1.098118505824172475e+00
-8.225013378153840371e-01 -1.220305100517364627e+00 1.493428017842982625e-01 7.568076038171824005e-02 -1.714674026400500928e+00 -1.069782134016276087e+00
2.675968223089841835e-01 -1.158429564911734599e-01 6.858999651746925386e-01 -1.967897002685971286e-01 3.494535727962966853e-01 -1.266850621621941064e+00
-8.008064349230576973e-01 -1.279340805467811037e+00 -9.412242232334199210e-01 2.374818658088498236e+00 -7.918354699090952575e-01 1.567762280875676595e+00
-9.399520848860101196e-01 2.630325236861166260e-01 8.940201733178476662e-02 7.587267846090330892e-01 3.021459518183526871e+00 2.007802419024998231e-01
7.281936831075140615e-02 -2.109070892728889479e+00 4.082891277242853834e-01 4.489916622466192386e-01 -1.458946258012824737e+00 -4.912485750097009274e-01
-1.150200937536994816e+00 -3.715301059827855745e-01 2.794728723835546158e-01 -7.280275549965371518e-01 -1.315700596080541795e-01 1.040744305793987801e+00
5.971888278244122938e-01 -2.751859616623144600e-01 -7.375571786689324449e-01 1.328959059914603946e+00 -7.129370802264086704e-01 -1.510111414760585191e+00
-1.296497633087921320e-01 -1.139925921418601246e-01 -3.689908055721524693e-01 -5.336314637957774165e-01 5.926005072483182534e-01 -1.834881752489765150e+00
-4.547552429065884749e-01 5.720599723383187896e-02 -4.098986255019045344e-01 8.273441533149613614e-01 -7.823928938778399456e-01 8.032984221727771379e-01
2.694613458172523957e-01 8.176269115263822274e-01 2.677924924235817183e-01 5.766977731637573656e-01 3.155887881275306617e-01 2.281448435714063194e+00
2.161401665331032229e-01 8.919716808707389699e-02 -1.881122583905156409e+00 -1.359682509610894652e+00 -1.665350337112519119e+00 8.562444948091850749e-01
2.059959117511317661e+00 1.837626528790225811e+00 -1.253960213423765513e+00 6.677028791757833037e-01 -5.276618736195777259e-01 1.557142454159176348e-01
5.398802241970288573e-01 -1.439913152159365328e+00 -9.606723633257052697e-01 7.797598969198132890e-01 3.230132714417323636e-01 -1.001811671597320624e-01
9.521384812986205537e-02 6.403703705141640112e-01 -3.149868898541597906e-01 -1.479930875177085881e+00 2.940523488227180238e-01 -4.336973526679127056e-01
1.519562465958488540e+00 -7.650820627494012705e-01 -4.538540133186412251e-01 5.858706740884025432e-01 -3.633352195192519618e-01 -3.715404911334508342e-01
-1.218600053930925520e-01 9.773078199681721756e-01 3.340238409324893354e+00 -1.762247881770422631e-01 -1.957484632702667371e+00 -3.656095790543900104e-01
-1.168690549427704894e+00 9.955093474886598237e-01 -1.047018415185525075e+00 6.367389984655503765e-01 1.060761807211731966e+00 1.215771595603826333e-01
1.995329406992618626e+00 -1.628896453852283432e+00 -7.843813135858521690e-01 5.932727846515162273e-01 9.518289877605159433e-01 1.429438875372282536e-01
-8.998744989905290703e-01 5.785660181998467655e-01 5.138037943152305997e-01 -1.864539167942018016e+00 -5.146430129676260457e-01 1.029188550212732034e+00
-5.105377927112391134e-01 7.375087854388559516e-02 -1.326616401202989515e+00 1.042626256045936728e+00 -2.492662632353765118e-01 4.643436737808769310e-01
1.916736044869321587e-01 -1.338496684812241710e+00 7.666828840399366740e-01 -2.099493495098671558e-01 8.437129549562639719e-01 8.681560860339454511e-02
-6.536844442175200609e-02 6.636197545806321596e-01 -1.963376835082754512e+00 -3.049287163668846223e-01 -1.699762301532458775e+00 1.422888347620714811e+00
3.538993729582022851e-01 7.964791966767245102e-01 -1.229010708701782639e-01 1.357680054261938718e+00 -1.812449655277677818e-01 1.855880056254553823e-01
-3.436977136901064322e-01 -2.500407452976848854e-01 -7.262507883568065647e-01 -7.568260585008357300e-01 4.779047046768516993e-01 -8.625458802461746788e-02
2.862803129795692403e-01 -5.354584986219671494e-01 4.428941441334960927e-01 -5.599632467692938764e-01 -1.436638669876713070e-01 -1.292670593126007628e+00
-7.310142844900773262e-01 -6.540468469992749556e-02 -4.848383402867957603e-02 -1.633333231252317219e+00 1.375298179329411952e-01 1.029399443221391541e+00
-6.194828253432126397e-01 7.638692952935558500e-01 -2.947633573723188238e+00 -1.551705936355717574e-01 -1.374880835658296885e+00 -1.433272407356479761e+00
-1.080862010069123968e+00 -1.027708426508382900e+00 -3.445000134790097701e-01 2.331809637175885075e-01 -1.810880019087992343e+00 9.141744441222814377e-01
2.690274692260883338e-01 -4.489839397195209414e-01 9.176226231337234474e-01 5.709568311684248831e-01 -4.858707334859748705e-01 -6.846117996686001961e-02
1.456191689925642740e-01 1.065897278665455916e+00 -2.219258261325476878e-01 1.310544281229085450e-01 -1.424734410240612537e+00 2.717449695369085205e-01
1.695857052798379894e-01 -1.101968195956460672e+00 8.347548756200825482e-01 8.314074132558842145e-02 8.897314057131103238e-02 -2.725909291278448277e-01
-6.176248736535231570e-02 6.324701327442113774e-01 -1.017092387272420240e+00 2.218277302785651273e+00 3.140983097764989962e-01 3.919852376791833071e-01
-9.633708356446418763e-01 -5.531523995089793200e-01 -6.552572768880242648e-01 9.062096365426896005e-01 1.023394582401793151e+00 1.089028000575703148e+00
1.347624788285218367e+00 5.435039885127012083e-01 4.372002211042947395e-01 2.547386983654731027e-02 -9.378689492510352554e-01 5.405424206977348794e-02
-7.533850139911297816e-01 -7.447013939070552535e-01 8.856960709476140448e-01 -1.040614571768332164e+00 -6.783276769383564941e-01 4.538935209888627087e-01
-1.058811950753042741e-01 -2.801308249165622932e+00 1.845471897382775506e+00 1.305671469980876909e+00 2.285444073217354877e+00 8.313103761317218732e-01
-1.353339049242802350e+00 -3.572809773297446617e-02 5.821680367505457365e-01 -9.672434659895970052e-03 5.629554037916286724e-01 2.702868602761255845e-01
-1.281428973434811214e+00 -1.151722890991048881e-01 -5.275710612928957710e-01 -2.289382590705422993e-02 2.438670802505258361e-01 -4.180229777661224519e-04
-7.935944501879494961e-01 -1.315631497509571313e+00 1.568720088214951291e-01 1.154945474607710354e+00 -1.183450030121450336e+00 -8.015369781911544367e-01
-1.347615036828525126e+00 4.888560448809007308e-01 1.213974504875612759e+00 2.935200989732210441e+00 1.135885861181696432e+00 -1.457720297408101051e-01
