1.478213124954979474e+00 9.218597015090472802e-01 -6.735331690013227623e-01 3.681458393608237345e-01 3.062593186381180194e-02 -1.259116347335500929e+00 -8.400548230047251153e-01
9.290422043442821964e-01 6.713035199423567079e-01 6.811525883837825646e-01 -9.513088054069117616e-01 -1.094099348315155318e+00 7.910169739511838660e-01 -6.246223251100704310e-01
-3.062920121321636713e-01 6.970942753998822239e-01 -4.731777629448947753e-01 7.097601505111039710e-01 -2.997606892832676562e-01 -4.976077286317548420e-02 2.159660569570965027e-01
-9.161499336336988986e-01 -1.535771402627655879e+00 -4.928687311955610162e-01 1.004785355105777267e+00 -1.632661393815378226e+00 6.452666483713181966e-01 5.361429127190660004e-01
-1.248835613515564935e+00 7.760311636977225147e-01 3.612973304015304477e-01 6.506733666199205901e-01 -8.024994232648117176e-01 1.168907729410348928e+00 -4.904492981128343865e-01
1.376814967066088691e-01 -6.726051318596060202e-01 1.416705901252743038e-01 -1.709034818518408549e+00 3.350894819025058702e-01 -1.534236658258350650e+00 -1.340816864061144864e+00
3.102785908333368092e-01 -3.018002045080298706e-02 7.465528130860672462e-01 5.134201501717533533e-01 -1.123109924503907342e+00 7.794766151213041727e-01 -3.440914985519052949e-01
3.103327723376996805e-01 8.017820944367766156e-01 4.107167973832404062e-01 -6.358718838439453291e-01 1.244753542463918616e-01 -3.638188640114172756e-01 8.568376102474272171e-01
-1.687876174196973666e+00 -3.513922431365968935e-01 -1.760842132249771930e-01 1.264411014667242483e+00 9.358181311234449185e-01 -1.545181060349408719e+00 -1.148593325941882570e+00
2.175957341942944545e+00 -2.269343164568846938e-01 1.916784711012827214e-01 -2.658340875608364851e-01 1.057456410861339124e+00 1.846392208838590820e-03 6.351044797533240693e-01
2.850486878076270880e+00 4.692578053464635524e-01 3.476587314739118528e-01 1.484342558212641272e+00 5.805726024881564529e-01 4.687478176412356312e-01 1.895757463635822093e-01
1.818843759629602985e+00 -8.988862020546890541e-01 -5.685505505163500617e-01 4.373546821656485450e-01 -5.335119693930827633e-01 9.284518475691522221e-01 -1.452016830161857230e+00
-5.577650499390293115e-01 -2.935856432287483608e-01 6.903769006507128880e-01 5.418889240173010435e-01 -4.273674019632439092e-01 -1.677560370933499190e+00 1.188097876334252900e+00
1.543876010901540807e+00 -1.135893881003765760e+00 1.514005258163783063e+00 -1.441573894698664926e+00 -9.221457295193287093e-03 2.372609149864069455e-01 -1.347402287527192044e+00
3.032643157353495655e-02 -1.046463951757515609e+00 8.816772661345165796e-01 -8.490658384515479273e-01 4.979196675896123137e-01 -1.107243722833131550e+00 -2.615783422239313927e-01
1.345238807171901030e+00 1.168632984522843588e+00 1.268572389535086220e+00 -1.712958331562131065e+00 1.508832219886201698e-01 -2.387075202518836869e-01 9.079222758276064287e-01
-5.102397986546668429e-01 3.337453247927479327e-01 -3.998100096481958521e-01 -8.153604139213443958e-01 1.589071159717103110e-01 9.922972437621650765e-02 -9.009057280485102126e-01
-3.630257809812839076e-01 4.262806191726959404e-01 -5.964679136811868593e-02 6.012439433010351442e-01 8.784550530959854553e-02 1.452794161982298715e-01 9.268637958748012773e-01
3.330663943820310613e-01 7.135212654667324461e-01 1.831631082457944704e+00 -1.242001656673789700e+00 4.962403910121320205e-01 4.566411933646237764e-01 -6.730034013294262651e-01
-9.096190363836649528e-02 3.096132860215161653e-02 -1.508411943647181452e+00 -3.019333040313795791e-01 -1.853427397910593522e+00 -3.928530859481445259e-02 7.940758703052427370e-01
1.130528884844041571e+00 -2.825873367889910615e-01 1.871154453083430313e+00 -1.842755253847965013e+00 -9.053589580331257783e-03 2.155406343607229880e-01 1.327320169413384321e-01
4.046121879853285808e-02 3.077997156250753541e-01 -7.268728686157849284e-01 -1.538892625010675586e+00 -5.873099505247842966e-01 5.874563425567193020e-01 1.134598845090822428e+00
-1.412715028207013335e+00 -4.724245174499865363e-01 -1.773089384946666014e+00 -1.159385667926069230e+00 1.205858404209358081e+00 6.522377787810382799e-01 2.336849992720604063e-01
-4.547773359501790513e-01 2.558718195188233846e+00 -2.548066313269795602e-01 3.288814239803182771e-01 -1.307560922728159936e+00 1.122804419207645399e+00 8.802491738666911036e-01
-3.787241728208266545e-01 6.589561573387928695e-01 1.675366552883395532e-01 4.402473740677799174e-01 1.089968896947235644e+00 -6.080470650257808751e-01 -5.057504140400942427e-01
1.599076443866476183e+00 -3.859726391512066090e-01 -8.227737652795630297e-01 -5.982365181188741693e-02 1.471098848362396350e+00 4.092007648820540633e-02 5.001280864666350912e-01
-3.057676843089112695e-01 -5.363057007692633577e-02 -2.613104381689863032e-01 1.546254501230915457e+00 -1.666718781568144597e-03 -1.731142592592390006e+00 4.817162456989722286e-02
1.503614521206154020e+00 6.152095357590023905e-01 -2.500029780619973940e-01 8.236501129165504365e-01 -1.517555765684265590e-01 1.121517372732077744e+00 1.278631630853090062e+00
-1.201233858756511230e+00 1.487492360782695311e+00 2.848622299501080146e-01 -9.290923329288408583e-01 -8.522738852327849113e-01 -5.923282258409903189e-01 -1.354266897964790495e+00
8.126410287969897395e-01 -1.091313424822798028e+00 3.994266924499141336e-01 -4.062715219209311890e-01 5.654807265873638134e-01 8.370803931791978014e-01 -4.764487304204121920e-01
1.099595566114076384e+00 1.428889040300282298e+00 4.225367917526283712e-01 -8.852603810320559818e-02 -9.373466522863522776e-01 4.050233102307478350e-01 -1.404708493841701822e+00
1.621028447542572637e-01 -2.234292164578219886e-01 1.193873473461851964e-01 -1.217449530154716686e-01 7.370855706005915442e-01 -1.191749899356226550e+00 -9.040625610564909653e-01
3.710638209124719755e-01 1.454755406624255620e+00 1.925213968461397362e+00 3.151893917961103297e-01 8.516764151622919776e-01 -6.393700672901616588e-01 -1.093400742846400153e-01
1.424099182725128143e+00 8.493620448918969279e-01 9.349588806216180270e-01 1.952941425160418798e-01 -1.579726750409107816e-01 -7.963943454253195053e-01 -1.012248505967501822e-01
5.487396974682484663e-01 -1.622713322847828099e+00 1.720174580309060230e+00 -2.103825902700890538e+00 -2.687019690190163290e-01 6.678042175962856097e-01 -9.495160823500669034e-01
6.882704672928046108e-01 1.349240160980980097e-01 1.373002571549074124e+00 -7.232224526447704749e-01 1.634106038515835913e+00 -2.511851490446570523e-01 -9.407299947791994965e-01
-1.304084999098042985e+00 -9.079030693819699627e-01 -3.543033609062960498e-01 -4.095865465376114511e-01 2.424950594501702472e-01 3.670055063109215476e-01 2.695280488821311105e-01
1.952742879138317678e+00 -1.520362966040991859e+00 -2.654845058805869851e+00 -4.777187285108875359e-01 -2.912945406602261977e-01 8.234710078743057160e-01 8.170925033676409432e-01
3.744085844249349093e-01 3.605091557599269803e-01 -7.199076406717814791e-01 9.178766483703117984e-01 -8.243022165996515271e-01 6.500498623036754520e-01 5.895360343619026472e-02
-1.007968415092933112e+00 -5.080003872768374951e-01 2.981725769461620046e-01 3.800000576618465797e-01 -1.132619452289347795e+00 -1.323714401856652900e+00 6.344728891438911056e-01
-8.270779517101051193e-01 8.625918032370315514e-01 -1.638618714408292265e-01 1.843189544358046161e+00 2.516205347753240895e-01 8.547981460494433747e-01 2.975073154099817097e-01
-3.506244612941232797e-01 1.245102483827005835e-01 -6.005517818697231336e-02 1.325583414280577355e+00 -4.302382664500631337e-01 4.003660812298017735e-01 -8.517897197470797321e-02
5.210967446824470439e-01 -8.788268975805929584e-01 5.039140502479785289e-01 1.444177445764304624e+00 8.994597627837505605e-02 3.149457746641814104e+00 -4.181149715984864290e-01
-2.031935911097368486e+00 -9.027617650212744760e-01 1.982017787870883341e+00 5.554357229950290797e-01 -1.228416555034443913e+00 -1.897684455096832479e-01 -2.088119493246873404e+00
-3.545152623594690078e-01 -5.484271975112228192e-01 -5.022538056880760937e-01 1.546612892713861431e-01 -1.697366410565215977e+00 -9.882065758339039774e-02 -1.660004766380733576e+00
7.638375077446062367e-01 -8.101089169954100999e-02 1.192443166391194298e+00 -7.501250390390422629e-01 -1.596736276373482477e+00 1.495714360352879524e+00 -1.671073223909273153e+00
-9.280370233439709793e-01 -9.804786853734435148e-01 4.673962069950969855e-01 4.294023151027396290e-01 1.414978699424452313e-01 3.787680331351973573e-01 -8.850183107891291812e-01
1.800686469090660102e+00 5.964960411893938108e-01 -1.298692083664880981e+00 8.466164708024529473e-01 -1.824863352661749927e+00 -1.357762108931022560e+00 -4.731097536543329984e-01
-4.583448118899380308e-01 1.536671134630580859e-01 -6.404239763586638823e-01 -3.579472183489229575e-01 -1.099662505733103979e+00 -6.750048650169150344e-01 6.626806977711185986e-01
-4.950029126232544652e-01 -2.710130008855779593e+00 -6.073982984408651808e-02 -1.022651924576832627e+00 -6.235556960891210920e-01 -1.183667360384117906e+00 4.605451839449129503e-01
-7.894919783983885830e-01 1.615393335283107135e+00 9.499602043908748072e-01 -1.953076456400414385e+00 1.330168894982342476e+00 3.740355027705153379e-01 -1.377312176538581623e+00
4.473287329835119730e-02 -4.916830329829041113e-01 -7.722406170643210110e-01 -4.712356964888256977e-02 -1.029980879359486123e-01 -1.306713410038838452e+00 -1.297170024485916340e+00
