0.000000000000000000e+00 9.741214850219832897e+02 -9.741214850219832897e+02 7.774450875772271274e+02 -7.774450875772271274e+02 7.580240783651549918e+02 -7.580240783651549918e+02 6.004856392763859958e+02 -6.004856392763859958e+02 7.804521556934986393e+02 -7.804521556934986393e+02 1.013444870569946147e+03 -1.013444870569946147e+03 6.128691343459589689e+02 -6.128691343459589689e+02 1.101104124440851820e+03 -1.101104124440851820e+03 6.644213818866637666e+02 -6.644213818866637666e+02 1.077617893349941824e+03 -1.077617893349941824e+03 7.537563285369078585e+02 -7.537563285369078585e+02 7.498139617159311001e+02 -7.498139617159311001e+02
0.000000000000000000e+00 8.319354739545972279e+02 -8.319354739545972279e+02 9.128488006036241131e+02 -9.128488006036241131e+02 8.238477245135535441e+02 -8.238477245135535441e+02 1.014073673513458630e+03 -1.014073673513458630e+03 9.410018685834849066e+02 -9.410018685834849066e+02 7.974512919623680318e+02 -7.974512919623680318e+02 1.039045440164236425e+03 -1.039045440164236425e+03 7.701933629396668266e+02 -7.701933629396668266e+02 8.492468943986621071e+02 -8.492468943986621071e+02 7.273356835247196841e+02 -7.273356835247196841e+02 6.566948479853801928e+02 -6.566948479853801928e+02 1.166957226052763644e+03 -1.166957226052763644e+03
0.000000000000000000e+00 7.668236248266130133e+02 -7.668236248266130133e+02 1.072966351111347421e+03 -1.072966351111347421e+03 1.105491936018178194e+03 -1.105491936018178194e+03 6.852148757955277460e+02 -6.852148757955277460e+02 1.200479131585394271e+03 -1.200479131585394271e+03 9.061673283458235346e+02 -9.061673283458235346e+02 9.506626377363473921e+02 -9.506626377363473921e+02 7.867990808483095861e+02 -7.867990808483095861e+02 8.938638057537713166e+02 -8.938638057537713166e+02 7.965708699090276923e+02 -7.965708699090276923e+02 8.538019557566905178e+02 -8.538019557566905178e+02 8.693091101759596313e+02 -8.693091101759596313e+02
-2.926374378142575553e-04 1.028420094509804812e+03 -1.028420094509804812e+03 1.186149695519823126e+03 -1.186149695519823126e+03 1.102101359384599391e+03 -1.102101359384599391e+03 1.157138680375675676e+03 -1.157138680375675676e+03 1.215482408657499946e+03 -1.215482408657499946e+03 1.018225292762052391e+03 -1.018225292762052391e+03 8.470324361080183735e+02 -8.470324361080183735e+02 1.004212118833635600e+03 -1.004212118833635600e+03 9.110716015585630885e+02 -9.110716015585630885e+02 6.299044647638810375e+02 -6.299044647638810375e+02 1.056924076733175525e+03 -1.056924076733175525e+03 1.111573864240945113e+03 -1.111573864240945113e+03
0.000000000000000000e+00 7.766004093709265135e+02 -7.766004093709265135e+02 6.559602012629333103e+02 -6.559602012629333103e+02 9.991870490400231120e+02 -9.991870490400231120e+02 6.706272322669580035e+02 -6.706272322669580035e+02 9.572476106801237847e+02 -9.572476106801237847e+02 7.509674990469184195e+02 -7.509674990469184195e+02 9.757300807741137305e+02 -9.757300807741137305e+02 8.097452723756111936e+02 -8.097452723756111936e+02 8.631825231657794575e+02 -8.631825231657794575e+02 9.589870364511194794e+02 -9.589870364511194794e+02 1.014698032096066527e+03 -1.014698032096066527e+03 7.971115584081435372e+02 -7.971115584081435372e+02
2.019755441263658673e-03 9.222253338125600521e+02 -9.222253338125600521e+02 6.561816981409809841e+02 -6.561816981409809841e+02 7.155353039788572005e+02 -7.155353039788572005e+02 8.823595673947260138e+02 -8.823595673947260138e+02 7.399846653315557887e+02 -7.399846653315557887e+02 8.660334361970612918e+02 -8.660334361970612918e+02 6.847836702620604683e+02 -6.847836702620604683e+02 8.716701902078735884e+02 -8.716701902078735884e+02 7.929481471623846573e+02 -7.929481471623846573e+02 1.033101260788105947e+03 -1.033101260788105947e+03 1.052556775592473286e+03 -1.052556775592473286e+03 1.124400957698074080e+03 -1.124400957698074080e+03
2.378814911817301279e-03 1.191429376521428821e+03 -1.191429376521428821e+03 6.473334427457864422e+02 -6.473334427457864422e+02 1.157917248691951954e+03 -1.157917248691951954e+03 6.835498081384675970e+02 -6.835498081384675970e+02 7.390631843335410167e+02 -7.390631843335410167e+02 7.230345091987311434e+02 -7.230345091987311434e+02 1.162908058976661550e+03 -1.162908058976661550e+03 9.598680270555997822e+02 -9.598680270555997822e+02 1.119911693022137342e+03 -1.119911693022137342e+03 1.084893171313540506e+03 -1.084893171313540506e+03 1.004880038223134761e+03 -1.004880038223134761e+03 1.056115845547120216e+03 -1.056115845547120216e+03
6.059266323790893187e-03 1.012786265555194518e+03 -1.012786265555194518e+03 1.012258232152560254e+03 -1.012258232152560254e+03 7.181688999827359794e+02 -7.181688999827359794e+02 8.417425636298244171e+02 -8.417425636298244171e+02 7.052764211748958587e+02 -7.052764211748958587e+02 9.132622010356933515e+02 -9.132622010356933515e+02 1.091363957451418628e+03 -1.091363957451418628e+03 7.113143480670223653e+02 -7.113143480670223653e+02 6.068669683650724664e+02 -6.068669683650724664e+02 1.007917485635308708e+03 -1.007917485635308708e+03 9.017787066497783144e+02 -9.017787066497783144e+02 6.251075713336505260e+02 -6.251075713336505260e+02
7.586199162762323651e-03 8.621159315224939519e+02 -8.621159315224939519e+02 1.122267851938600188e+03 -1.122267851938600188e+03 6.248346393439843496e+02 -6.248346393439843496e+02 1.100516937574199346e+03 -1.100516937574199346e+03 1.163048854030188522e+03 -1.163048854030188522e+03 1.049013417295004501e+03 -1.049013417295004501e+03 1.070464404337609039e+03 -1.070464404337609039e+03 6.026431883802799803e+02 -6.026431883802799803e+02 1.081882549389062660e+03 -1.081882549389062660e+03 1.104779967004715900e+03 -1.104779967004715900e+03 1.040540270968517916e+03 -1.040540270968517916e+03 8.079899314281014995e+02 -8.079899314281014995e+02
2.019755441263658673e-03 8.849600672078804564e+02 -8.849600672078804564e+02 1.047799969180588050e+03 -1.047799969180588050e+03 1.112687938203271415e+03 -1.112687938203271415e+03 1.024234583370559221e+03 -1.024234583370559221e+03 1.157097817265920639e+03 -1.157097817265920639e+03 1.114729983073520771e+03 -1.114729983073520771e+03 7.383416846769192716e+02 -7.383416846769192716e+02 1.163662245791396117e+03 -1.163662245791396117e+03 1.065011015056025826e+03 -1.065011015056025826e+03 9.426325675940483961e+02 -9.426325675940483961e+02 1.027847774225821922e+03 -1.027847774225821922e+03 9.100101565065134537e+02 -9.100101565065134537e+02
0.000000000000000000e+00 1.005466163841503999e+03 -1.005466163841503999e+03 1.061530235438419822e+03 -1.061530235438419822e+03 9.568429516556376484e+02 -9.568429516556376484e+02 1.071312119821547185e+03 -1.071312119821547185e+03 7.495104408081784868e+02 -7.495104408081784868e+02 7.428931300799999917e+02 -7.428931300799999917e+02 7.883567954975037537e+02 -7.883567954975037537e+02 8.555165012237382598e+02 -8.555165012237382598e+02 1.155004298429376377e+03 -1.155004298429376377e+03 1.013730827340163842e+03 -1.013730827340163842e+03 8.456739437602901717e+02 -8.456739437602901717e+02 1.142592416262385768e+03 -1.142592416262385768e+03
4.595998346419544536e-03 1.006819169758795510e+03 -1.006819169758795510e+03 9.251116238735513662e+02 -9.251116238735513662e+02 9.440330869726815308e+02 -9.440330869726815308e+02 6.895797642505516478e+02 -6.895797642505516478e+02 9.820616138285770376e+02 -9.820616138285770376e+02 7.644642857443157027e+02 -7.644642857443157027e+02 7.582578152793280424e+02 -7.582578152793280424e+02 6.466508444565625950e+02 -6.466508444565625950e+02 1.027682198463098302e+03 -1.027682198463098302e+03 7.433554466687086233e+02 -7.433554466687086233e+02 6.705074870750912623e+02 -6.705074870750912623e+02 6.455416659983371801e+02 -6.455416659983371801e+02
1.678449887919237745e-03 7.162400946366556127e+02 -7.162400946366556127e+02 9.615819369496858826e+02 -9.615819369496858826e+02 8.969788647724400334e+02 -8.969788647724400334e+02 8.309422676794773679e+02 -8.309422676794773679e+02 6.738661637456527842e+02 -6.738661637456527842e+02 1.057780034090830895e+03 -1.057780034090830895e+03 1.110186787554355988e+03 -1.110186787554355988e+03 7.526479952288173081e+02 -7.526479952288173081e+02 8.120540259865701955e+02 -8.120540259865701955e+02 1.132200456744496478e+03 -1.132200456744496478e+03 6.916925197369197349e+02 -6.916925197369197349e+02 6.489673043077565353e+02 -6.489673043077565353e+02
6.519895621244411327e-04 1.053031799787682985e+03 -1.053031799787682985e+03 1.100853007644062473e+03 -1.100853007644062473e+03 7.941922936977234713e+02 -7.941922936977234713e+02 9.525055114276757422e+02 -9.525055114276757422e+02 7.923725042890862369e+02 -7.923725042890862369e+02 1.104987342999603243e+03 -1.104987342999603243e+03 6.768744471794473156e+02 -6.768744471794473156e+02 1.099158939723675303e+03 -1.099158939723675303e+03 1.172243718836653215e+03 -1.172243718836653215e+03 6.266104261849031900e+02 -6.266104261849031900e+02 9.837420132165538007e+02 -9.837420132165538007e+02 9.939121554688232436e+02 -9.939121554688232436e+02
0.000000000000000000e+00 1.174863230226505493e+03 -1.174863230226505493e+03 6.779934874653575889e+02 -6.779934874653575889e+02 6.668599803742090444e+02 -6.668599803742090444e+02 9.327790141758064237e+02 -9.327790141758064237e+02 7.618215770382353185e+02 -7.618215770382353185e+02 7.957189265120043729e+02 -7.957189265120043729e+02 7.291616777907253208e+02 -7.291616777907253208e+02 1.023596427204891597e+03 -1.023596427204891597e+03 7.305965791981734583e+02 -7.305965791981734583e+02 8.859068858671092812e+02 -8.859068858671092812e+02 1.055575909432800927e+03 -1.055575909432800927e+03 8.925715185197798291e+02 -8.925715185197798291e+02
3.919772800151693354e-03 7.606448109851421577e+02 -7.606448109851421577e+02 7.507170452330988155e+02 -7.507170452330988155e+02 7.032284797392170503e+02 -7.032284797392170503e+02 8.916758375815741147e+02 -8.916758375815741147e+02 1.037753067809148206e+03 -1.037753067809148206e+03 9.535078915669452044e+02 -9.535078915669452044e+02 6.777950447261018780e+02 -6.777950447261018780e+02 1.172002280831906774e+03 -1.172002280831906774e+03 6.214584715253911327e+02 -6.214584715253911327e+02 1.033142174110985707e+03 -1.033142174110985707e+03 7.973401927146235266e+02 -7.973401927146235266e+02 1.183020488784436111e+03 -1.183020488784436111e+03
5.372653256528872384e-04 1.151476151755054161e+03 -1.151476151755054161e+03 7.094277689609107256e+02 -7.094277689609107256e+02 8.523467638000226998e+02 -8.523467638000226998e+02 8.292098744764332423e+02 -8.292098744764332423e+02 8.937980921271887382e+02 -8.937980921271887382e+02 1.009332834993598112e+03 -1.009332834993598112e+03 1.141229824467796107e+03 -1.141229824467796107e+03 8.435640222078748138e+02 -8.435640222078748138e+02 7.086903130189448348e+02 -7.086903130189448348e+02 9.941865419762610827e+02 -9.941865419762610827e+02 6.133987658085532075e+02 -6.133987658085532075e+02 1.109584348510691143e+03 -1.109584348510691143e+03
2.113298726329850864e-03 1.201756663902721812e+03 -1.201756663902721812e+03 7.901937647036154431e+02 -7.901937647036154431e+02 6.464976500495082519e+02 -6.464976500495082519e+02 6.702633500731514005e+02 -6.702633500731514005e+02 1.010931063855875550e+03 -1.010931063855875550e+03 1.067942908931326883e+03 -1.067942908931326883e+03 8.000622419115840103e+02 -8.000622419115840103e+02 9.982471166284700530e+02 -9.982471166284700530e+02 7.721970207114384266e+02 -7.721970207114384266e+02 1.162454375852028079e+03 -1.162454375852028079e+03 7.147002209740339822e+02 -7.147002209740339822e+02 6.500362930129778078e+02 -6.500362930129778078e+02
-8.021476659666900138e-04 1.060085586170527677e+03 -1.060085586170527677e+03 1.028732569525026292e+03 -1.028732569525026292e+03 8.904439558560462729e+02 -8.904439558560462729e+02 7.068701483474008000e+02 -7.068701483474008000e+02 6.549458550768711120e+02 -6.549458550768711120e+02 8.409317608807622264e+02 -8.409317608807622264e+02 1.003239330829065011e+03 -1.003239330829065011e+03 1.057685221314615092e+03 -1.057685221314615092e+03 9.166349664813072877e+02 -9.166349664813072877e+02 8.094393426051614142e+02 -8.094393426051614142e+02 6.371883386543279357e+02 -6.371883386543279357e+02 9.244645315637732210e+02 -9.244645315637732210e+02
2.687273948183666571e-04 1.049857155801073077e+03 -1.049857155801073077e+03 6.439872070017130454e+02 -6.439872070017130454e+02 8.065963819714108922e+02 -8.065963819714108922e+02 1.124791129112944418e+03 -1.124791129112944418e+03 1.159871923435155395e+03 -1.159871923435155395e+03 8.239447749348100842e+02 -8.239447749348100842e+02 7.866680504056845393e+02 -7.866680504056845393e+02 8.273320136681085160e+02 -8.273320136681085160e+02 1.042412040735655864e+03 -1.042412040735655864e+03 8.635048647569383320e+02 -8.635048647569383320e+02 1.023859113380526765e+03 -1.023859113380526765e+03 8.391363689634705452e+02 -8.391363689634705452e+02
-5.336180823276233040e-03 8.545794540116074813e+02 -8.545794540116074813e+02 6.478654260751180800e+02 -6.478654260751180800e+02 6.998188377008601719e+02 -6.998188377008601719e+02 8.984427423468900997e+02 -8.984427423468900997e+02 1.154149043991541021e+03 -1.154149043991541021e+03 9.909063786093644239e+02 -9.909063786093644239e+02 1.078293055473610139e+03 -1.078293055473610139e+03 9.533615176779485409e+02 -9.533615176779485409e+02 9.416561864870730005e+02 -9.416561864870730005e+02 6.466717398382252213e+02 -6.466717398382252213e+02 1.103951804578367728e+03 -1.103951804578367728e+03 6.255459005678125095e+02 -6.255459005678125095e+02
5.445032775859870097e-03 7.277970015707543325e+02 -7.277970015707543325e+02 1.013699596604768544e+03 -1.013699596604768544e+03 1.042934052933343992e+03 -1.042934052933343992e+03 7.447290500159095927e+02 -7.447290500159095927e+02 1.021725191332527743e+03 -1.021725191332527743e+03 8.828247254105822321e+02 -8.828247254105822321e+02 8.259456181588783465e+02 -8.259456181588783465e+02 1.173326633658706214e+03 -1.173326633658706214e+03 1.130742170145847467e+03 -1.130742170145847467e+03 7.785715398001434551e+02 -7.785715398001434551e+02 6.620310869925505131e+02 -6.620310869925505131e+02 1.097938551782074683e+03 -1.097938551782074683e+03
0.000000000000000000e+00 1.086981564152792089e+03 -1.086981564152792089e+03 1.037698491552382620e+03 -1.037698491552382620e+03 1.038231518485850756e+03 -1.038231518485850756e+03 1.084439537429912662e+03 -1.084439537429912662e+03 7.632704341978917455e+02 -7.632704341978917455e+02 7.121754138720472156e+02 -7.121754138720472156e+02 1.052620806604293421e+03 -1.052620806604293421e+03 6.528578658110080823e+02 -6.528578658110080823e+02 8.542408668747112870e+02 -8.542408668747112870e+02 1.002622510608603420e+03 -1.002622510608603420e+03 1.197556392502038079e+03 -1.197556392502038079e+03 6.468287716468435065e+02 -6.468287716468435065e+02
-6.780431584852569544e-04 7.719428898949520317e+02 -7.719428898949520317e+02 9.459159134131700739e+02 -9.459159134131700739e+02 9.298989406297790765e+02 -9.298989406297790765e+02 9.862731291437154368e+02 -9.862731291437154368e+02 1.128270413624901948e+03 -1.128270413624901948e+03 7.596372128042369241e+02 -7.596372128042369241e+02 1.075911265495339876e+03 -1.075911265495339876e+03 9.348690667183320784e+02 -9.348690667183320784e+02 1.132230732014297928e+03 -1.132230732014297928e+03 8.193593209425141595e+02 -8.193593209425141595e+02 9.106426275469817710e+02 -9.106426275469817710e+02 6.533060232603618260e+02 -6.533060232603618260e+02
5.583048825087279926e-03 1.043548857008833693e+03 -1.043548857008833693e+03 1.097649108143747526e+03 -1.097649108143747526e+03 9.007945219302509940e+02 -9.007945219302509940e+02 1.002892686551873453e+03 -1.002892686551873453e+03 1.000144202599508958e+03 -1.000144202599508958e+03 1.085723495004525148e+03 -1.085723495004525148e+03 7.413159765630412039e+02 -7.413159765630412039e+02 9.141455144666728074e+02 -9.141455144666728074e+02 9.676307827499117593e+02 -9.676307827499117593e+02 8.689308266771032550e+02 -8.689308266771032550e+02 1.060780210239350254e+03 -1.060780210239350254e+03 7.160725718434086957e+02 -7.160725718434086957e+02
0.000000000000000000e+00 1.132117662149185662e+03 -1.132117662149185662e+03 7.620840904709748429e+02 -7.620840904709748429e+02 7.046835615825160630e+02 -7.046835615825160630e+02 9.204228125972674661e+02 -9.204228125972674661e+02 1.010397907220201887e+03 -1.010397907220201887e+03 7.454169797755833997e+02 -7.454169797755833997e+02 8.773503132584651212e+02 -8.773503132584651212e+02 9.590246690741446400e+02 -9.590246690741446400e+02 8.165398466502859947e+02 -8.165398466502859947e+02 9.568861889668107779e+02 -9.568861889668107779e+02 7.042774310184897786e+02 -7.042774310184897786e+02 6.468787489197726472e+02 -6.468787489197726472e+02
3.724952085791701124e-03 9.241236188900403477e+02 -9.241236188900403477e+02 5.974639463128423813e+02 -5.974639463128423813e+02 1.174906514840636419e+03 -1.174906514840636419e+03 1.031174341520974622e+03 -1.031174341520974622e+03 9.695392187347623576e+02 -9.695392187347623576e+02 7.731739091752467630e+02 -7.731739091752467630e+02 7.972843845006378842e+02 -7.972843845006378842e+02 6.541366822678950257e+02 -6.541366822678950257e+02 1.143906002175875301e+03 -1.143906002175875301e+03 1.127972695797176812e+03 -1.127972695797176812e+03 8.996413376987594575e+02 -8.996413376987594575e+02 8.756770194644777803e+02 -8.756770194644777803e+02
0.000000000000000000e+00 6.366070783086184974e+02 -6.366070783086184974e+02 1.060311750619596069e+03 -1.060311750619596069e+03 7.351973081958694820e+02 -7.351973081958694820e+02 6.860570300099028600e+02 -6.860570300099028600e+02 1.137222758952599179e+03 -1.137222758952599179e+03 8.759580284404880786e+02 -8.759580284404880786e+02 8.658001482923849608e+02 -8.658001482923849608e+02 8.362062788087015406e+02 -8.362062788087015406e+02 5.908840814060512230e+02 -5.908840814060512230e+02 9.134375069323649541e+02 -9.134375069323649541e+02 1.199582900190710689e+03 -1.199582900190710689e+03 7.597324548163691134e+02 -7.597324548163691134e+02
3.533504334428258335e-03 1.127530697465310368e+03 -1.127530697465310368e+03 1.111014829547878207e+03 -1.111014829547878207e+03 6.254111278140688910e+02 -6.254111278140688910e+02 7.863007587197701014e+02 -7.863007587197701014e+02 1.146945987150171959e+03 -1.146945987150171959e+03 8.994924059456816394e+02 -8.994924059456816394e+02 7.879783003794323122e+02 -7.879783003794323122e+02 6.621646689720638506e+02 -6.621646689720638506e+02 8.044374848469253720e+02 -8.044374848469253720e+02 1.107790872931179820e+03 -1.107790872931179820e+03 7.316862100921703131e+02 -7.316862100921703131e+02 8.942620973900658328e+02 -8.942620973900658328e+02
-5.305385490457192356e-03 7.590990275590844476e+02 -7.590990275590844476e+02 7.511885944138248306e+02 -7.511885944138248306e+02 6.941311732221879538e+02 -6.941311732221879538e+02 9.876766613009688172e+02 -9.876766613009688172e+02 1.059880551761166316e+03 -1.059880551761166316e+03 1.018744188197284984e+03 -1.018744188197284984e+03 8.783561087595702475e+02 -8.783561087595702475e+02 7.388508979974546946e+02 -7.388508979974546946e+02 1.103984505569758994e+03 -1.103984505569758994e+03 1.168522359391134842e+03 -1.168522359391134842e+03 6.413353797182141989e+02 -6.413353797182141989e+02 9.446120798023775933e+02 -9.446120798023775933e+02
0.000000000000000000e+00 6.279754270576970612e+02 -6.279754270576970612e+02 6.629164814807716084e+02 -6.629164814807716084e+02 7.268433589251321791e+02 -7.268433589251321791e+02 1.152504307305111070e+03 -1.152504307305111070e+03 1.131155508567993365e+03 -1.131155508567993365e+03 7.747485695320601735e+02 -7.747485695320601735e+02 8.475539405965029118e+02 -8.475539405965029118e+02 1.066069408184673648e+03 -1.066069408184673648e+03 1.054552045067424160e+03 -1.054552045067424160e+03 8.630507925278202492e+02 -8.630507925278202492e+02 7.895044638710239724e+02 -7.895044638710239724e+02 5.976942576225108041e+02 -5.976942576225108041e+02
1.737095380471947699e-03 1.134120491104043595e+03 -1.134120491104043595e+03 1.146782236070688668e+03 -1.146782236070688668e+03 1.100503198568656444e+03 -1.100503198568656444e+03 7.999694048830687052e+02 -7.999694048830687052e+02 6.506828990515399482e+02 -6.506828990515399482e+02 1.125755012224216216e+03 -1.125755012224216216e+03 6.984522915428555052e+02 -6.984522915428555052e+02 9.408038291256489174e+02 -9.408038291256489174e+02 7.807410238775443077e+02 -7.807410238775443077e+02 1.052981892044790129e+03 -1.052981892044790129e+03 9.926947118410298572e+02 -9.926947118410298572e+02 9.541403210843506031e+02 -9.541403210843506031e+02
3.059927134570281180e-03 9.076465264075286541e+02 -9.076465264075286541e+02 1.103189524702454037e+03 -1.103189524702454037e+03 6.887469646516616422e+02 -6.887469646516616422e+02 8.058220644528460070e+02 -8.058220644528460070e+02 8.476859528759246132e+02 -8.476859528759246132e+02 5.858336664086406245e+02 -5.858336664086406245e+02 8.342729036785526660e+02 -8.342729036785526660e+02 9.619599477959695832e+02 -9.619599477959695832e+02 6.645234838728412115e+02 -6.645234838728412115e+02 9.046753447706702218e+02 -9.046753447706702218e+02 9.794871831479523507e+02 -9.794871831479523507e+02 1.076298370742428460e+03 -1.076298370742428460e+03
-8.831382313396595601e-06 6.858628865376746262e+02 -6.858628865376746262e+02 9.854434642374579880e+02 -9.854434642374579880e+02 9.296541026284369309e+02 -9.296541026284369309e+02 9.428408337071055030e+02 -9.428408337071055030e+02 1.074597288127203910e+03 -1.074597288127203910e+03 8.636245101297974998e+02 -8.636245101297974998e+02 1.053421100329262799e+03 -1.053421100329262799e+03 6.826598984648157966e+02 -6.826598984648157966e+02 1.063397553572434845e+03 -1.063397553572434845e+03 8.697802192211175907e+02 -8.697802192211175907e+02 1.123248230873402690e+03 -1.123248230873402690e+03 8.909042865418339261e+02 -8.909042865418339261e+02
0.000000000000000000e+00 9.883051745744675145e+02 -9.883051745744675145e+02 6.078024256257376692e+02 -6.078024256257376692e+02 1.139128495576475416e+03 -1.139128495576475416e+03 9.982174905530384876e+02 -9.982174905530384876e+02 6.973325975024869194e+02 -6.973325975024869194e+02 8.465070910963096367e+02 -8.465070910963096367e+02 8.362663704472377049e+02 -8.362663704472377049e+02 8.838440746364661891e+02 -8.838440746364661891e+02 1.005025663272508837e+03 -1.005025663272508837e+03 7.085772778709995237e+02 -7.085772778709995237e+02 1.073097765182618559e+03 -1.073097765182618559e+03 7.206643493222287589e+02 -7.206643493222287589e+02
0.000000000000000000e+00 1.177536871074912597e+03 -1.177536871074912597e+03 1.060807290396217240e+03 -1.060807290396217240e+03 8.590690332205509776e+02 -8.590690332205509776e+02 9.731003036593244815e+02 -9.731003036593244815e+02 9.329394858159146224e+02 -9.329394858159146224e+02 8.169831542696867928e+02 -8.169831542696867928e+02 1.137641756868591983e+03 -1.137641756868591983e+03 8.012308654969504005e+02 -8.012308654969504005e+02 8.802700730616488727e+02 -8.802700730616488727e+02 1.143507442791342100e+03 -1.143507442791342100e+03 8.425592139445219573e+02 -8.425592139445219573e+02 8.005853213934819905e+02 -8.005853213934819905e+02
5.584649000882149945e-03 7.251801600890123609e+02 -7.251801600890123609e+02 8.727186928338603593e+02 -8.727186928338603593e+02 7.981516011149727774e+02 -7.981516011149727774e+02 1.108231147829075553e+03 -1.108231147829075553e+03 6.839923368049431929e+02 -6.839923368049431929e+02 7.087121402635615368e+02 -7.087121402635615368e+02 8.786110748377802793e+02 -8.786110748377802793e+02 7.090881665146717978e+02 -7.090881665146717978e+02 8.908599864965769939e+02 -8.908599864965769939e+02 1.040429760138128586e+03 -1.040429760138128586e+03 8.460326762341604763e+02 -8.460326762341604763e+02 1.042891988232908034e+03 -1.042891988232908034e+03
0.000000000000000000e+00 1.056838042101364181e+03 -1.056838042101364181e+03 1.115817441950155853e+03 -1.115817441950155853e+03 8.155310866233240858e+02 -8.155310866233240858e+02 8.737801516833669666e+02 -8.737801516833669666e+02 8.998148391845185188e+02 -8.998148391845185188e+02 8.472730620591734123e+02 -8.472730620591734123e+02 8.376922996147408185e+02 -8.376922996147408185e+02 1.063857273897947607e+03 -1.063857273897947607e+03 7.533974756410862028e+02 -7.533974756410862028e+02 1.185336750900789639e+03 -1.185336750900789639e+03 1.210570692002325359e+03 -1.210570692002325359e+03 1.020741233391262767e+03 -1.020741233391262767e+03
-1.486764303370639168e-03 1.065865289560841120e+03 -1.065865289560841120e+03 1.174562887506639754e+03 -1.174562887506639754e+03 9.255499661183097260e+02 -9.255499661183097260e+02 7.757422426860099449e+02 -7.757422426860099449e+02 1.053744839119172866e+03 -1.053744839119172866e+03 1.081330305040814437e+03 -1.081330305040814437e+03 1.158020662793962174e+03 -1.158020662793962174e+03 7.364020145908044697e+02 -7.364020145908044697e+02 8.767221558478230463e+02 -8.767221558478230463e+02 8.262742169302217690e+02 -8.262742169302217690e+02 8.432932794251933046e+02 -8.432932794251933046e+02 1.076881302617779511e+03 -1.076881302617779511e+03
-1.108582048818289355e-03 6.390460612688675610e+02 -6.390460612688675610e+02 8.071008244746951732e+02 -8.071008244746951732e+02 1.153326949632853939e+03 -1.153326949632853939e+03 9.727410991685991348e+02 -9.727410991685991348e+02 7.490581834392462497e+02 -7.490581834392462497e+02 8.870962467095140482e+02 -8.870962467095140482e+02 1.171101323333471782e+03 -1.171101323333471782e+03 8.442086646036227648e+02 -8.442086646036227648e+02 6.521464333320946025e+02 -6.521464333320946025e+02 8.962482759696154062e+02 -8.962482759696154062e+02 1.059847238015247513e+03 -1.059847238015247513e+03 1.100799033048736646e+03 -1.100799033048736646e+03
1.056649363165014337e-03 7.418326582126287576e+02 -7.418326582126287576e+02 7.638932373235099931e+02 -7.638932373235099931e+02 8.114811251819072595e+02 -8.114811251819072595e+02 8.471578407210192836e+02 -8.471578407210192836e+02 1.201997784657998409e+03 -1.201997784657998409e+03 9.793033921176016747e+02 -9.793033921176016747e+02 9.468036652994271662e+02 -9.468036652994271662e+02 1.154532469143974367e+03 -1.154532469143974367e+03 7.294987554540516612e+02 -7.294987554540516612e+02 8.882466319650359310e+02 -8.882466319650359310e+02 7.450272130577146754e+02 -7.450272130577146754e+02 8.615440142788490903e+02 -8.615440142788490903e+02
-1.049147603909411468e-03 9.669249732194396074e+02 -9.669249732194396074e+02 6.009757785903619833e+02 -6.009757785903619833e+02 9.029547273185952463e+02 -9.029547273185952463e+02 8.019589544059897435e+02 -8.019589544059897435e+02 6.577252510581538445e+02 -6.577252510581538445e+02 1.020674957495391368e+03 -1.020674957495391368e+03 9.908295285422697134e+02 -9.908295285422697134e+02 1.148765788323605875e+03 -1.148765788323605875e+03 7.957686012743525907e+02 -7.957686012743525907e+02 9.453698245558141480e+02 -9.453698245558141480e+02 1.194099258625172752e+03 -1.194099258625172752e+03 7.386200792052902671e+02 -7.386200792052902671e+02
2.019755441263658673e-03 7.550915980952167956e+02 -7.550915980952167956e+02 9.875610066437765227e+02 -9.875610066437765227e+02 1.096223459901079877e+03 -1.096223459901079877e+03 8.280915428195883123e+02 -8.280915428195883123e+02 6.911310863317058875e+02 -6.911310863317058875e+02 1.151933089957821267e+03 -1.151933089957821267e+03 1.172592159935459449e+03 -1.172592159935459449e+03 7.101102911920382894e+02 -7.101102911920382894e+02 7.011200162119273500e+02 -7.011200162119273500e+02 9.728705781248737594e+02 -9.728705781248737594e+02 1.207987862972153607e+03 -1.207987862972153607e+03 7.381266829774405096e+02 -7.381266829774405096e+02
-4.067996768787681891e-03 1.035340312193962973e+03 -1.035340312193962973e+03 7.196244579900782128e+02 -7.196244579900782128e+02 8.059989393948828820e+02 -8.059989393948828820e+02 1.076551304064308169e+03 -1.076551304064308169e+03 1.078071132267677740e+03 -1.078071132267677740e+03 1.157256389284729948e+03 -1.157256389284729948e+03 1.124100355361186985e+03 -1.124100355361186985e+03 1.010072039584425625e+03 -1.010072039584425625e+03 1.112288515606881219e+03 -1.112288515606881219e+03 6.008668922662377554e+02 -6.008668922662377554e+02 7.571801614358566894e+02 -7.571801614358566894e+02 1.079180386768829067e+03 -1.079180386768829067e+03
-1.043524635206259871e-03 7.540806817021323241e+02 -7.540806817021323241e+02 1.091896588451070556e+03 -1.091896588451070556e+03 9.503794483134081474e+02 -9.503794483134081474e+02 1.126740201188954416e+03 -1.126740201188954416e+03 1.056017120180202710e+03 -1.056017120180202710e+03 9.589107569819971104e+02 -9.589107569819971104e+02 1.057912306786440013e+03 -1.057912306786440013e+03 1.035867616979328432e+03 -1.035867616979328432e+03 9.944870010486943102e+02 -9.944870010486943102e+02 9.492919622715542118e+02 -9.492919622715542118e+02 1.151913966367895455e+03 -1.151913966367895455e+03 7.827135586787020429e+02 -7.827135586787020429e+02
0.000000000000000000e+00 7.253808321589473280e+02 -7.253808321589473280e+02 1.036574222103321972e+03 -1.036574222103321972e+03 7.825583545674543302e+02 -7.825583545674543302e+02 9.922278309757761008e+02 -9.922278309757761008e+02 7.893000618694342165e+02 -7.893000618694342165e+02 6.614769666123371508e+02 -6.614769666123371508e+02 9.534812090345357092e+02 -9.534812090345357092e+02 6.867199292825295061e+02 -6.867199292825295061e+02 7.175745529983006463e+02 -7.175745529983006463e+02 7.792804301536629055e+02 -7.792804301536629055e+02 6.212294977313482605e+02 -6.212294977313482605e+02 7.049445584643384564e+02 -7.049445584643384564e+02
0.000000000000000000e+00 6.366544144577159159e+02 -6.366544144577159159e+02 7.450875718925675528e+02 -7.450875718925675528e+02 1.162164393491997771e+03 -1.162164393491997771e+03 1.057896440261512680e+03 -1.057896440261512680e+03 7.753630087614743616e+02 -7.753630087614743616e+02 7.716006462726362543e+02 -7.716006462726362543e+02 9.328664617537255026e+02 -9.328664617537255026e+02 6.417035608487819900e+02 -6.417035608487819900e+02 6.784002961178864552e+02 -6.784002961178864552e+02 7.201738601178614090e+02 -7.201738601178614090e+02 1.209990519514163225e+03 -1.209990519514163225e+03 9.581917616706165290e+02 -9.581917616706165290e+02
2.002938003525116511e-03 1.000724914412059547e+03 -1.000724914412059547e+03 1.158739913361100434e+03 -1.158739913361100434e+03 1.213784941466439932e+03 -1.213784941466439932e+03 1.009595334008952250e+03 -1.009595334008952250e+03 6.269655749308243458e+02 -6.269655749308243458e+02 8.347133523979159690e+02 -8.347133523979159690e+02 9.828319206321599495e+02 -9.828319206321599495e+02 1.021237886456042474e+03 -1.021237886456042474e+03 6.793911447434618367e+02 -6.793911447434618367e+02 7.174729479633484743e+02 -7.174729479633484743e+02 1.192262604896743596e+03 -1.192262604896743596e+03 1.133424692177977704e+03 -1.133424692177977704e+03
5.428884986814091519e-04 6.762762716879212803e+02 -6.762762716879212803e+02 8.625610999591169730e+02 -8.625610999591169730e+02 1.059293605108264046e+03 -1.059293605108264046e+03 7.549872038474529745e+02 -7.549872038474529745e+02 8.256220000194972499e+02 -8.256220000194972499e+02 9.298951400518371884e+02 -9.298951400518371884e+02 1.162264540760226964e+03 -1.162264540760226964e+03 1.088948260349932298e+03 -1.088948260349932298e+03 7.607047424402250044e+02 -7.607047424402250044e+02 1.140783291373639941e+03 -1.140783291373639941e+03 1.101932010148428617e+03 -1.101932010148428617e+03 1.177689389229573180e+03 -1.177689389229573180e+03
-3.752694335334164294e-04 1.180424356602421085e+03 -1.180424356602421085e+03 1.096533178065781840e+03 -1.096533178065781840e+03 8.224452308546171935e+02 -8.224452308546171935e+02 9.252594463411844572e+02 -9.252594463411844572e+02 6.521183433482384544e+02 -6.521183433482384544e+02 7.025726408982732210e+02 -7.025726408982732210e+02 7.663263474516512588e+02 -7.663263474516512588e+02 8.172411538004943168e+02 -8.172411538004943168e+02 9.763485668237691470e+02 -9.763485668237691470e+02 1.145797166609742590e+03 -1.145797166609742590e+03 6.939601254840127922e+02 -6.939601254840127922e+02 1.003934434029908630e+03 -1.003934434029908630e+03
2.019755441263658673e-03 1.170654910143241523e+03 -1.170654910143241523e+03 9.520095284703488687e+02 -9.520095284703488687e+02 8.000819597513944927e+02 -8.000819597513944927e+02 9.658005237158952241e+02 -9.658005237158952241e+02 7.106686301286096068e+02 -7.106686301286096068e+02 9.814349324160212973e+02 -9.814349324160212973e+02 7.123144335299132308e+02 -7.123144335299132308e+02 9.433161768237521301e+02 -9.433161768237521301e+02 6.760046010297190833e+02 -6.760046010297190833e+02 8.309769999790414658e+02 -8.309769999790414658e+02 6.628236263354198172e+02 -6.628236263354198172e+02 9.153775568319385911e+02 -9.153775568319385911e+02
3.990332031602789042e-03 1.213039805281356166e+03 -1.213039805281356166e+03 8.121009247938817452e+02 -8.121009247938817452e+02 7.162884904548758414e+02 -7.162884904548758414e+02 6.709857927110462015e+02 -6.709857927110462015e+02 9.437161762976832051e+02 -9.437161762976832051e+02 1.062574757091924766e+03 -1.062574757091924766e+03 7.164629749934256324e+02 -7.164629749934256324e+02 7.087598172565765253e+02 -7.087598172565765253e+02 6.323474802749033188e+02 -6.323474802749033188e+02 8.501466972243474629e+02 -8.501466972243474629e+02 9.659744487221424833e+02 -9.659744487221424833e+02 8.783619830754232680e+02 -8.783619830754232680e+02
0.000000000000000000e+00 6.928112756798328746e+02 -6.928112756798328746e+02 6.408365738933522380e+02 -6.408365738933522380e+02 9.613611941216034893e+02 -9.613611941216034893e+02 7.642028509158755014e+02 -7.642028509158755014e+02 6.520222329724302881e+02 -6.520222329724302881e+02 7.256279743394014758e+02 -7.256279743394014758e+02 7.184723423824980273e+02 -7.184723423824980273e+02 7.295087068342443217e+02 -7.295087068342443217e+02 7.051608091193791097e+02 -7.051608091193791097e+02 6.203795555178608083e+02 -6.203795555178608083e+02 1.171843032472834011e+03 -1.171843032472834011e+03 7.470062727318146472e+02 -7.470062727318146472e+02
-5.326571036698615931e-03 6.846076526050012490e+02 -6.846076526050012490e+02 1.003180987294168176e+03 -1.003180987294168176e+03 9.922995977339340925e+02 -9.922995977339340925e+02 7.444518797552375418e+02 -7.444518797552375418e+02 9.525813444721113683e+02 -9.525813444721113683e+02 5.883848317606300498e+02 -5.883848317606300498e+02 1.136955587622343273e+03 -1.136955587622343273e+03 7.584810871475443719e+02 -7.584810871475443719e+02 1.172232969560666334e+03 -1.172232969560666334e+03 8.890984272248072102e+02 -8.890984272248072102e+02 9.642256641036246947e+02 -9.642256641036246947e+02 9.498971903561573527e+02 -9.498971903561573527e+02
-2.318044012897973061e-03 7.697661674787785842e+02 -7.697661674787785842e+02 9.832005403033193716e+02 -9.832005403033193716e+02 1.047351937932704232e+03 -1.047351937932704232e+03 1.051978259496500414e+03 -1.051978259496500414e+03 9.268668466109879773e+02 -9.268668466109879773e+02 5.847979849496873612e+02 -5.847979849496873612e+02 6.566928957471095600e+02 -6.566928957471095600e+02 7.421011907491543980e+02 -7.421011907491543980e+02 1.130683079471067003e+03 -1.130683079471067003e+03 6.541906593881133176e+02 -6.541906593881133176e+02 9.547943335906505808e+02 -9.547943335906505808e+02 8.900179690908324801e+02 -8.900179690908324801e+02
-1.190858414636016861e-03 6.683797993892670775e+02 -6.683797993892670775e+02 8.536944908251975903e+02 -8.536944908251975903e+02 1.209235043140132120e+03 -1.209235043140132120e+03 8.395354964329997074e+02 -8.395354964329997074e+02 7.530129417170851411e+02 -7.530129417170851411e+02 8.589097326651911999e+02 -8.589097326651911999e+02 6.491100141582985543e+02 -6.491100141582985543e+02 9.270594921963346451e+02 -9.270594921963346451e+02 1.142004079216606442e+03 -1.142004079216606442e+03 1.172458384299120780e+03 -1.172458384299120780e+03 9.608229208432842370e+02 -9.608229208432842370e+02 7.169921603042174638e+02 -7.169921603042174638e+02
-3.752694335334164294e-04 6.850218997368141345e+02 -6.850218997368141345e+02 6.074650097021371948e+02 -6.074650097021371948e+02 7.100349955753458744e+02 -7.100349955753458744e+02 7.809574105916807412e+02 -7.809574105916807412e+02 1.011862628114290942e+03 -1.011862628114290942e+03 1.043342908837392770e+03 -1.043342908837392770e+03 1.158069904216107489e+03 -1.158069904216107489e+03 6.973541179149020763e+02 -6.973541179149020763e+02 9.076853515349007466e+02 -9.076853515349007466e+02 9.339625334639536050e+02 -9.339625334639536050e+02 1.087761044496053728e+03 -1.087761044496053728e+03 8.092744431805266458e+02 -8.092744431805266458e+02
-1.366621809884820821e-03 7.835343527330799134e+02 -7.835343527330799134e+02 9.057699955223915822e+02 -9.057699955223915822e+02 1.215764543649346024e+03 -1.215764543649346024e+03 1.007876732817884772e+03 -1.007876732817884772e+03 1.036536450922335234e+03 -1.036536450922335234e+03 7.986611234877950665e+02 -7.986611234877950665e+02 6.995810249533622027e+02 -6.995810249533622027e+02 9.826377310039149506e+02 -9.826377310039149506e+02 8.139328736773727542e+02 -8.139328736773727542e+02 8.044848392910182611e+02 -8.044848392910182611e+02 6.158591909406961804e+02 -6.158591909406961804e+02 6.598150913387007677e+02 -6.598150913387007677e+02
1.099800919512290481e-03 6.505716363715353054e+02 -6.505716363715353054e+02 1.064192396939441096e+03 -1.064192396939441096e+03 7.785120337943886852e+02 -7.785120337943886852e+02 6.604519277071436818e+02 -6.604519277071436818e+02 9.507772922388905954e+02 -9.507772922388905954e+02 1.081217650664649454e+03 -1.081217650664649454e+03 8.082777200650155009e+02 -8.082777200650155009e+02 8.170268192614739746e+02 -8.170268192614739746e+02 6.310545521296382958e+02 -6.310545521296382958e+02 6.099248704805243051e+02 -6.099248704805243051e+02 7.584462416056768461e+02 -7.584462416056768461e+02 7.965360492052021755e+02 -7.965360492052021755e+02
-1.213097977189422048e-03 6.226140375671021729e+02 -6.226140375671021729e+02 7.090371298235645554e+02 -7.090371298235645554e+02 7.093322881995097759e+02 -7.093322881995097759e+02 1.111059724605027895e+03 -1.111059724605027895e+03 8.579781164951702976e+02 -8.579781164951702976e+02 1.068309378165660291e+03 -1.068309378165660291e+03 8.552584063066549334e+02 -8.552584063066549334e+02 7.736082079870647021e+02 -7.736082079870647021e+02 1.092339557046587970e+03 -1.092339557046587970e+03 8.111619993876890931e+02 -8.111619993876890931e+02 6.675411806748078334e+02 -6.675411806748078334e+02 9.030892774650845922e+02 -9.030892774650845922e+02
4.170854771880337306e-03 6.983802735565335524e+02 -6.983802735565335524e+02 1.116439206530177898e+03 -1.116439206530177898e+03 1.216057513559273502e+03 -1.216057513559273502e+03 1.020959901635016422e+03 -1.020959901635016422e+03 7.620419249162854385e+02 -7.620419249162854385e+02 9.227849099436307370e+02 -9.227849099436307370e+02 7.457508622850917845e+02 -7.457508622850917845e+02 9.665932720181868945e+02 -9.665932720181868945e+02 7.788854118324308047e+02 -7.788854118324308047e+02 6.785140749283195873e+02 -6.785140749283195873e+02 1.045609035560964912e+03 -1.045609035560964912e+03 1.071099488918003999e+03 -1.071099488918003999e+03
-1.545093885229092273e-03 8.311495694249676944e+02 -8.311495694249676944e+02 1.175677858900918181e+03 -1.175677858900918181e+03 6.479626125996472865e+02 -6.479626125996472865e+02 9.308862848374612895e+02 -9.308862848374612895e+02 7.263191676710931688e+02 -7.263191676710931688e+02 9.570135190725917482e+02 -9.570135190725917482e+02 1.023336633717009931e+03 -1.023336633717009931e+03 1.044354902534628309e+03 -1.044354902534628309e+03 8.336314338877118644e+02 -8.336314338877118644e+02 1.095561483385288739e+03 -1.095561483385288739e+03 8.156067397790565110e+02 -8.156067397790565110e+02 7.472031247340567006e+02 -7.472031247340567006e+02
0.000000000000000000e+00 6.155744970665169831e+02 -6.155744970665169831e+02 7.340764922907677601e+02 -7.340764922907677601e+02 7.519863586517308249e+02 -7.519863586517308249e+02 1.158428932071096824e+03 -1.158428932071096824e+03 7.390518242234436457e+02 -7.390518242234436457e+02 9.539900266910721029e+02 -9.539900266910721029e+02 1.034742216644189057e+03 -1.034742216644189057e+03 1.193820039839888750e+03 -1.193820039839888750e+03 1.046629458784052758e+03 -1.046629458784052758e+03 1.011336036178753943e+03 -1.011336036178753943e+03 7.035442568602958318e+02 -7.035442568602958318e+02 8.498637293478353740e+02 -8.498637293478353740e+02
-1.433155081272125290e-03 8.541244484831202044e+02 -8.541244484831202044e+02 6.563979845800038220e+02 -6.563979845800038220e+02 8.467875887620682533e+02 -8.467875887620682533e+02 9.101172962923737941e+02 -9.101172962923737941e+02 7.689197200591255523e+02 -7.689197200591255523e+02 1.059644657140323716e+03 -1.059644657140323716e+03 1.140744758548472191e+03 -1.140744758548472191e+03 7.345561034621791805e+02 -7.345561034621791805e+02 1.101322340052833852e+03 -1.101322340052833852e+03 7.650878393807495286e+02 -7.650878393807495286e+02 6.628532963419277166e+02 -6.628532963419277166e+02 1.162453936241665815e+03 -1.162453936241665815e+03
0.000000000000000000e+00 8.207646671153054285e+02 -8.207646671153054285e+02 1.018883205158449414e+03 -1.018883205158449414e+03 8.100273028031103877e+02 -8.100273028031103877e+02 1.130724304999518836e+03 -1.130724304999518836e+03 7.544835524458893588e+02 -7.544835524458893588e+02 6.206200363459424807e+02 -6.206200363459424807e+02 7.011735672108029576e+02 -7.011735672108029576e+02 1.134516403030728270e+03 -1.134516403030728270e+03 6.416461395946956827e+02 -6.416461395946956827e+02 7.778950615559128892e+02 -7.778950615559128892e+02 9.658747569412107623e+02 -9.658747569412107623e+02 7.992178333072236001e+02 -7.992178333072236001e+02
0.000000000000000000e+00 1.082444676235952329e+03 -1.082444676235952329e+03 6.669379303210812395e+02 -6.669379303210812395e+02 1.071559408980772787e+03 -1.071559408980772787e+03 1.094332443483060388e+03 -1.094332443483060388e+03 9.145323770527977558e+02 -9.145323770527977558e+02 7.185840075802337878e+02 -7.185840075802337878e+02 6.641065885766570318e+02 -6.641065885766570318e+02 7.454398522282716613e+02 -7.454398522282716613e+02 1.075561638878550866e+03 -1.075561638878550866e+03 6.323380096026413639e+02 -6.323380096026413639e+02 7.983717133184429713e+02 -7.983717133184429713e+02 1.141635643492220424e+03 -1.141635643492220424e+03
-8.897330731895936387e-03 7.889716343998697994e+02 -7.889716343998697994e+02 1.147908948376782291e+03 -1.147908948376782291e+03 9.130716231868594832e+02 -9.130716231868594832e+02 7.675923473296059001e+02 -7.675923473296059001e+02 9.592786481934771246e+02 -9.592786481934771246e+02 1.000183247015498978e+03 -1.000183247015498978e+03 7.228529415830936387e+02 -7.228529415830936387e+02 1.046042490299491419e+03 -1.046042490299491419e+03 9.125557801900531558e+02 -9.125557801900531558e+02 9.226805253538722127e+02 -9.226805253538722127e+02 1.182691371342663615e+03 -1.182691371342663615e+03 8.250189212911684535e+02 -8.250189212911684535e+02
8.376973501322630342e-03 6.321634126998983447e+02 -6.321634126998983447e+02 8.274813676742846837e+02 -8.274813676742846837e+02 7.003340118515051245e+02 -7.003340118515051245e+02 1.035781065279265476e+03 -1.035781065279265476e+03 1.171139295533258291e+03 -1.171139295533258291e+03 5.870134964287651655e+02 -5.870134964287651655e+02 7.544858400389681492e+02 -7.544858400389681492e+02 8.992372600505096898e+02 -8.992372600505096898e+02 8.725492427644920781e+02 -8.725492427644920781e+02 9.135280411366467206e+02 -9.135280411366467206e+02 9.782506835403477226e+02 -9.782506835403477226e+02 1.049753040605911792e+03 -1.049753040605911792e+03
0.000000000000000000e+00 6.985126166455396515e+02 -6.985126166455396515e+02 7.709983210067672417e+02 -7.709983210067672417e+02 8.296055208509503700e+02 -8.296055208509503700e+02 8.037781434752729410e+02 -8.037781434752729410e+02 8.419468520653363157e+02 -8.419468520653363157e+02 7.574113960227892903e+02 -7.574113960227892903e+02 7.752016057762845094e+02 -7.752016057762845094e+02 6.409726386270223202e+02 -6.409726386270223202e+02 7.464903552067238479e+02 -7.464903552067238479e+02 1.059685620389424002e+03 -1.059685620389424002e+03 7.783160330517277998e+02 -7.783160330517277998e+02 9.354122645908230425e+02 -9.354122645908230425e+02
-4.848334369938688232e-04 8.477640314388366960e+02 -8.477640314388366960e+02 7.110824041420397634e+02 -7.110824041420397634e+02 9.520828388151580839e+02 -9.520828388151580839e+02 1.106780173011507259e+03 -1.106780173011507259e+03 9.849102732423964426e+02 -9.849102732423964426e+02 8.679656224342069208e+02 -8.679656224342069208e+02 1.043882056611117832e+03 -1.043882056611117832e+03 1.063987638435821509e+03 -1.063987638435821509e+03 8.642885268640637833e+02 -8.642885268640637833e+02 6.401876308394595299e+02 -6.401876308394595299e+02 9.029138177945227426e+02 -9.029138177945227426e+02 1.008554331910097858e+03 -1.008554331910097858e+03
-3.896304460659264597e-04 9.842814268109807472e+02 -9.842814268109807472e+02 1.054361443266452852e+03 -1.054361443266452852e+03 9.122043989001953150e+02 -9.122043989001953150e+02 7.914507963636699515e+02 -7.914507963636699515e+02 6.289903739872592041e+02 -6.289903739872592041e+02 9.648812645316827457e+02 -9.648812645316827457e+02 8.650133045049716429e+02 -8.650133045049716429e+02 7.711871449372455345e+02 -7.711871449372455345e+02 1.008994351133948271e+03 -1.008994351133948271e+03 1.066752912742169656e+03 -1.066752912742169656e+03 7.149917262664351938e+02 -7.149917262664351938e+02 1.125015035239960753e+03 -1.125015035239960753e+03
6.059266323790871503e-03 7.265045974477167192e+02 -7.265045974477167192e+02 7.676358636966169797e+02 -7.676358636966169797e+02 9.018448386811559203e+02 -9.018448386811559203e+02 1.103406050439633191e+03 -1.103406050439633191e+03 9.702752231454679759e+02 -9.702752231454679759e+02 9.179700434413724679e+02 -9.179700434413724679e+02 5.978910727284667246e+02 -5.978910727284667246e+02 9.257173356008590872e+02 -9.257173356008590872e+02 8.374537251511500244e+02 -8.374537251511500244e+02 7.818405816057241964e+02 -7.818405816057241964e+02 6.883593432154885932e+02 -6.883593432154885932e+02 9.691184742135291117e+02 -9.691184742135291117e+02
6.285679720381769607e-03 1.125510582624890276e+03 -1.125510582624890276e+03 1.091969191651367964e+03 -1.091969191651367964e+03 1.048853959757425855e+03 -1.048853959757425855e+03 7.582644874114774893e+02 -7.582644874114774893e+02 7.067475185411584562e+02 -7.067475185411584562e+02 5.864115494750711832e+02 -5.864115494750711832e+02 9.465549230026773557e+02 -9.465549230026773557e+02 8.206494377725198319e+02 -8.206494377725198319e+02 8.258479316745755341e+02 -8.258479316745755341e+02 1.083648612130496531e+03 -1.083648612130496531e+03 8.665992656961241210e+02 -8.665992656961241210e+02 1.158156019740703869e+03 -1.158156019740703869e+03
2.543597220978355711e-03 1.117528975326985801e+03 -1.117528975326985801e+03 6.959620916381534244e+02 -6.959620916381534244e+02 9.146769304744351530e+02 -9.146769304744351530e+02 8.085389261962759520e+02 -8.085389261962759520e+02 1.109895145350385064e+03 -1.109895145350385064e+03 9.947364062970642635e+02 -9.947364062970642635e+02 6.160364554244962392e+02 -6.160364554244962392e+02 1.155722116464186229e+03 -1.155722116464186229e+03 7.992347126891431799e+02 -7.992347126891431799e+02 6.581334153256166246e+02 -6.581334153256166246e+02 6.893699396124543455e+02 -6.893699396124543455e+02 8.338802576288564978e+02 -8.338802576288564978e+02
2.164292238548467823e-03 1.124134000872351635e+03 -1.124134000872351635e+03 1.142838030787521348e+03 -1.142838030787521348e+03 9.590269080979516048e+02 -9.590269080979516048e+02 1.093149882903701382e+03 -1.093149882903701382e+03 6.657088799063237730e+02 -6.657088799063237730e+02 1.074361637693663170e+03 -1.074361637693663170e+03 9.395588097407086252e+02 -9.395588097407086252e+02 8.339154677995551310e+02 -8.339154677995551310e+02 9.176496060033481399e+02 -9.176496060033481399e+02 6.472747836551147884e+02 -6.472747836551147884e+02 6.651379462906791105e+02 -6.651379462906791105e+02 9.312813183224428712e+02 -9.312813183224428712e+02
1.482071989843593285e-02 6.592125897580084484e+02 -6.592125897580084484e+02 1.122658839440827023e+03 -1.122658839440827023e+03 1.010548348750082482e+03 -1.010548348750082482e+03 1.053730062467881680e+03 -1.053730062467881680e+03 6.633461635658425166e+02 -6.633461635658425166e+02 7.717656352378767224e+02 -7.717656352378767224e+02 9.137196377206828402e+02 -9.137196377206828402e+02 1.010216909175394221e+03 -1.010216909175394221e+03 1.053482124072902707e+03 -1.053482124072902707e+03 9.724084156447549958e+02 -9.724084156447549958e+02 7.504246861519826552e+02 -7.504246861519826552e+02 1.181795205800051690e+03 -1.181795205800051690e+03
-3.407709237367549313e-03 6.931624781095291610e+02 -6.931624781095291610e+02 9.583471098212149855e+02 -9.583471098212149855e+02 1.150786373976775394e+03 -1.150786373976775394e+03 9.814814466429437516e+02 -9.814814466429437516e+02 9.687825408243448919e+02 -9.687825408243448919e+02 1.068307844194373956e+03 -1.068307844194373956e+03 6.612731713670401632e+02 -6.612731713670401632e+02 8.155339303246310010e+02 -8.155339303246310010e+02 6.673815691658636524e+02 -6.673815691658636524e+02 8.741782171336586771e+02 -8.741782171336586771e+02 7.884527598441997043e+02 -7.884527598441997043e+02 7.565406980660608269e+02 -7.565406980660608269e+02
0.000000000000000000e+00 1.198782143507371529e+03 -1.198782143507371529e+03 9.363115791870100111e+02 -9.363115791870100111e+02 6.886565422242854311e+02 -6.886565422242854311e+02 8.296655199926851765e+02 -8.296655199926851765e+02 9.735934466970602443e+02 -9.735934466970602443e+02 1.124120603340959633e+03 -1.124120603340959633e+03 6.208476440926476698e+02 -6.208476440926476698e+02 7.357338579886913976e+02 -7.357338579886913976e+02 8.733815399087326341e+02 -8.733815399087326341e+02 1.114454798043290793e+03 -1.114454798043290793e+03 6.211937711615901208e+02 -6.211937711615901208e+02 1.167064444261386825e+03 -1.167064444261386825e+03
4.130521006373545634e-03 6.096931627046650419e+02 -6.096931627046650419e+02 1.050817087701991113e+03 -1.050817087701991113e+03 1.036125857094180219e+03 -1.036125857094180219e+03 1.116903676399834012e+03 -1.116903676399834012e+03 9.654379908755624911e+02 -9.654379908755624911e+02 9.846917738137692595e+02 -9.846917738137692595e+02 6.592638118593799845e+02 -6.592638118593799845e+02 9.472465303163503449e+02 -9.472465303163503449e+02 1.037391645092809085e+03 -1.037391645092809085e+03 9.521174702222958786e+02 -9.521174702222958786e+02 1.082158134847213205e+03 -1.082158134847213205e+03 1.060416689557246855e+03 -1.060416689557246855e+03
3.662472876729009220e-03 6.264659856776825109e+02 -6.264659856776825109e+02 8.771821183368119819e+02 -8.771821183368119819e+02 9.205227755142657315e+02 -9.205227755142657315e+02 9.980192712163360511e+02 -9.980192712163360511e+02 8.446832215889696727e+02 -8.446832215889696727e+02 7.946914784100003999e+02 -7.946914784100003999e+02 1.131099767298441066e+03 -1.131099767298441066e+03 1.174563620337068642e+03 -1.174563620337068642e+03 1.166844948013773774e+03 -1.166844948013773774e+03 6.596269031594730450e+02 -6.596269031594730450e+02 8.722926216941483517e+02 -8.722926216941483517e+02 7.970618563817683935e+02 -7.970618563817683935e+02
-3.896304460659264597e-04 6.611698827771676861e+02 -6.611698827771676861e+02 1.061326553149237498e+03 -1.061326553149237498e+03 6.493112804982611124e+02 -6.493112804982611124e+02 7.989536187955841342e+02 -7.989536187955841342e+02 1.062584564486993031e+03 -1.062584564486993031e+03 7.730301792577384958e+02 -7.730301792577384958e+02 1.091630332635399100e+03 -1.091630332635399100e+03 6.442166734888826340e+02 -6.442166734888826340e+02 8.747588666273176159e+02 -8.747588666273176159e+02 6.605745796534449710e+02 -6.605745796534449710e+02 7.989000128244151711e+02 -7.989000128244151711e+02 1.041725921350207500e+03 -1.041725921350207500e+03
-3.896304460659264597e-04 7.062440020985535511e+02 -7.062440020985535511e+02 1.001121296656032769e+03 -1.001121296656032769e+03 7.293060279745733396e+02 -7.293060279745733396e+02 1.085875744709708442e+03 -1.085875744709708442e+03 9.578073685950782874e+02 -9.578073685950782874e+02 1.106676689046729280e+03 -1.106676689046729280e+03 8.026608373836239707e+02 -8.026608373836239707e+02 8.687145688270936716e+02 -8.687145688270936716e+02 9.073020438047432208e+02 -9.073020438047432208e+02 1.077891986281346362e+03 -1.077891986281346362e+03 1.136075481476204914e+03 -1.136075481476204914e+03 8.284851460928439337e+02 -8.284851460928439337e+02
3.673216640153278891e-03 1.104182599344845812e+03 -1.104182599344845812e+03 6.216062811141482598e+02 -6.216062811141482598e+02 7.766345170059765906e+02 -7.766345170059765906e+02 1.126998178024743083e+03 -1.126998178024743083e+03 1.127879352026944389e+03 -1.127879352026944389e+03 1.110150432932875447e+03 -1.110150432932875447e+03 1.048210613061748745e+03 -1.048210613061748745e+03 1.141518964466559055e+03 -1.141518964466559055e+03 8.123033652591608416e+02 -8.123033652591608416e+02 8.990925443736763327e+02 -8.990925443736763327e+02 8.400813297386333716e+02 -8.400813297386333716e+02 1.115235915978666526e+03 -1.115235915978666526e+03
2.284245284841225111e-03 9.133917433448331167e+02 -9.133917433448331167e+02 6.219951620355975592e+02 -6.219951620355975592e+02 6.310035681258774503e+02 -6.310035681258774503e+02 9.565016158194570153e+02 -9.565016158194570153e+02 6.655360585785920193e+02 -6.655360585785920193e+02 7.363466322122195606e+02 -7.363466322122195606e+02 9.909364826188766529e+02 -9.909364826188766529e+02 1.141968384144119909e+03 -1.141968384144119909e+03 9.986473320395737119e+02 -9.986473320395737119e+02 7.003447336118355224e+02 -7.003447336118355224e+02 9.689262149306773608e+02 -9.689262149306773608e+02 7.672543705602549835e+02 -7.672543705602549835e+02
-6.780431584854123206e-04 9.405843335600245609e+02 -9.405843335600245609e+02 6.891533354950217927e+02 -6.891533354950217927e+02 6.817005430155714976e+02 -6.817005430155714976e+02 9.946590196444410594e+02 -9.946590196444410594e+02 1.063946323417181020e+03 -1.063946323417181020e+03 1.028623746610311855e+03 -1.028623746610311855e+03 1.116744899083913879e+03 -1.116744899083913879e+03 1.049305594994018520e+03 -1.049305594994018520e+03 1.059291110537110171e+03 -1.059291110537110171e+03 6.937445257986173601e+02 -6.937445257986173601e+02 8.158459965218866046e+02 -8.158459965218866046e+02 7.695897848698859889e+02 -7.695897848698859889e+02
-1.353576652107731744e-03 1.024763211599562283e+03 -1.024763211599562283e+03 7.994223427764513872e+02 -7.994223427764513872e+02 7.809521000143363381e+02 -7.809521000143363381e+02 6.374531779854656861e+02 -6.374531779854656861e+02 8.716752001700400569e+02 -8.716752001700400569e+02 7.993956587421511131e+02 -7.993956587421511131e+02 1.004915174496145823e+03 -1.004915174496145823e+03 7.693172502151845720e+02 -7.693172502151845720e+02 6.108649039216613801e+02 -6.108649039216613801e+02 1.171780413455733878e+03 -1.171780413455733878e+03 1.010243983453699457e+03 -1.010243983453699457e+03 8.022752239621422632e+02 -8.022752239621422632e+02
-1.213097977189397545e-03 9.899992569100471655e+02 -9.899992569100471655e+02 6.296745578365959091e+02 -6.296745578365959091e+02 8.773994894831654392e+02 -8.773994894831654392e+02 6.878084340917771442e+02 -6.878084340917771442e+02 6.246246339726096721e+02 -6.246246339726096721e+02 1.157199546070123233e+03 -1.157199546070123233e+03 6.523972451247566369e+02 -6.523972451247566369e+02 9.501036124672203869e+02 -9.501036124672203869e+02 1.104813696208896999e+03 -1.104813696208896999e+03 8.197229282053390307e+02 -8.197229282053390307e+02 7.017111616835620680e+02 -7.017111616835620680e+02 1.170342824112264680e+03 -1.170342824112264680e+03
3.306820217055882194e-03 7.510722469206701817e+02 -7.510722469206701817e+02 7.043801380769318712e+02 -7.043801380769318712e+02 7.807734430364299669e+02 -7.807734430364299669e+02 1.089703552793213248e+03 -1.089703552793213248e+03 7.405631804998751022e+02 -7.405631804998751022e+02 6.759824587532402802e+02 -6.759824587532402802e+02 1.174656811784541105e+03 -1.174656811784541105e+03 1.060069514152145075e+03 -1.060069514152145075e+03 1.033682315162067653e+03 -1.033682315162067653e+03 8.312167288590693488e+02 -8.312167288590693488e+02 6.300426373771862245e+02 -6.300426373771862245e+02 1.097935246335507372e+03 -1.097935246335507372e+03
3.358726082491584556e-03 6.543587425726411766e+02 -6.543587425726411766e+02 9.034193650426653903e+02 -9.034193650426653903e+02 6.259061615173612836e+02 -6.259061615173612836e+02 8.666012101725065122e+02 -8.666012101725065122e+02 7.419679422556413328e+02 -7.419679422556413328e+02 7.898277848176705902e+02 -7.898277848176705902e+02 5.988044192170134465e+02 -5.988044192170134465e+02 6.871542469588747508e+02 -6.871542469588747508e+02 1.178778983876199845e+03 -1.178778983876199845e+03 1.034889662131399973e+03 -1.034889662131399973e+03 1.095701466714924891e+03 -1.095701466714924891e+03 8.161147927861842390e+02 -8.161147927861842390e+02
-5.039889847073106624e-03 6.897570087736798996e+02 -6.897570087736798996e+02 6.261835171426846500e+02 -6.261835171426846500e+02 6.503618267138475630e+02 -6.503618267138475630e+02 7.132864543720951360e+02 -7.132864543720951360e+02 1.117111319869580711e+03 -1.117111319869580711e+03 1.078471508725704552e+03 -1.078471508725704552e+03 1.009384813398413712e+03 -1.009384813398413712e+03 1.127400732625973433e+03 -1.127400732625973433e+03 8.976564292944181034e+02 -8.976564292944181034e+02 6.921150875640956883e+02 -6.921150875640956883e+02 7.403476236997070146e+02 -7.403476236997070146e+02 1.110708018336143368e+03 -1.110708018336143368e+03
0.000000000000000000e+00 9.766780070086449541e+02 -9.766780070086449541e+02 8.675943120132729973e+02 -8.675943120132729973e+02 1.077043087827691579e+03 -1.077043087827691579e+03 1.002477079208745749e+03 -1.002477079208745749e+03 1.087160490600194635e+03 -1.087160490600194635e+03 9.949629232013720639e+02 -9.949629232013720639e+02 5.894315576080830397e+02 -5.894315576080830397e+02 1.124354262571889649e+03 -1.124354262571889649e+03 7.183103359128014063e+02 -7.183103359128014063e+02 1.048118125389421039e+03 -1.048118125389421039e+03 1.111369011084958856e+03 -1.111369011084958856e+03 1.010586220124075908e+03 -1.010586220124075908e+03
1.482305454899397398e-03 9.254108897851147049e+02 -9.254108897851147049e+02 9.836021857587413706e+02 -9.836021857587413706e+02 1.185868582082383227e+03 -1.185868582082383227e+03 1.026596904158456027e+03 -1.026596904158456027e+03 8.831412755221157340e+02 -8.831412755221157340e+02 1.079242537711130353e+03 -1.079242537711130353e+03 9.217937542839235903e+02 -9.217937542839235903e+02 6.140208377653407297e+02 -6.140208377653407297e+02 6.259586953347160261e+02 -6.259586953347160261e+02 9.423268092643756972e+02 -9.423268092643756972e+02 9.493896546987659804e+02 -9.493896546987659804e+02 6.933297245785860241e+02 -6.933297245785860241e+02
2.831669584539725417e-03 1.111415117405744013e+03 -1.111415117405744013e+03 1.066110032096420582e+03 -1.066110032096420582e+03 1.123982687211514758e+03 -1.123982687211514758e+03 6.195705746465346238e+02 -6.195705746465346238e+02 9.110881243612298022e+02 -9.110881243612298022e+02 7.329965575770290798e+02 -7.329965575770290798e+02 1.148401536867917002e+03 -1.148401536867917002e+03 1.104063753501988003e+03 -1.104063753501988003e+03 1.052079845088366937e+03 -1.052079845088366937e+03 6.448527575943327292e+02 -6.448527575943327292e+02 7.209449415374120917e+02 -7.209449415374120917e+02 5.965569376578506535e+02 -5.965569376578506535e+02
-3.087648193372109252e-03 6.316019264404757223e+02 -6.316019264404757223e+02 6.864717665401076374e+02 -6.864717665401076374e+02 1.126136664742066159e+03 -1.126136664742066159e+03 9.432100528053421158e+02 -9.432100528053421158e+02 6.172444679364052718e+02 -6.172444679364052718e+02 8.951870175931969698e+02 -8.951870175931969698e+02 9.342707566500542953e+02 -9.342707566500542953e+02 8.337093321337445104e+02 -8.337093321337445104e+02 9.393589822258312552e+02 -9.393589822258312552e+02 1.139204390469458986e+03 -1.139204390469458986e+03 7.764409649055663749e+02 -7.764409649055663749e+02 8.760858252697959188e+02 -8.760858252697959188e+02
-1.043524635206259871e-03 1.027156145595799444e+03 -1.027156145595799444e+03 1.160464722703597090e+03 -1.160464722703597090e+03 7.614877652554121141e+02 -7.614877652554121141e+02 5.915331533349943811e+02 -5.915331533349943811e+02 8.750448016331237113e+02 -8.750448016331237113e+02 7.514224588175043209e+02 -7.514224588175043209e+02 9.819483938036896689e+02 -9.819483938036896689e+02 7.941402918013394583e+02 -7.941402918013394583e+02 6.806580857557464697e+02 -6.806580857557464697e+02 7.198554778490057515e+02 -7.198554778490057515e+02 9.472628278438332927e+02 -9.472628278438332927e+02 1.044750454271894569e+03 -1.044750454271894569e+03
0.000000000000000000e+00 8.977272260732224822e+02 -8.977272260732224822e+02 9.636361794730455586e+02 -9.636361794730455586e+02 6.783158639326275079e+02 -6.783158639326275079e+02 6.286760019138087046e+02 -6.286760019138087046e+02 6.493675684957602243e+02 -6.493675684957602243e+02 6.440797270827140437e+02 -6.440797270827140437e+02 8.588575751165046768e+02 -8.588575751165046768e+02 6.932691657867244430e+02 -6.932691657867244430e+02 5.948502975294728685e+02 -5.948502975294728685e+02 7.632833212551632869e+02 -7.632833212551632869e+02 9.361283389299605915e+02 -9.361283389299605915e+02 1.092861946424069401e+03 -1.092861946424069401e+03
0.000000000000000000e+00 1.148129316969662341e+03 -1.148129316969662341e+03 7.828462778698691409e+02 -7.828462778698691409e+02 1.036008213790888703e+03 -1.036008213790888703e+03 7.449969756783490311e+02 -7.449969756783490311e+02 8.159404979590581206e+02 -8.159404979590581206e+02 7.392337825538227207e+02 -7.392337825538227207e+02 6.737039934728570643e+02 -6.737039934728570643e+02 1.070877746121631162e+03 -1.070877746121631162e+03 8.990956923996079695e+02 -8.990956923996079695e+02 7.290086988081205845e+02 -7.290086988081205845e+02 8.232786225291399660e+02 -8.232786225291399660e+02 9.198442648152691845e+02 -9.198442648152691845e+02
0.000000000000000000e+00 9.609331862210998452e+02 -9.609331862210998452e+02 9.322643900952008380e+02 -9.322643900952008380e+02 6.461800236426056472e+02 -6.461800236426056472e+02 8.131642490462236310e+02 -8.131642490462236310e+02 1.008383254946864781e+03 -1.008383254946864781e+03 8.062524527355074042e+02 -8.062524527355074042e+02 8.506320610294860671e+02 -8.506320610294860671e+02 1.026113387403615661e+03 -1.026113387403615661e+03 9.564267321448556913e+02 -9.564267321448556913e+02 1.024039933278855870e+03 -1.024039933278855870e+03 1.070324394348811438e+03 -1.070324394348811438e+03 6.384821423378962209e+02 -6.384821423378962209e+02
1.955946051609053042e-03 9.299019516421535627e+02 -9.299019516421535627e+02 1.004832127465077178e+03 -1.004832127465077178e+03 1.184428408723590564e+03 -1.184428408723590564e+03 1.057741022150823028e+03 -1.057741022150823028e+03 1.206856742538546769e+03 -1.206856742538546769e+03 7.438798170950424264e+02 -7.438798170950424264e+02 8.386935705547294901e+02 -8.386935705547294901e+02 8.279717681089921371e+02 -8.279717681089921371e+02 8.363997212891763411e+02 -8.363997212891763411e+02 1.175134620956414437e+03 -1.175134620956414437e+03 1.090059766864217409e+03 -1.090059766864217409e+03 1.027686483059059583e+03 -1.027686483059059583e+03
1.831480037122982119e-03 1.040924715854649776e+03 -1.040924715854649776e+03 9.730901700580956231e+02 -9.730901700580956231e+02 1.202945505446687775e+03 -1.202945505446687775e+03 1.092999510064462584e+03 -1.092999510064462584e+03 6.144035208666937251e+02 -6.144035208666937251e+02 8.498649741407365354e+02 -8.498649741407365354e+02 6.844959253082033683e+02 -6.844959253082033683e+02 6.804875921798800391e+02 -6.804875921798800391e+02 1.178625167560643149e+03 -1.178625167560643149e+03 6.552980928678070995e+02 -6.552980928678070995e+02 1.142622288920794063e+03 -1.142622288920794063e+03 8.513684914698200146e+02 -8.513684914698200146e+02
4.954269842451678590e-03 8.692463062594125631e+02 -8.692463062594125631e+02 1.126756773524243727e+03 -1.126756773524243727e+03 7.879107107987030076e+02 -7.879107107987030076e+02 1.154159694768895406e+03 -1.154159694768895406e+03 8.201500456043484064e+02 -8.201500456043484064e+02 1.020802926735984670e+03 -1.020802926735984670e+03 1.093840762087843132e+03 -1.093840762087843132e+03 7.763256626154808373e+02 -7.763256626154808373e+02 9.956156164024562258e+02 -9.956156164024562258e+02 7.896999028438688129e+02 -7.896999028438688129e+02 8.670302257150569858e+02 -8.670302257150569858e+02 1.069249417156126128e+03 -1.069249417156126128e+03
2.792324500441074973e-03 6.363032413465073205e+02 -6.363032413465073205e+02 9.080034272066010317e+02 -9.080034272066010317e+02 1.178600473734135903e+03 -1.178600473734135903e+03 9.954865687194271686e+02 -9.954865687194271686e+02 9.594359048256291089e+02 -9.594359048256291089e+02 1.147373367042243899e+03 -1.147373367042243899e+03 1.122744120010238476e+03 -1.122744120010238476e+03 6.024342164650902305e+02 -6.024342164650902305e+02 1.171503160205323866e+03 -1.171503160205323866e+03 8.680535763490275940e+02 -8.680535763490275940e+02 9.191402965932368261e+02 -9.191402965932368261e+02 8.970878035556735313e+02 -8.970878035556735313e+02
1.056649363165014337e-03 9.787557899864559658e+02 -9.787557899864559658e+02 9.426348591512386292e+02 -9.426348591512386292e+02 1.148665072473538658e+03 -1.148665072473538658e+03 6.065431372915344355e+02 -6.065431372915344355e+02 8.331209329795185567e+02 -8.331209329795185567e+02 9.733922742103105747e+02 -9.733922742103105747e+02 7.007549667417335968e+02 -7.007549667417335968e+02 9.146410630862540074e+02 -9.146410630862540074e+02 6.721003513193330718e+02 -6.721003513193330718e+02 7.080361029673510984e+02 -7.080361029673510984e+02 1.096164940952381585e+03 -1.096164940952381585e+03 7.517326841703103355e+02 -7.517326841703103355e+02
1.699483814673875479e-02 8.898166016250627308e+02 -8.898166016250627308e+02 9.716447463280218244e+02 -9.716447463280218244e+02 8.717242703668996455e+02 -8.717242703668996455e+02 8.110649625479534279e+02 -8.110649625479534279e+02 7.060127551031138182e+02 -7.060127551031138182e+02 1.062127759597491149e+03 -1.062127759597491149e+03 1.065454282578139555e+03 -1.065454282578139555e+03 9.584123196378300236e+02 -9.584123196378300236e+02 1.012400532483627330e+03 -1.012400532483627330e+03 1.032919633256785346e+03 -1.032919633256785346e+03 8.251141730837605337e+02 -8.251141730837605337e+02 6.615901135606047774e+02 -6.615901135606047774e+02
0.000000000000000000e+00 1.133995654675424703e+03 -1.133995654675424703e+03 1.017004283077288960e+03 -1.017004283077288960e+03 7.001639664922956854e+02 -7.001639664922956854e+02 9.774581048387648252e+02 -9.774581048387648252e+02 7.300348175720495192e+02 -7.300348175720495192e+02 5.858778852313057541e+02 -5.858778852313057541e+02 7.088197185652845747e+02 -7.088197185652845747e+02 9.987677737597111900e+02 -9.987677737597111900e+02 7.748312016984953061e+02 -7.748312016984953061e+02 9.235081937360356505e+02 -9.235081937360356505e+02 1.091968189014292875e+03 -1.091968189014292875e+03 7.158238325200834424e+02 -7.158238325200834424e+02
1.056649363165014337e-03 9.325848086895557572e+02 -9.325848086895557572e+02 7.310888531220932691e+02 -7.310888531220932691e+02 8.359675739575346824e+02 -8.359675739575346824e+02 7.571322831034872252e+02 -7.571322831034872252e+02 8.577714518839314906e+02 -8.577714518839314906e+02 1.049942154646842710e+03 -1.049942154646842710e+03 7.255212174327240291e+02 -7.255212174327240291e+02 9.645947676269410067e+02 -9.645947676269410067e+02 6.786955603943187043e+02 -6.786955603943187043e+02 1.176793702288537361e+03 -1.176793702288537361e+03 6.730527163426085053e+02 -6.730527163426085053e+02 1.080317675084137818e+03 -1.080317675084137818e+03
0.000000000000000000e+00 1.072171519376550577e+03 -1.072171519376550577e+03 1.154403123987778372e+03 -1.154403123987778372e+03 7.260667579119480024e+02 -7.260667579119480024e+02 9.982219102378578555e+02 -9.982219102378578555e+02 1.024165281450654675e+03 -1.024165281450654675e+03 1.076156930973497992e+03 -1.076156930973497992e+03 8.800298889024149958e+02 -8.800298889024149958e+02 8.305080249115818560e+02 -8.305080249115818560e+02 1.112517772291953634e+03 -1.112517772291953634e+03 1.001281942133317443e+03 -1.001281942133317443e+03 7.908888849711938747e+02 -7.908888849711938747e+02 8.952659840071412418e+02 -8.952659840071412418e+02
0.000000000000000000e+00 1.032298297641611498e+03 -1.032298297641611498e+03 9.116534761751986480e+02 -9.116534761751986480e+02 1.164520342420330053e+03 -1.164520342420330053e+03 6.299355119263954066e+02 -6.299355119263954066e+02 1.050172444366091440e+03 -1.050172444366091440e+03 1.130876184266640166e+03 -1.130876184266640166e+03 9.464910265096577859e+02 -9.464910265096577859e+02 7.744430352736966370e+02 -7.744430352736966370e+02 9.301033688848739303e+02 -9.301033688848739303e+02 7.879717176900373943e+02 -7.879717176900373943e+02 8.929723450129896491e+02 -8.929723450129896491e+02 6.057009774351511169e+02 -6.057009774351511169e+02
3.174929734733358735e-03 1.090252141097262665e+03 -1.090252141097262665e+03 6.363033321591223057e+02 -6.363033321591223057e+02 7.272110599686417345e+02 -7.272110599686417345e+02 8.815812971898567412e+02 -8.815812971898567412e+02 8.475209717015703745e+02 -8.475209717015703745e+02 8.652210922254298566e+02 -8.652210922254298566e+02 9.356407889442571104e+02 -9.356407889442571104e+02 1.191510180747212644e+03 -1.191510180747212644e+03 6.367012174673851632e+02 -6.367012174673851632e+02 1.111841256931836369e+03 -1.111841256931836369e+03 6.567747259023201423e+02 -6.567747259023201423e+02 1.040721651987375026e+03 -1.040721651987375026e+03
-4.707223823589715486e-03 8.852056061958105602e+02 -8.852056061958105602e+02 1.054161254669981417e+03 -1.054161254669981417e+03 8.576799180346727098e+02 -8.576799180346727098e+02 6.406745829692833922e+02 -6.406745829692833922e+02 1.223855746894068034e+03 -1.223855746894068034e+03 1.060274978683654126e+03 -1.060274978683654126e+03 9.726681196479160008e+02 -9.726681196479160008e+02 1.034992427289522993e+03 -1.034992427289522993e+03 8.592636843209080553e+02 -8.592636843209080553e+02 1.108728409707472792e+03 -1.108728409707472792e+03 8.434284068722863594e+02 -8.434284068722863594e+02 9.459398240007213872e+02 -9.459398240007213872e+02
2.734997370920860295e-03 9.687194867411393489e+02 -9.687194867411393489e+02 6.874287027963081300e+02 -6.874287027963081300e+02 8.014098769048680424e+02 -8.014098769048680424e+02 7.622929791927836050e+02 -7.622929791927836050e+02 1.183205962723193124e+03 -1.183205962723193124e+03 9.008882994093685284e+02 -9.008882994093685284e+02 1.168302194675154169e+03 -1.168302194675154169e+03 1.001000360722084110e+03 -1.001000360722084110e+03 1.131551782408519557e+03 -1.131551782408519557e+03 1.005914754217972131e+03 -1.005914754217972131e+03 9.131569068491442067e+02 -9.131569068491442067e+02 6.057139101462094004e+02 -6.057139101462094004e+02
2.792324500441074973e-03 6.360129833069385086e+02 -6.360129833069385086e+02 6.693973884208254503e+02 -6.693973884208254503e+02 6.770085722774157375e+02 -6.770085722774157375e+02 9.039979432623573530e+02 -9.039979432623573530e+02 8.173349154235557990e+02 -8.173349154235557990e+02 6.223358182124126188e+02 -6.223358182124126188e+02 6.185721797784225373e+02 -6.185721797784225373e+02 1.107591205791121865e+03 -1.107591205791121865e+03 8.976411407598551477e+02 -8.976411407598551477e+02 9.338864214099115770e+02 -9.338864214099115770e+02 1.161426626783533720e+03 -1.161426626783533720e+03 7.232563674541014507e+02 -7.232563674541014507e+02
3.370932457146241638e-04 8.473828057051085807e+02 -8.473828057051085807e+02 1.005609709571689564e+03 -1.005609709571689564e+03 9.704107082219513813e+02 -9.704107082219513813e+02 1.044166808754229351e+03 -1.044166808754229351e+03 1.113342696454662246e+03 -1.113342696454662246e+03 1.108826949217251695e+03 -1.108826949217251695e+03 9.983494061785995655e+02 -9.983494061785995655e+02 9.192023875832375097e+02 -9.192023875832375097e+02 8.630764077866575690e+02 -8.630764077866575690e+02 9.168507200071310308e+02 -9.168507200071310308e+02 6.423346720257615061e+02 -6.423346720257615061e+02 7.129847383924983433e+02 -7.129847383924983433e+02
3.597865908509588311e-03 7.937166107828526265e+02 -7.937166107828526265e+02 8.253651830984139224e+02 -8.253651830984139224e+02 8.636291354448950415e+02 -8.636291354448950415e+02 8.793015835154194519e+02 -8.793015835154194519e+02 1.036366044847507510e+03 -1.036366044847507510e+03 8.544815333542730968e+02 -8.544815333542730968e+02 1.019476951459576412e+03 -1.019476951459576412e+03 7.498235265291591531e+02 -7.498235265291591531e+02 1.041275212174879243e+03 -1.041275212174879243e+03 6.637232510172236744e+02 -6.637232510172236744e+02 6.224039700721760937e+02 -6.224039700721760937e+02 8.151112834905320597e+02 -8.151112834905320597e+02
1.948216882052216867e-03 9.871566381068058718e+02 -9.871566381068058718e+02 7.383839395266486463e+02 -7.383839395266486463e+02 7.782780418034458307e+02 -7.782780418034458307e+02 1.100967845700246698e+03 -1.100967845700246698e+03 7.748578064241860375e+02 -7.748578064241860375e+02 5.838476034227411446e+02 -5.838476034227411446e+02 1.085691481250612242e+03 -1.085691481250612242e+03 8.673130769718922011e+02 -8.673130769718922011e+02 1.034881016805330773e+03 -1.034881016805330773e+03 9.038719072129150618e+02 -9.038719072129150618e+02 9.663134082452530720e+02 -9.663134082452530720e+02 8.197481689882387172e+02 -8.197481689882387172e+02
1.204929581337935455e-03 8.537434160591893715e+02 -8.537434160591893715e+02 9.498986366042189502e+02 -9.498986366042189502e+02 6.582750075194568353e+02 -6.582750075194568353e+02 9.604700312625985816e+02 -9.604700312625985816e+02 6.609879645064414717e+02 -6.609879645064414717e+02 7.705655590363635383e+02 -7.705655590363635383e+02 8.511906920047188123e+02 -8.511906920047188123e+02 7.975156082491486131e+02 -7.975156082491486131e+02 1.015261890586804384e+03 -1.015261890586804384e+03 1.000347711935861867e+03 -1.000347711935861867e+03 9.947213067122916073e+02 -9.947213067122916073e+02 6.948256968932295194e+02 -6.948256968932295194e+02
6.902878027331708823e-04 1.051919062069586289e+03 -1.051919062069586289e+03 1.062034690867852078e+03 -1.062034690867852078e+03 1.181367632452363523e+03 -1.181367632452363523e+03 8.196047539493935119e+02 -8.196047539493935119e+02 1.020783791018433476e+03 -1.020783791018433476e+03 1.091300120181076181e+03 -1.091300120181076181e+03 9.190470926178355739e+02 -9.190470926178355739e+02 8.715673025686353412e+02 -8.715673025686353412e+02 7.172834811571691489e+02 -7.172834811571691489e+02 7.954104546153633919e+02 -7.954104546153633919e+02 7.526258109245007972e+02 -7.526258109245007972e+02 1.148891634455867006e+03 -1.148891634455867006e+03
5.383344694787196502e-03 9.893637051948327326e+02 -9.893637051948327326e+02 6.862527852164461137e+02 -6.862527852164461137e+02 1.076627901895052219e+03 -1.076627901895052219e+03 7.743388887829613623e+02 -7.743388887829613623e+02 7.577135519269733095e+02 -7.577135519269733095e+02 1.096122877312111541e+03 -1.096122877312111541e+03 1.086480512667398898e+03 -1.086480512667398898e+03 9.682164818580337169e+02 -9.682164818580337169e+02 7.081048242301612845e+02 -7.081048242301612845e+02 9.289079740069868194e+02 -9.289079740069868194e+02 6.289112432395427277e+02 -6.289112432395427277e+02 8.340721735081868928e+02 -8.340721735081868928e+02
5.383344694787335280e-03 1.066480000213987296e+03 -1.066480000213987296e+03 9.922799817161616147e+02 -9.922799817161616147e+02 1.191054528320735244e+03 -1.191054528320735244e+03 6.652971359382654555e+02 -6.652971359382654555e+02 6.490659334269979581e+02 -6.490659334269979581e+02 8.679280269381687276e+02 -8.679280269381687276e+02 1.016568986710507261e+03 -1.016568986710507261e+03 7.635017229165312074e+02 -7.635017229165312074e+02 1.170927426516028618e+03 -1.170927426516028618e+03 6.183454184821179069e+02 -6.183454184821179069e+02 1.019770303507078097e+03 -1.019770303507078097e+03 1.171088445354691885e+03 -1.171088445354691885e+03
9.788453380308564933e-03 9.753125654315689417e+02 -9.753125654315689417e+02 9.015176153916411295e+02 -9.015176153916411295e+02 1.033902718111006607e+03 -1.033902718111006607e+03 6.005180233705453929e+02 -6.005180233705453929e+02 1.104360290942226811e+03 -1.104360290942226811e+03 1.161516657665066987e+03 -1.161516657665066987e+03 8.568873130267285205e+02 -8.568873130267285205e+02 1.177858248973557693e+03 -1.177858248973557693e+03 1.158406259072403373e+03 -1.158406259072403373e+03 1.105553748671696439e+03 -1.105553748671696439e+03 1.210739889375002349e+03 -1.210739889375002349e+03 7.136329248216743508e+02 -7.136329248216743508e+02
