-1.249852650994038791e-02
-6.015647516905552050e-02
9.681504899873205530e-04
9.681504899873125299e-04
9.681504899873099278e-04
9.681504899873141562e-04
9.681504899873079762e-04
-1.249852650994038791e-02
-3.749557952982116721e-02
-1.249852650994038791e-02
-3.515942214917473774e-02
-9.531589731823027212e-02
-1.249852650994038791e-02
-1.054782664475242826e-01
-3.515942214917473774e-02
-3.515942214917473774e-02
9.681504899874020850e-04
9.681504899873089520e-04
-3.515942214917473774e-02
0.000000000000000000e+00
0.000000000000000000e+00
0.000000000000000000e+00
0.000000000000000000e+00
0.000000000000000000e+00
0.000000000000000000e+00
0.000000000000000000e+00
0.000000000000000000e+00
0.000000000000000000e+00
0.000000000000000000e+00
0.000000000000000000e+00
0.000000000000000000e+00
0.000000000000000000e+00
0.000000000000000000e+00
0.000000000000000000e+00
0.000000000000000000e+00
0.000000000000000000e+00
0.000000000000000000e+00
0.000000000000000000e+00
0.000000000000000000e+00
0.000000000000000000e+00
0.000000000000000000e+00
0.000000000000000000e+00
0.000000000000000000e+00
0.000000000000000000e+00
0.000000000000000000e+00
0.000000000000000000e+00
0.000000000000000000e+00
0.000000000000000000e+00
0.000000000000000000e+00
0.000000000000000000e+00
0.000000000000000000e+00
0.000000000000000000e+00
