-2.655636214699685915e-01 6.354996679129233383e-01 1.024216955853145095e+00 -4.608381622193825633e-01 -9.649930219455398195e-01 -2.230636418979632940e-01 2.256363470668227844e-01
-6.921024361506183942e-01 5.319494392373523839e-01 5.332147056900525817e-01 3.296177588061918740e-01 4.461843130889551756e-01 -1.397462783669009667e+00 1.781244558069240869e+00
-7.555661533690923859e-01 3.210920358925843932e-01 1.145884543159165991e+00 4.679547233278078533e-01 3.589274577441087244e-01 -1.093385882738269199e+00 -7.824616042776179059e-01
6.440578489091166592e-01 -2.730944126778542258e-01 1.853250052917789770e-01 1.443376187840527403e-01 6.349961001706675434e-01 -1.801673105842435785e+00 6.898840936371313237e-01
-2.898228487393138542e-01 -5.383310068264998138e-01 -4.909105752893658248e-01 -3.719576869496717397e-01 -4.515538365591822978e-01 -1.837159685423136180e-01 -3.643139498081972572e-01
-1.220140146359631972e+00 4.211404886932789138e-01 6.202036268333520619e-01 3.269241475783316586e-01 -1.006126942605654467e-01 -2.425462316796383327e-02 1.351214459940893418e-02
1.568394687521934117e+00 4.219543015742463488e-01 -1.680652590620536513e+00 2.882787861495011983e-01 -1.558841892089450898e+00 9.590257829019803726e-01 -7.866341977512932848e-01
-1.920469923011554725e+00 -1.060008095428177644e-01 7.131569341882975088e-01 7.100880056454235145e-01 -5.480032394889670089e-01 -7.259664048743129372e-02 -2.045753762739833448e+00
6.497279626143628306e-01 -1.085782474718620216e+00 1.425261150861046877e-01 -1.168039815823119332e+00 1.285651106166622037e+00 -5.265463924141821073e-01 -9.143238681422710679e-02
9.101014539013786431e-01 1.000313860852943826e-01 -4.002379301499660036e-01 5.794447912717493043e-01 2.729801175639212651e-01 1.561154621168274470e-01 2.994099121476349601e-01
-2.403712676855908725e+00 -4.320674283128964066e-01 2.522198428270461257e-01 -4.583706320838210613e-01 6.985908255383237453e-01 3.964743639834772959e-01 -8.570670943103562145e-01
-2.570172944350949118e-01 -1.049754722514081751e+00 8.378025384814253851e-01 -1.026725963291889254e+00 -7.075136201813913006e-01 -1.587738611575778558e-01 7.108138767059644092e-01
1.482481080086585745e+00 -4.741396294240290271e-02 -6.064696384674179708e-01 -7.552542473315728699e-01 6.949493098184689188e-01 -2.130513118499381964e+00 5.572819236350646799e-01
9.504207264148395451e-02 -7.415776921710203196e-01 3.285892812107550909e-01 -7.728737731654229393e-01 -2.329936500614622208e+00 3.131999675471919264e-01 1.382825928262600090e+00
-5.305647553094730018e-01 -1.179228946849399939e+00 -5.459548672063404551e-01 -2.349061945811141139e-01 -1.166675370928440980e+00 -1.236921889945467257e+00 -6.100936855304255335e-01
6.563315683022287184e-01 -4.283851584287870669e-03 2.446431421879234680e+00 2.108828289543371870e+00 -8.560683808932406658e-01 1.227201699912765287e+00 -7.905084561180130143e-01
-6.739120285372354191e-01 7.075844554157164623e-01 -5.846411822755491761e-01 -1.052631130374892310e+00 -2.035439897917732832e+00 -9.758354493519477355e-03 2.854018588782595844e-01
5.712973714930769109e-01 -7.634405466478726421e-01 2.098438438364843339e+00 3.458575111561278392e-01 1.309759573194692495e+00 2.824073738918296272e-01 6.097482686305845112e-01
4.326898704242038707e-01 -2.194692972600966741e-01 -3.558443984568600976e-02 4.834135310052339873e-02 1.297683627416311158e-01 1.568288100074633484e-01 8.998269845234522224e-01
-6.220585739374784318e-01 4.948780181420332491e-01 -8.769799155020717440e-02 9.271827985676412975e-01 2.957530384653208055e-01 -4.021919447933076097e-01 5.722151058929800804e-01
1.298898998710729336e+00 -3.701072725641181838e-01 -1.296951439407463720e-02 8.397771566519877107e-01 -6.747145934004743495e-01 -1.837485753627384977e+00 1.720025530441922357e-01
1.190725978738326196e+00 -7.438706342670989291e-02 -7.460097882115216406e-01 1.746705537528030483e+00 3.756574759907014838e-01 -2.281616551122403802e+00 7.880591860095393919e-01
-7.219458767196774707e-01 -5.182473436763958274e-02 9.508366788059483543e-01 -2.566572596885281055e+00 -1.848551385675320236e-01 1.160632451518742059e+00 1.671110738174427790e-01
1.640811900426592418e+00 9.330754398556568852e-01 5.550682321889153226e-01 3.126185390807666997e-01 -1.429025015195453330e+00 -1.172396095763822643e+00 -5.193385630480553683e-01
-7.767703324867133996e-02 7.345152292117450576e-01 1.695426605845353096e+00 7.944496169011552866e-02 -9.487823499975895913e-01 1.382485207576135133e+00 -1.086044633184991559e+00
-6.822976921021252084e-01 1.455588018114182258e-01 -3.077972306194013546e-02 1.198912129204831312e-01 1.930853397566840712e-01 5.222653936041843359e-01 -1.223457470044823747e+00
-4.797462389173631214e-01 -2.012680308509897376e-01 -1.008013442202521981e+00 1.036301952913041058e+00 -2.114481423136548965e+00 -6.678678106593772812e-01 6.323432115109824114e-02
9.113761309295405066e-01 -1.053000362475142060e+00 -2.703064658907722850e-01 -8.999830289511179249e-01 1.075189427849892132e+00 2.729405953670120399e-01 -4.834452278992464880e-01
-5.406526937513654422e-03 1.828537676466680750e+00 -2.032421716554282831e+00 -1.855531776949628231e+00 -2.210872598090443120e+00 -1.611638636423345580e-02 -1.891216410334887188e+00
2.355699490181309419e-01 1.014968224329864555e+00 -5.284725433557670993e-01 1.598037857369365877e+00 -2.029996622347255641e+00 -5.537272799133460266e-01 -4.947232703668757448e-01
-3.192882089049967842e+00 8.431218125624898585e-01 -1.646852727142046557e+00 -1.402031829134066099e+00 -1.181939585758419398e+00 1.519820701593777246e+00 2.263685651642639018e-01
-1.483480466222043770e+00 2.563354757419964436e-01 -4.763161442428433257e-02 -3.472597754704065953e-01 -1.329730725674579839e+00 -5.933106627844422082e-02 -9.338581893024826552e-01
-1.286359955944321287e+00 2.823479251833917458e-01 5.106280923230445135e-01 6.265149760904228371e-01 -1.416796342606566755e-02 1.513095946161805871e+00 -1.354324602702083880e+00
-7.295479131739356360e-01 1.233981686545513767e+00 -4.710545997200109580e-01 1.483655742059429627e+00 -1.063936263023399276e+00 -6.070150261758849863e-01 1.336796486867011469e+00
-1.022554756912024826e-01 -1.248100759032667151e+00 5.762781358031257017e-01 2.410563464884034057e-01 -3.739703612422512480e-01 -2.753477368907736533e+00 -4.539226759645410003e-01
8.036787767850588349e-01 1.698743753886108321e+00 1.027443399992046036e+00 3.139128841565265171e-01 -2.061115868854507607e-02 6.059399516006659381e-01 7.242839322858379836e-02
-1.600934652176465578e+00 3.632973869294373603e-01 -7.906041314923708541e-01 2.369933555616588361e+00 2.842750581129078746e+00 -1.239772400200281621e-01 4.183649433993712474e-01
-1.010434584304356065e+00 -8.921437435990112741e-01 -4.413705748589383804e-01 1.188977093523566397e+00 5.606794488858516390e-01 -5.880684281650410128e-01 -7.057111376161763205e-01
-1.483281224009103783e+00 -5.917401513614733988e-01 8.971357276866769037e-02 -7.515933485714135776e-01 1.069017278242486935e+00 -4.012137938992010877e-01 1.144620235272134190e+00
8.453684753700366761e-01 4.874231430699051404e-01 1.293030197155055072e+00 -2.049208462508864126e-02 -1.944025072474058646e+00 -1.318535739090904491e+00 -8.074384286600579941e-01
-2.329547740930012267e+00 9.643607863735511598e-01 4.469852799021773460e-01 7.293942637597683465e-01 -9.390963875984992271e-02 8.815591425474248455e-01 -2.636469627345366273e+00
-2.373732242527384073e-01 3.236078379488389611e-01 5.726689206976888213e-01 -8.352697424189214903e-02 5.187183627218647786e-01 -5.023172878541275477e-01 3.733288102783894336e-01
7.659630169884483475e-02 -1.171898450873724906e+00 3.399236598048519520e-01 9.574778169635635994e-01 -4.579894478793190005e-01 -2.544291304475601589e-01 -1.509758095339840622e+00
-2.228126858004051858e+00 -1.633936898188667053e+00 -8.730771214552535131e-01 -1.009047109538178555e+00 3.480081162913867820e-01 -1.770143005641445999e+00 -1.251307941527613377e+00
-2.202222649426019974e+00 -1.024275637730438726e+00 -9.214371065562639851e-01 5.038231692183827715e-01 1.294708527074256654e+00 -5.983621420767686327e-01 2.936550510664831526e-01
-7.905526868311850697e-01 -3.045650579682012693e-01 4.409226058059805831e-01 2.548814417213828065e+00 -7.497755383926042461e-01 6.142405461109843312e-01 -3.969511734267393011e-01
5.438734354835083051e-01 -9.930281639397545157e-02 -1.072209337525520390e+00 8.442067047373765787e-01 -3.283591709954557930e-02 -1.487736124321237918e+00 -2.453891825185822717e-01
-1.686330396386970687e+00 2.841094133005097611e-01 -4.007350825173636166e-01 8.204836247975464403e-01 -1.239886595241565859e+00 -1.037441400045758133e+00 -1.998145951172596302e+00
-6.009104952914640085e-01 7.271979628096130188e-01 6.762066926916249221e-01 7.598707232666203071e-01 1.395147936703448055e-01 8.736366698352295013e-02 1.099594326181822401e+00
8.240931714512023110e-02 1.442320894010236998e+00 1.967615649586716753e+00 -7.736990284374440918e-01 -6.714017989628799921e-01 -7.268967217635221578e-01 5.152072421975309457e-02
8.152903767407067015e-01 4.555175446345957613e-01 8.241134497642735868e-01 2.565164322001141015e-02 3.286654705125784393e-01 -6.691429917107365455e-01 -2.658492700596128411e-01
8.094323557796312407e-01 2.313573901839855118e+00 3.404444706564285772e-01 -5.551258199175009844e-01 1.851425086791619545e+00 -1.593361055825300854e+00 7.224274087697498681e-01
