2.019816810526632034e-01 8.820519417760402936e-01 1.478372379378335988e-01 -1.242545066288669897e+00
8.982668278694767583e-01 1.981970552589314427e-01 -2.181094259470467978e-01 -6.916824586996229707e-01
1.364172662449408158e+00 1.953960052361916611e-01 1.052236653708170877e+00 1.439762510425908859e+00
-1.285895324947032181e+00 -8.229570172192577360e-01 -1.599036414910167458e+00 1.245478911998704863e+00
3.110226330045580134e-01 -3.020260237913985901e-01 -1.661227784481378755e+00 -1.028927695940306419e+00
2.109703682635776900e+00 1.065280870811584846e+00 5.462279110850096903e-02 1.255232196942510613e-02
-5.661452316400392704e-01 -4.509663142540438763e-01 9.611841955703386287e-01 1.287353106744429931e+00
1.248187876284094111e+00 -1.756444625114135683e+00 -5.091971392830352272e-01 -1.993760844168183111e+00
1.435474173698026157e-01 -3.512841196052639281e-02 -3.655582647741998925e-01 -2.075604214449118523e-01
1.620206204076267698e+00 3.566572446733846657e-01 1.061537964245120591e+00 9.578709887718833693e-01
-6.276454459575820932e-01 -8.079629052240574483e-01 2.845257247065835937e+00 9.860078049122990018e-01
-4.323114674408996549e-01 -5.093266592574333673e-01 1.453325781040258891e-01 1.021728016186546767e-02
-1.792815242212363047e-01 -9.741910246425417030e-01 7.836291818763054806e-01 -6.876720252491790031e-02
1.320378810685669313e+00 -1.468213944459856313e+00 -1.536091502062459258e+00 1.146920804945368744e+00
6.918628412710879916e-01 8.422900704763010005e-01 -1.635373941660615449e+00 -8.465607659486893422e-01
4.213881484096692054e-01 3.356005200402491506e-01 1.521337225453634270e-02 1.495662037836618774e+00
2.336530102158525524e-01 -5.742490806156256289e-01 -1.027201432055423247e+00 2.074276989064741117e-01
7.339580288687715115e-02 -9.851113889794153033e-01 1.051024962974758781e+00 5.890880451001124785e-01
2.017255903163228670e-01 -2.031081167359411577e+00 -4.442589332614680919e-01 -1.332172289499639062e+00
-1.896678853015793420e+00 8.529501879227423533e-01 3.098953575612532763e-02 -7.452151798117911952e-02
1.015753027241953710e+00 -1.822399987742618910e+00 -1.618699961304508994e+00 -8.686260794141086317e-01
-1.134579698692143701e+00 -1.693863906677091302e+00 1.275695934883679605e+00 -9.106677196367866101e-01
2.041011022220663662e+00 9.299987820524209248e-01 -1.319199583203654935e+00 -5.767242869205037037e-01
6.142665702271163930e-01 1.922451792707154383e-01 1.118623994577365277e+00 1.247800785506817833e+00
4.619397814777363998e-01 -1.046686655441099040e-01 2.846992416264754744e-01 9.502211873577420809e-01
-9.738452762957650055e-01 -5.152045022926194928e-01 5.110169618478699327e-01 -1.447436373083589967e+00
6.930085217498179739e-01 6.326352228443817838e-01 -1.752417315564329670e+00 9.970499271662942864e-02
3.084277178152742271e-01 -1.231205307511096692e+00 -4.287424578792152219e-01 -1.691624729494256796e+00
2.509360370286136677e-01 -1.083867946970948237e+00 -2.195568370154307378e-02 -7.865545499720240710e-03
-8.985289981332269527e-01 -7.462804306538468602e-01 1.555008846363578723e+00 -1.315712960689314093e+00
-2.267428493093178954e+00 -1.249007045206102839e+00 -3.129190244821177247e-01 1.241523597920623168e+00
3.273200482761206564e-01 4.698187791403738989e-01 4.314766363652005610e-01 -2.814453460687086905e-01
-7.822860466410845870e-01 2.883418819922797249e-01 1.448357146878896717e+00 9.881586744963503088e-01
-3.690769084339768358e-01 5.348004312064585930e-01 -1.039601538682612292e+00 7.495273390226785126e-02
1.558132682252051926e-01 -8.516489531228312870e-01 1.301161363901031987e+00 1.312535998628957534e+00
8.041054630216286636e-01 -1.235687084447786521e+00 -5.768616510482251630e-02 4.775745340025199792e-01
-1.584470802355500973e-01 7.319003439676426970e-01 -1.321578605482417679e+00 8.171428875859606533e-01
1.980760039659590355e-01 6.936499162300144850e-01 1.800399595310061329e+00 2.959855504525611344e-02
1.592347593918886473e+00 7.001448354757823234e-01 -3.187732417120663353e-01 1.155355571225519240e+00
4.543343262053513576e-01 -4.094569368724094820e-03 1.614937494116314154e+00 -1.871758597666887680e-01
6.731121708112518531e-01 8.076623504028650480e-01 4.973692300334383032e-01 1.368876204465913959e+00
3.087723540183397120e+00 1.462529947591365287e-01 -1.627248294054531030e-01 6.276574331656393779e-01
-1.359929054396443737e+00 -6.271444664843432992e-01 9.914868192484919129e-01 -1.674013240693600357e+00
-2.272609663487604181e-01 -9.280618104509800181e-01 -1.736760979581653208e+00 8.626380924234808290e-02
-1.195333105871137835e+00 1.791071649865339233e-01 2.961594429244180510e-02 -7.052001198680423188e-01
-7.060547542502284557e-01 -6.663336212168297079e-01 7.349745029843561817e-01 -6.209867184259704187e-01
-5.694112738502112858e-01 -6.318358728489620324e-02 5.755816957770032438e-01 4.661311145851445570e-01
-1.091760553988791738e-01 1.496711779051208835e-01 -9.525836954390238809e-01 -7.350122522112739754e-01
-8.922137870413393568e-01 -4.208133879943209421e-01 -1.733967132121826848e+00 6.282187672482585361e-01
-3.379639389815301542e-01 2.935811227222882014e-01 -9.091020390981369159e-02 9.756789680847601787e-01
6.237619248394590116e-02 -2.758609380332306404e-01 9.079724635665925581e-01 8.917157922943856896e-01
-1.143949304663279543e-01 8.483719716598947524e-02 -1.419648386129793161e-01 -7.486961905686403407e-01
