-1.970386195645520977e-01
3.064278973487505886e-01
1.973360796780940563e+00
-1.069090018928850361e+00
-6.885753613527875183e-01
-6.107993398132710583e-01
4.994433013394928844e-01
7.818030270862248443e-01
5.946777702490795292e-01
1.419751321946480127e+00
-4.241397019630454429e-02
-5.327164374001456260e-01
1.040422309717830229e+00
3.308929977671997702e-01
7.561972205991578377e-01
-4.523421346174915092e-01
8.013824236123975875e-02
-2.640971530156131786e-02
-3.753987537147051579e-01
-1.913212028830325151e+00
-2.091113390790159121e-01
-1.556967938976180799e+00
3.388321600019683633e-01
-1.175461181493256735e+00
-9.118965137953979339e-01
-1.327467799540769100e+00
-8.447786113864265145e-01
5.653694670956204149e-01
2.112469632403032038e-01
-1.435589856541060305e+00
-1.208819869164431127e-01
3.961780925377444418e-01
1.070226674534802414e-01
-1.710669321884255467e+00
-5.381934857387143945e-02
1.514918699179352291e-01
1.372313143937915925e+00
-3.713137738150794342e-02
-2.918260481233474479e-01
5.476293648441852291e-01
1.195042060374990944e+00
-2.368365682302536079e+00
-8.199758394079689205e-01
4.653843224080922436e-01
1.321608230478268808e+00
-9.540510928051114392e-02
2.902862782199592928e+00
1.936512491169077865e+00
-3.148080117849765686e-02
5.554232992884385878e-01
3.463857524686291822e-01
-3.429541247090658329e-01
