-7.415124415710505450e-03
1.132346139073660020e-15
1.153666145394256784e-17
-5.949155751609750341e-18
-3.496325534386716782e-18
1.432899284225278376e-18
-4.087862644797369041e-17
-4.449844651961669395e-02
-1.334953395588496794e-01
-4.449844651961669395e-02
-7.019725920840110608e-17
-8.807288999677695407e-02
-4.449844651961669395e-02
1.386004563684322668e-03
4.173413741760313711e-03
4.620015212280578635e-04
6.945422869128773866e-03
7.392024339648932754e-03
4.620015212280578635e-04
1.483024883142092243e-02
-7.389876479390146974e-18
-1.552387353289775627e-17
3.711412220532193940e-03
0.000000000000000000e+00
0.000000000000000000e+00
0.000000000000000000e+00
0.000000000000000000e+00
0.000000000000000000e+00
0.000000000000000000e+00
0.000000000000000000e+00
0.000000000000000000e+00
0.000000000000000000e+00
0.000000000000000000e+00
0.000000000000000000e+00
0.000000000000000000e+00
0.000000000000000000e+00
0.000000000000000000e+00
0.000000000000000000e+00
0.000000000000000000e+00
0.000000000000000000e+00
0.000000000000000000e+00
0.000000000000000000e+00
0.000000000000000000e+00
0.000000000000000000e+00
0.000000000000000000e+00
0.000000000000000000e+00
0.000000000000000000e+00
0.000000000000000000e+00
0.000000000000000000e+00
0.000000000000000000e+00
0.000000000000000000e+00
0.000000000000000000e+00
