8.332096757779195936e-03 4.795935362434705640e-01 -1.508548322020891508e+00 2.667268058826726129e+00
2.645671832636062870e-01 6.372192037234001294e-01 1.555724122276704424e+00 5.315154808840800993e-02
-2.060040416646284900e+00 6.268185871473584969e-01 1.263491258426004515e+00 -1.983077348398523565e+00
1.551210159602152583e+00 -1.390772997049040949e-01 1.073623122649201428e-01 -5.288527945360014249e-01
-2.130568326665645273e-01 2.372283896469516429e-01 -3.941978622412965483e-01 -1.276134843686357101e+00
-6.165082660867474834e-02 -8.900042711938561668e-01 -1.705459266957361386e+00 3.680012038894804327e-01
1.009089955408872807e+00 -2.700716271739818652e-01 1.684566300028103036e-01 -1.842368840151364484e+00
9.864908718578883073e-01 1.419709826842292522e+00 -2.122373858115025769e+00 4.158742966494765048e-01
9.649695987373944073e-01 4.715022299912212111e-01 1.351751497812945513e-01 9.595120273897737029e-01
-9.391983361203455338e-01 4.857964588487591606e-01 1.633730106449408082e+00 -6.713895751294460812e-01
1.631440807170413398e+00 -6.146304964558559902e-01 -7.913541664364404093e-01 -1.345629484079539306e+00
-4.649588609629188296e-01 5.716842119065989464e-02 6.557459195117418815e-01 3.865874865990730491e-01
2.285897435305227265e+00 1.073493043381063827e-01 6.112423870762100364e-01 2.127408689173432010e-01
6.967617828770279464e-01 3.209076836373421782e-01 -4.551421438352266091e-01 -1.317474819911185424e+00
3.211787523085024576e-01 3.832720609733450967e-01 -4.460030927343310858e-01 -1.294653721516827227e+00
1.539370650567106091e+00 -5.224340538930559719e-01 -2.523123870074699404e-01 1.133554184153922062e+00
2.243739155425587217e+00 3.023971795888419356e-01 1.403825446172662084e-01 -1.110453255256600991e-01
-6.383638280119342534e-01 3.899580982806887253e-01 1.124988978702395004e+00 -7.325408372117109268e-01
-3.112404773611411879e-01 3.159906861172204207e-01 4.014696313381517501e-02 7.177250940796467971e-01
3.421415867562356827e-01 2.840924807884454562e-01 6.828520811113461542e-02 4.067001277265246406e-01
-7.348572076789725571e-01 -1.763968049270309424e-01 -7.295411871947907745e-01 -4.184766324693832140e-01
-4.687466434489709344e-01 2.146402466531620590e+00 1.312898894519294313e+00 3.500116337601104632e-01
1.508809226683685223e+00 2.513443914475115282e-01 -9.630437677713100664e-01 -1.485453190022837378e+00
-1.631113126422766735e+00 4.957715400923917715e-01 -2.123977593527278884e+00 1.034879589401784372e+00
-4.851561459024918421e-01 1.448977382300605798e+00 -3.686596319848351455e-01 -5.206171741096249361e-01
-1.014132734874673369e+00 -7.708996081711240178e-01 -4.801523860629514084e-01 9.930670252522330044e-01
-9.105149039131629207e-01 2.980336783410427737e-01 8.898867847081279869e-01 -4.394924127358572630e-01
-3.431171102145713081e-01 1.298917118410618743e+00 -1.235282668538635886e-01 -2.759952059154422987e-01
-5.816331304613697739e-01 -8.704473503441176874e-01 -1.884890319850478946e+00 -5.880752645897244779e-01
6.022809625050077331e-01 -6.899539724846481814e-01 1.466693192969741766e+00 2.427537005304562512e-01
1.287185325988019269e+00 -1.178195363121562894e-01 -4.170458733536735463e-01 -2.944574482576435837e-01
-9.792886929144863084e-02 -8.683467014381441862e-01 -3.673780648229759138e-01 1.244868153737299865e+00
-1.862389040054272416e+00 5.850530730616217978e-01 -6.131332174866277462e-01 -3.139813674865049586e-01
1.093689964825682148e+00 -2.690873030509020603e-01 -4.669250696080010643e-01 -5.089327080234398171e-01
-1.888040171093567032e+00 -8.581309900527435142e-01 -2.487009628362133018e+00 -4.148603207552046257e-01
2.209749431249508345e-01 -8.471890393490151272e-01 -1.260450123945951129e+00 3.473875860822971950e-01
-1.543518982532624095e+00 2.034155270186420061e+00 -1.751646684534371223e+00 4.712151946502159405e-01
1.447923158002379918e+00 6.014174197726992466e-01 5.885042896531328394e-01 -6.221357383543365538e-01
8.615137037658853192e-01 -1.026945697600766538e-01 -6.678659409902363286e-01 -1.295384491594989917e+00
2.295940801810936627e+00 -4.472448426435903235e-01 -7.745584500199043099e-01 3.662862658206848532e-01
2.076225806473212254e-01 3.608253954304879163e-01 -4.418093956027194791e-01 1.254434944368989946e+00
2.287179185892143973e+00 6.932058560759956078e-01 -3.016865870985207532e-01 3.657857417424719565e-02
-5.781518843445974110e-01 6.555987047108933208e-01 -1.532926998796650064e+00 9.265660765471069871e-01
8.887650233101312969e-01 -3.863287629228835951e-01 7.188345295830678161e-02 -8.572073202034606876e-01
1.295122057348974676e-01 6.293038006067676049e-01 1.641756401621929651e-01 9.112103119592926959e-01
1.777154789654965761e+00 -1.263669204573834304e-01 -7.561000736332027516e-01 4.600388602023178924e-02
4.741633008853075176e-02 -1.842402048206469356e+00 3.726982729801411875e-01 -5.479610021923416729e-01
-9.471343794100793856e-01 -5.321260771479509044e-01 -2.000723840382945262e+00 -1.933614699882437948e+00
1.026420916457980281e+00 -4.774598682457990018e-01 -2.173391359589882943e-01 2.053739326777499929e+00
-1.169834506045414058e+00 1.957202554528672644e+00 -1.036370457915011922e+00 -1.890450890785027038e+00
5.463726669407760195e-01 -7.514742095341745420e-01 -9.055157320265601051e-01 -3.871997835634557461e-01
8.121096950227777445e-01 -1.281125117516541678e+00 -9.713995560067933965e-01 1.004253554164983020e-01
