-4.948567328583903212e-03
1.298804291106161508e-16
1.336391634711192399e-17
-4.956979040795404124e-18
-7.520518050809495370e-18
-2.265251453944170258e-18
-2.634360177449136787e-18
-4.453710595725524773e-02
-1.336113178717636685e-01
-4.453710595725524773e-02
0.000000000000000000e+00
-8.907421191451049547e-02
-4.453710595725524773e-02
0.000000000000000000e+00
3.302217207484373730e-17
0.000000000000000000e+00
9.897134657167924385e-03
0.000000000000000000e+00
0.000000000000000000e+00
9.897134657167676319e-03
0.000000000000000000e+00
0.000000000000000000e+00
-7.028629798096837589e-17
0.000000000000000000e+00
0.000000000000000000e+00
0.000000000000000000e+00
0.000000000000000000e+00
0.000000000000000000e+00
0.000000000000000000e+00
0.000000000000000000e+00
0.000000000000000000e+00
0.000000000000000000e+00
0.000000000000000000e+00
0.000000000000000000e+00
0.000000000000000000e+00
0.000000000000000000e+00
0.000000000000000000e+00
0.000000000000000000e+00
0.000000000000000000e+00
0.000000000000000000e+00
0.000000000000000000e+00
0.000000000000000000e+00
0.000000000000000000e+00
0.000000000000000000e+00
0.000000000000000000e+00
0.000000000000000000e+00
0.000000000000000000e+00
0.000000000000000000e+00
0.000000000000000000e+00
0.000000000000000000e+00
0.000000000000000000e+00
0.000000000000000000e+00
