9.137061125379482007e-01 -1.562044376110456878e-01 3.665036899340298748e-02
-3.696397014609021925e-01 2.782092877227656746e+00 1.087117568440529647e+00
-5.852221255722105386e-01 -3.960451070545352170e-01 1.247967465044443225e+00
1.404646700872228537e-01 -6.501093530518536889e-02 -1.661602093072637731e-01
4.158479643984873131e-01 -3.878516402081588765e-01 2.673813319054054241e-02
-1.365971962019077557e+00 1.440789415315433697e+00 2.530694643242663022e-01
-1.419051940490516639e+00 -8.988725590162828516e-02 1.081482166856029409e-01
5.329843468361325498e-02 -3.491985142066750814e-01 -2.689458221880758337e-01
1.079860827523013711e+00 -9.041052169096646107e-01 -3.388206933938389120e-01
9.539003016679917235e-02 -1.991581121278860333e+00 -1.748455124405014383e+00
4.613210369913491316e-01 6.290637861523871166e-01 1.593774522582040110e+00
-6.901256857536015588e-01 5.438885318538896341e-01 -2.239801590326550018e-01
-6.438570596059839390e-02 -2.045092675482375333e-01 -3.022669327876824075e-01
-1.288912975486546486e+00 -1.520343419198057155e+00 9.615105626002382611e-01
1.190729110197730548e-02 -1.006277092407835277e-01 -6.671736848575003931e-01
-2.205159264375412542e-01 -9.312028898350910300e-01 4.835751297075832622e-01
-1.197174084289167828e+00 -1.088762900226226016e+00 -1.701503627500583038e+00
-1.525308151500676113e-02 2.971720607144139881e-01 8.828619395769661260e-01
3.680016752112990064e-01 -4.702614914643680200e-01 1.526094015760658396e-01
-9.527835952680603349e-01 -3.825336706395786601e-01 8.322023326128805132e-02
-1.148779716652942984e+00 7.305568609464312413e-01 1.193446274348891833e+00
2.504217069275175955e+00 -1.368546787921754326e+00 -4.812807942613089862e-01
7.496773382325607749e-01 -1.120022626942558830e+00 -1.562556118603967426e-01
3.708700800225465666e-01 6.012321097874233633e-01 -1.505354570010556947e-01
-3.628965775958977596e-02 -1.592904975965658788e-03 6.569799443195198929e-01
8.086364967870247611e-01 -1.896231644845958186e+00 -4.368190491670471687e-01
1.745848921066964210e-02 -1.173052561703974289e-01 -2.801075510926331336e-01
-1.299576324024138418e-01 7.549062886941183825e-02 7.462345829545485865e-01
-9.000086401059373409e-02 -2.073842131163669222e+00 -7.270007511158450564e-01
-2.153424695888643381e+00 6.024115670679590362e-02 -1.439988546800859526e+00
-2.633388626535585475e-01 4.107460137263408972e-01 7.170476230899759384e-01
1.510107463628977686e-01 3.524122908747668315e-01 -1.194663107839475602e+00
-7.675426069412152885e-02 -1.435999386959997404e+00 6.509052921411874193e-01
7.943575580403086089e-01 5.376635449117299348e-02 -1.459172140715354338e-01
2.482662599489541821e-01 2.437951722503501478e-02 -1.791991424950780454e+00
2.191716274015580723e-01 1.960692989319323898e+00 2.132893023668613441e+00
-2.589922881965646684e-01 -4.432796054778365136e-01 -1.193476498355189763e+00
-9.197603402210331736e-02 5.144945678984741422e-01 -6.151982272491454129e-01
4.554527694767525614e-01 2.130373951949376399e-01 -6.959857321626304605e-02
-1.958867814141686814e-01 1.109878212883097959e+00 -1.099847049847832547e+00
-1.782779038501773217e+00 -6.159768995243259937e-01 2.218498808270377709e-02
7.624960548297801122e-01 8.470409580304422148e-01 8.297011470369637376e-01
2.373184726224598917e-01 -2.574440004390586179e+00 2.711819142714488318e-01
4.370003288255498441e-01 -8.965017451014881678e-01 -1.122223781652086499e-01
1.073662069456586599e+00 -3.920622520053953508e-01 -8.950599758029386122e-01
-9.862178776774314093e-01 4.309951990346582718e-01 -1.365748632765714676e+00
-3.428532325492337773e-01 -4.782648792283279437e-01 -4.092213467950669981e-01
7.114011328467513273e-01 8.760999510225926656e-02 3.676800556111995411e-01
-1.424901777289911742e+00 -4.424263714054003094e-01 2.394364350088269422e+00
-3.644188330599628656e-01 2.874032623102468903e-02 -2.058207990308077440e-01
4.309389454932580077e-01 8.394379439611632243e-01 -8.160150772498840910e-01
2.501477399733146312e-01 1.383731801473469192e+00 -2.891599652848483859e-01
