-1.903972156550061356e+00 1.123247602971783055e+00 -9.090598628079417376e-02 -3.764324969286587108e-01 1.021932175944744614e+00 2.009480433172257996e+00 -3.355303801514400441e-01 1.726871871597240427e+00 1.816683776134585815e-01 1.904987039607152488e-01 4.008380988439525505e-01
7.763373455907243148e-01 1.309732932664667615e+00 -4.816418947626868730e-01 -1.348553382903166509e-01 -1.273367752297439592e-01 1.541858992880272172e+00 1.014064769555524270e+00 -1.059054131764681994e+00 -8.430290218504207234e-01 3.312024439447057711e-01 8.586263977993041641e-01
-1.661066408122877869e+00 1.385721893564859863e+00 -4.423332313200485921e-01 -7.349683321842604977e-01 -2.061377907204332283e-01 -1.257264645914987211e-01 1.691125664552492580e+00 -1.648254323296063639e-01 -7.674126698662419033e-01 5.132750099531947080e-03 -3.628653837406938254e-01
-9.786312676223454243e-01 -4.270937880375356294e-02 -1.348941779425559373e+00 -3.952149577029532845e-01 -6.820016999861474583e-01 8.092779049031176841e-01 1.545519211617389477e+00 2.378075724461908180e+00 -6.125979633450260309e-01 1.059774456555651057e+00 1.788537462857867411e+00
-9.479946335876553165e-02 -7.652406818307632141e-01 3.833004375255839036e-01 1.305621946747860695e+00 -7.122170029337574482e-01 -1.239980211077151173e+00 3.899387945467033267e-01 6.672733052235008122e-02 -1.250900400726585371e+00 -3.220027800142856722e-01 -4.336301951775682895e-01
-7.402786585633952532e-01 4.487891243147497100e-01 1.183910569631409782e-01 -1.810223679432212684e-01 1.057274694799130721e+00 -3.026087129635060546e-01 8.605668508584340959e-02 1.406589289986338809e+00 -3.888130226184877691e-01 3.955410530059796925e-01 6.733476059249693391e-02
-3.567597817845524766e-01 -5.233734374233717235e-01 -1.035045538019418787e+00 -7.310997012015374441e-02 1.614691404741834813e+00 6.380771861020412272e-01 3.010219510330713333e-01 -1.388466886928895194e-01 1.340266105796598328e+00 -1.501878220522815666e-01 1.868880216245265569e-01
-7.596028668705822051e-01 -1.405503878495760750e+00 3.816651562194926517e-01 -2.107066444525542259e+00 1.231079496840286502e+00 1.840383404621666885e-01 -2.153101050340471723e+00 5.066454970568750049e-01 -5.206863363248012133e-01 -9.840714431809190199e-02 5.173122922314031813e-01
-9.218183722575014061e-01 7.085552611439253079e-01 -8.107814628566211157e-01 2.118384032853896370e-01 -2.844955926853964812e-01 6.231804809221790364e-01 -2.077727803959565023e+00 -7.511031620304251533e-01 5.572340006147573632e-01 -2.183405975391830456e+00 1.556971566427348019e+00
-1.299603521390674921e+00 1.208577414187188781e+00 9.300223555241640128e-01 1.274428500051375757e+00 -3.763924508738872854e-01 5.688896442504154383e-01 -1.225117756920550471e+00 -1.051730475927185271e+00 1.024743318982510587e+00 -7.344163167603930953e-01 4.549695174287521904e-01
4.513520855870445936e-01 -8.839379890845167065e-02 -8.875980598983516101e-01 2.439419318349512478e-01 -6.742921538177586438e-01 2.634660593623148195e-01 3.746607429523902272e-02 -5.433959620407887714e-01 -3.303610628762130852e-01 -6.414239887962420728e-01 3.442082161977985111e-01
1.111988479029025534e+00 -1.625905032809332962e+00 -9.135053779782702499e-01 -1.343281624104038507e-01 1.341518745669584511e+00 1.163282675660977317e+00 1.372643995291930041e+00 -8.981385572105320403e-01 9.220543162972822948e-01 7.957378039892447352e-02 2.424533362296381611e+00
8.852428632842057610e-01 -1.206228757921947947e+00 -5.349097768905123340e-01 -2.330005483303342617e-01 2.410930056461648707e+00 1.565971434628641967e+00 -5.286018079851164675e-01 1.858393477385318349e+00 5.368102881550860239e-01 1.272794429151466344e+00 2.849535979754257986e-01
3.230798923751308505e-01 -5.129059173294576723e-01 -3.814695067494721648e-01 -2.534364530301156937e-01 2.330342032229958615e+00 -2.587573947828930576e-01 -9.004674736641105071e-01 -1.595127845803373079e+00 2.393864818490722524e+00 -1.062232465575897317e-01 9.655278021775897113e-01
8.505311832273007022e-01 -4.330412437421024552e-01 5.386915324501837521e-01 1.964387144455579104e-01 6.977557220024215023e-02 -7.606606332456385955e-01 2.580105759987962877e-01 -1.485618204560452439e-02 1.618619656620190694e+00 -1.654158410392545520e+00 5.853373380479687249e-01
-2.356764003306263788e+00 1.047331867833515950e+00 1.615530914498723714e-01 9.570661136559784898e-01 1.573230648689353028e+00 -1.368463764364349911e-01 -9.137892208987117293e-01 1.086630153607369420e-02 1.501981178600568123e+00 1.151751998160917889e+00 -2.928223533451942417e-01
4.812135366886963750e-01 1.387071240451958065e+00 1.332294280684746646e+00 2.675583489078811050e-01 -1.110686358819114705e+00 5.876317510502264696e-01 2.920585222230501765e-01 -1.986362481388109225e-01 3.357389821684546583e+00 -2.404262702835624932e+00 -7.649872142196690872e-01
5.371589829756291401e-01 -2.131821859553008736e+00 -4.166706074537956939e-02 2.569864984296132970e+00 -6.633505428108710245e-02 5.287579282119060364e-01 6.434796164813781916e-01 -4.043373074526978445e-02 1.169369804332304419e+00 -5.493032638111660093e-01 -8.259188041786694745e-01
3.099602408134548015e-01 -4.336355703588710142e-01 7.127973504578082320e-01 1.613688447408711646e+00 1.902009872352329545e+00 1.440107893907770720e+00 2.226775508360615552e-01 -2.124075304232976080e+00 -3.307800224111152598e-01 -1.738568692250850978e+00 -7.051548971013024136e-01
3.168590423520782351e-01 1.350295499370362640e+00 -2.002481009437837578e+00 1.228476018161883232e+00 -2.466384286199438503e+00 -1.422355801129654207e+00 -6.072768271948451035e-01 -1.218146374318610947e+00 -1.856243502271566648e+00 -1.128242162439755836e+00 -5.699439488536290899e-01
4.624491254251824612e-01 7.490930599170069204e-01 -6.438363921900858156e-01 -1.459178291189619836e+00 -1.350840406954114670e-01 1.992765338338921000e-01 -1.000472198286133096e-01 -6.903850597885499152e-01 6.110777457339361396e-02 -7.031137564943393814e-01 2.029936974979456910e+00
-8.756808030260938569e-01 1.003219088541243975e+00 -8.803777285677147901e-01 -8.135697164195372366e-01 1.048565449788008141e+00 1.344801532484447837e-01 1.519090598808438219e+00 -2.787343960799218423e-01 6.694873690234117714e-01 4.962334421866743672e-01 -3.711280462354768495e-01
5.030505719912858886e-01 8.337146977405971437e-01 -7.653546271845262927e-01 -1.822042835685395434e-01 -9.688275576031715186e-01 1.088566153082164423e-01 -9.516282586636984897e-01 -3.275516874126504496e-01 4.754951287624611944e-01 -9.067201418000112589e-01 -2.872725666294809188e-01
-3.099657885320680206e-01 -1.725388174722342349e-01 7.240846715008046608e-02 -5.718660967888741231e-01 -9.654106255903790457e-01 8.373675729016021307e-01 -1.815753490960219763e+00 8.643725470335774652e-01 -1.307995251373201828e-01 1.073517744950381436e+00 7.134426732230428891e-01
-1.126916750504586284e+00 -2.899170873355685352e-01 -3.377535346870035038e-02 2.793985227543392402e-01 1.415021873824587051e-01 -1.626074559754950577e-01 -1.942788200707119772e+00 1.927783240901889406e-01 2.645795479108610238e+00 1.769714419764666646e-01 -1.143115788693042312e+00
-8.131553442076463467e-01 9.465299706967399140e-02 1.882397151970708477e-02 2.268985559380758965e-01 3.114133550447447107e-01 6.927970593385304188e-01 -6.078661319292235632e-01 8.912329491556951755e-01 2.082015505248352660e+00 3.011864894868955034e+00 2.531511454694889807e+00
-4.993186532598177241e-01 2.361622747813945100e-01 2.007552661243070968e+00 -3.977105271940522546e-01 -3.685842051499263472e-01 -4.875320020201144855e-01 1.484186272223774639e+00 -1.671392337225245661e-01 -9.581759374448516053e-02 -9.809897261257076728e-01 6.027333345874315018e-01
1.649269486214982372e+00 4.987686326388989233e-01 -1.129329321129279862e+00 -2.105339244952268707e-01 -5.865343038119348318e-01 -7.578040068828690856e-01 -1.685747604657550136e+00 2.273344590688970879e+00 -1.290470118330835358e+00 3.193101867807897620e-01 -1.123299127144471221e+00
-5.734154443438223003e-01 1.572066125395351899e-01 -5.084819230002637358e-01 -7.494261535923180118e-01 -7.210034405163482374e-01 -1.423406243651129222e+00 9.837091937350633808e-01 -1.309856821634054924e+00 3.930616942435669059e-02 -2.004847751918439780e+00 5.209308080433757704e-01
-9.603020894506385519e-01 -3.092019221935501591e-02 -6.660984311366395516e-02 4.950101808614141841e-01 3.500709739540038279e-01 -5.888312315982081602e-01 -1.751081692800752432e+00 -2.052767519281006869e+00 8.904260173346878471e-01 1.022519402578805359e+00 -7.406922732889476002e-01
-8.864867862005529897e-01 8.296656643827808875e-01 8.285707932764311279e-01 -1.118245683904346421e-01 -9.946954258835056795e-01 -9.535187314344354403e-01 -7.183557304735055382e-01 -5.809049600160929305e-01 -1.233662531320387723e+00 1.866228526051624703e+00 1.095278305251848883e-01
-2.167422699764656180e-01 -1.377731629407117131e+00 -3.806431585348631352e-01 -1.472355947831414991e+00 -1.008584687560745596e+00 -8.418983630450846412e-02 1.497151931161046834e+00 2.141242234481922413e+00 -9.639861733970737090e-01 -5.112340365484174809e-01 1.083939384203413958e+00
2.721004745541991676e-01 3.601968346306861357e-01 1.496893622308021810e+00 1.260250293846351156e-02 -6.432230006756913809e-01 4.423784282796340284e-01 1.966526715945771109e-01 1.376343011640240033e-01 1.295352305787785596e+00 -8.612041859027254054e-01 -1.084422522170911396e+00
-5.477538575371961871e-01 -1.212964495310513202e+00 -1.390771125108100637e-02 -3.944008741089591319e-01 -1.986938696567244866e+00 -5.076333035507860636e-01 -8.690159340731634652e-01 2.814905555024340145e-01 2.199818876101060194e+00 -3.514530000475251659e-01 5.589302150289051641e-01
-1.154341983948022898e-01 -2.554735913813992898e+00 -1.379301861257889103e-02 -6.407861152145311046e-01 1.898257883733388551e-01 1.425410870814217024e+00 -5.469497813172262690e-01 -1.314482877600445798e-01 -9.223590799984817679e-01 -7.650414883120251197e-01 -2.431355722593090629e+00
2.822003749279152207e-01 -3.841642598435777156e-01 -4.402057370994775787e-01 6.431471140311064705e-01 -1.280879282520352436e-01 2.193675182514584598e+00 -3.735530402980848375e-01 -3.015244956358174577e-01 -3.682327098645491459e-01 4.144123450670361142e-01 1.954346319406982557e+00
-1.688484237045611291e-01 -2.330095759189342308e-01 -6.517381472426697631e-01 -6.455001671648540329e-01 -5.459777622466642777e-01 1.281084276608457806e+00 -1.173754496748403486e+00 1.064546958421756395e+00 1.362237284256361036e+00 -1.710119807853286211e+00 -7.516655061276060756e-01
-7.697263870258460594e-01 -1.925195300857649172e-01 -1.144414279989819594e+00 -1.562905716272532108e-01 -2.441788689235209642e+00 3.363296254906805061e+00 8.627231850020645743e-01 -4.719597129199784025e-01 -8.846335374901238557e-01 -1.053530881436804734e+00 4.460699921927203659e-01
-1.337424013394378886e+00 9.857146590173153644e-01 1.380907840709326151e-01 3.680734654919783910e-01 1.908747412323581194e-01 -4.775782309533988523e-01 -6.984878712787415678e-01 -5.027797118416283961e-01 3.843005453596819443e-01 -2.407425676158529093e+00 -8.552452688755641796e-01
7.379915969971103662e-01 -6.499451464980118276e-01 -9.528860311340815459e-01 -2.480945947251435024e-01 -2.205006515994465677e-01 -5.630799040063126926e-01 -2.264039511281266570e+00 1.774224231630453785e-01 -4.293538525146815554e-01 -4.284975134930805174e-01 -1.377326476123503562e+00
-3.142984562738646570e-01 4.617603078233367686e-01 -7.277170527348235385e-02 -5.943145210873044260e-01 6.404950215215201581e-01 -6.098304026993379701e-01 1.187764308948159320e+00 2.663899967616356612e-01 2.392469029088726273e-01 -7.727391335318368748e-01 1.040346835645408641e+00
3.291313486293459545e-01 -1.174335716982035649e+00 3.047153770021581165e-01 7.198351245426535261e-01 9.896476347240719118e-01 -8.701633277992422144e-01 4.115502281214575286e-01 -2.723938163058788886e-01 1.024833773899872957e+00 -1.844126856685746274e+00 -3.218554878325000645e-01
1.443288907418684985e-01 6.394161627656379521e-01 -8.721291116064226745e-02 2.028204871033542300e+00 -5.990889499663769602e-01 -1.234568863937217209e+00 -6.066437386476960514e-01 -6.396393046813370065e-01 -5.439389550800992623e-01 -3.295674605179350625e-01 1.986673537131037559e+00
-1.603243762862049726e+00 -6.247817754411669755e-01 -4.703766121446425474e-01 3.051184006442473340e-01 4.005185337322000327e-01 -7.927256386115397735e-01 3.241306237089965681e+00 1.147079411736786625e-01 1.634945811762213153e-01 -3.784615053465822943e-01 -7.519024268216362161e-01
2.467091262975732668e+00 -1.551674553401025447e+00 -1.603415931296803265e+00 6.927138692824964528e-01 -3.288930613365576017e-01 -4.471097970200848537e-01 -1.475294718110056635e+00 8.385086623877061607e-01 -2.134106950753830445e-01 -7.327819558543429146e-01 4.862473331967063217e-01
2.585530879284155259e-01 6.358445678405318935e-01 4.112130929287667325e-01 -4.933447890925018314e-02 3.744240239302543682e-01 1.027125608465179418e+00 -1.559083634868472235e-01 -5.169114687036597822e-01 4.251363995199911039e-02 -2.028014661858664081e+00 -1.878097343878478709e+00
7.840388520796474081e-01 -1.166732629225954776e+00 -1.100326811685254702e+00 -1.688252600645391288e+00 2.897336196784347506e-01 -1.787617050233212712e+00 -5.316928666817940380e-02 1.462686758067293091e-01 -8.737234117767385122e-01 5.258016314714335504e-01 6.836281113177707924e-01
-7.926044270334372532e-01 1.220657446520388323e+00 -6.719166001268208621e-01 4.938790734147395223e-01 2.822941318355298712e-01 -8.846930579623351054e-01 1.159294138201380830e+00 1.346776955274529231e+00 -1.799400869673100756e+00 2.534215996165639417e+00 4.737641004574764669e-01
1.156547867002645155e-02 1.202542150907498053e+00 -1.660682871654556303e+00 6.650614348238520490e-01 -8.875811956606108888e-01 5.514653632775534664e-01 -8.737927880158458116e-01 -7.138906180697148773e-01 2.247076407547478061e-01 3.925120588434981572e-01 -8.832019990561231770e-01
-1.460576498327515127e+00 6.595322448621542266e-01 -1.133556624870521778e+00 1.103724725156112196e+00 -1.144541009255114705e+00 -4.065413381411794869e-01 -5.281249472156565594e-02 1.459932567531398551e+00 -6.674220270764259499e-01 2.794471776286189812e-01 8.262951165040115509e-01
-1.531291330487546121e-01 1.986063099322099346e+00 -1.355447515653639634e+00 3.424526723990927168e-01 -1.321030605989981059e-02 6.703915360877281682e-01 -4.519983842709626165e-01 5.526506846422695185e-01 -1.020982131719752273e+00 -2.153263136091357333e-02 -6.950335050270064485e-01
6.750930833930690600e-01 -1.778760636938529760e-02 -1.237744367697433789e+00 -2.254103342163403523e-01 1.125673305073343844e+00 2.712169639180440850e+00 -5.096817035661625056e-02 1.504848488266536721e+00 -1.142535662655207229e+00 -5.431690426566392338e-01 1.782700694111515993e+00
