-9.977336369534469673e-01 4.961883995361017763e-01
-6.539899524634282257e-02 -8.810516433066669650e-01
-6.966169592510561559e-01 5.298511352261694451e-01
9.703278054127471020e-01 -7.448743077185746575e-01
6.209853751861145188e-01 -5.996024954290144482e-01
-1.126246111500316172e+00 6.495798698767670798e-01
1.014477826989779619e+00 -9.911376667850112510e-01
1.814146665469540398e-01 1.431660430430489850e+00
1.757513787759902080e+00 1.228475893085774311e-02
-2.264049192808335609e-01 1.299076596468869416e-01
-6.790443837077499989e-01 4.236483748758249623e-01
-4.242508151309218878e-01 -5.810589269461738926e-01
6.119903160981772228e-01 8.932269218370168795e-04
-1.553009828506336731e+00 1.927115905532480911e+00
-1.825785111390023863e+00 1.000473400938483026e+00
3.196220567422395492e-02 -7.761477127525832076e-01
-2.335626840987051089e+00 -9.322177362889024765e-01
8.197779754038576616e-01 1.110948605203725542e-01
-2.535672652019297146e+00 1.279636084142603769e+00
-1.407630432500318163e+00 1.796504270162408157e-01
-7.198030545674035663e-01 -1.301133992566840147e+00
-1.541324280946323677e+00 -1.386883634952817301e+00
5.742157175999542673e-01 -2.196254328735270656e-01
-5.900640119297664299e-01 2.108575624230021539e+00
3.238154110823538434e-01 -2.466437100449868081e-01
7.996805196686566086e-01 -5.583000582041478532e-01
-8.761619039829883215e-01 -1.439656198834267986e+00
-7.575049571005094684e-01 -2.677468452607478344e+00
3.476813569235449597e-01 7.520823408516436048e-01
-1.829800024921598989e-01 6.589765014467436899e-01
5.947413301446071721e-01 -2.425515977212768515e-01
-1.069049800774202891e-01 2.236001212874112187e-01
2.333892884742869711e+00 1.275650104895609260e+00
5.662918905772736933e-01 3.940247202927483205e-01
1.587280435705543391e-01 3.040662672104553765e-01
1.393560143155017972e+00 -4.270161665230052250e-01
6.639272175138805077e-01 -1.019765425569094441e+00
1.251557389688989552e+00 -1.683756260223228940e-01
2.251134377832953781e+00 -1.841275043595811622e+00
-1.498167779356480045e+00 -1.632004692708004301e+00
-1.968965886481172378e-01 2.173018154992434336e+00
6.119871203330712328e-01 1.360285939154882717e+00
-3.336202964628874890e-01 -2.130477566855894178e+00
3.095496693079627035e-02 -2.030472758981779258e+00
-4.054986854032269217e-01 -1.679242349459994510e-01
-4.667442976077699757e-01 -9.241506108171247957e-01
-1.369888423754505313e-01 1.542258602592473826e+00
1.748268875871477279e+00 8.935347840711511669e-01
-6.775538290199225600e-01 -1.928035358062127891e+00
6.252322612930737156e-02 5.155486655508315641e-01
1.470454276224682610e+00 1.148664169107631361e+00
2.071614691684867893e+00 -9.654488721176697208e-01
