-1.271841357347549550e+00 1.316786113809358172e+00 -3.530164174705860969e-01 1.194744995511097807e-01 -9.760303243438453458e-02 1.161232921451612610e+00
1.215379116275719040e+00 1.226094046260284981e-02 9.404182952165583698e-02 -1.296061907045628070e+00 -4.812535551277157264e-01 3.119253114760506262e-02
-2.612595553687396821e-01 1.945947154929184020e+00 -3.140160588047936074e-01 -1.699391777421299432e+00 -8.543321565651328386e-01 2.459966888283409425e-01
3.362131375222108254e-01 -1.039770817738661979e+00 -4.805494872985538457e-01 -3.852151305277217719e-01 -1.283347911416389264e+00 -9.556312259678177989e-01
-6.870813831628579393e-01 -5.242496694134374247e-01 -1.235660068703793524e+00 5.659878904165461799e-01 1.022684822225373935e+00 3.375004379261196674e-01
8.057094203864906268e-01 -1.915933139125823859e+00 -3.300770910116525569e-01 -4.673211902837556830e-01 -5.176434682087797112e-01 3.731760231201221023e-01
6.601058096014993382e-01 -2.307699574387992669e+00 -1.034445496831141398e+00 3.385177657507291160e-01 -1.392255273595200959e+00 -5.504570681020112266e-01
4.539352158007554094e-01 -1.341726287843282517e+00 -1.497377426733707217e+00 3.053149303148090521e+00 5.705359294461521263e-02 1.023980877898081232e+00
-3.655115708106314032e-01 -7.936606349721808673e-01 2.116205609719303826e-01 -6.107748948000031319e-01 3.271281693108882282e-01 1.264521756355571347e-01
-4.415174804819438914e-01 8.543813869016227969e-01 1.539039754204565291e+00 -7.454698043072262026e-01 1.836197340039683823e+00 -3.334741505415275697e-01
-7.145817814778885335e-01 8.853392968420242815e-01 -1.156896790480383297e+00 -1.820506455071424945e+00 -9.240142119387415587e-01 1.022871113072316152e-01
1.370165546712376059e-01 -1.506383497157526286e+00 -7.782091270960891372e-01 7.398705956459297184e-01 -4.394907644396465751e-01 -7.221766264394958723e-01
1.707682575689761117e+00 7.867344439372944143e-01 8.838164769957322919e-01 9.311772907217105155e-01 -3.716125596874418346e-01 2.824767574280352633e+00
7.456726924851327931e-01 -4.568332749863203701e-01 -8.472462414213616233e-01 2.432402904225449136e-01 2.355704990117670483e-01 7.066956455154722594e-01
-3.613976483897060610e-01 -6.441147446720282277e-01 -5.117669768923185925e-02 -7.849516647918111101e-01 1.412951774871029409e+00 -1.555251604576455560e-01
1.249492160349828573e+00 -7.589087661195240697e-01 -9.115018436872366348e-01 1.955941375902529034e+00 1.418004228647321563e+00 -4.534862024050329010e-01
-2.926166356045473149e-01 1.058682300473296589e+00 1.147430908340877798e+00 -8.575223311055876207e-01 -1.323141874566620579e+00 3.437830183298771769e-01
7.781425049053292131e-01 3.550487595187306056e-01 -9.930901953905053592e-01 -1.110032495666291474e+00 1.061908366880422783e+00 1.199808629119649417e-01
-8.068682427488903519e-01 -1.905452229152424515e-01 -1.273747169915554478e-01 -2.916631189611031405e-01 -3.258443174442308687e-01 -7.363490056193563449e-01
-6.134276765846397028e-01 -1.948476291405542460e+00 -2.388802723145580398e+00 7.411810092246481352e-01 8.895981238254230261e-01 -1.094086575949974049e+00
-2.074460938178389391e+00 -1.578754175137473625e+00 -2.108490414535032012e-02 1.006474828958989542e+00 -7.264542450503960191e-01 -2.638286281918922338e-01
4.598918326619433894e-01 1.319256751555563101e-01 -1.997325646633967278e+00 8.323434265242282137e-01 1.756440492723312374e-01 7.462257479000318217e-01
-4.412044963328074498e-01 1.129040369691485024e+00 -4.439933678076518619e-01 1.608930800179286136e+00 1.316871552304002879e+00 1.368864186913244241e-01
4.941294882992776083e-01 -1.236588783069429320e+00 4.261361768114858006e-01 1.274847410607472087e+00 -7.338372863374205135e-01 1.219072624375812319e+00
-2.536010384373224014e-01 -2.909829005337224994e-01 4.649706419978842931e-01 -8.921658257755458177e-01 -1.040614391884050471e+00 6.394984038962349127e-01
1.477279215787853595e+00 -1.411626360573214445e+00 6.602086213430320358e-03 2.326171988706186577e-01 -1.631184376637193623e-01 -1.619619638139285223e-01
9.909240813569504258e-01 3.788664136632313023e-02 1.384489013345334973e-01 -8.287895136730166756e-01 1.047198896093144871e+00 6.815345778898909135e-01
2.502271285355572417e+00 1.872770667143051959e+00 -3.959570526220981129e-02 -1.002680273019175700e-01 2.082755889874829403e-02 2.580981775088426189e-01
6.934201459627553632e-01 -1.063772928389063122e+00 -2.094908153895881586e+00 9.891565459304914043e-01 -1.655970714868967505e-02 1.441089254530791841e-01
1.157533574836090429e+00 1.239419307864620817e-01 2.737351675434669951e-01 -7.289822103761185029e-03 -1.492704683949641398e+00 1.759175137395161848e+00
-3.773063546274951219e-01 2.621629274101366369e-01 1.082095524759004279e+00 -9.004090235952689758e-01 -5.542242744646773411e-02 -3.579328823009671479e-01
-8.566956671438352711e-01 -4.842786066428270142e-01 -8.822739166717930015e-01 7.344670182802449931e-02 -2.660926645452117018e-02 9.587122727264447697e-01
6.429930912853396574e-01 -6.148333750628496297e-01 -1.329326454785004330e+00 -5.146017079424959340e-01 -9.026814167451284732e-01 -7.770826986131861291e-01
-8.625175772050931444e-01 8.254499446726182299e-01 1.303786044287846835e+00 -2.714942197089467602e+00 1.362648467877602743e+00 2.138333913309185430e+00
-1.059436114981251675e+00 -7.862749895871819217e-02 9.798141724902891259e-01 -2.524559167241849367e-01 1.722646424477636495e+00 -4.541061406070058259e-01
2.564010871546476555e-01 1.051074624014995074e+00 2.976415037244948825e-01 -4.995292560192660103e-01 1.225331317833735723e+00 4.732987426933042002e-02
-1.219624291472358735e+00 6.413129738279492731e-01 4.369140195054190268e-01 -2.319415974917219403e-01 -1.305983268939690245e-01 -3.011210266735258045e-01
1.595173847453832616e+00 1.116420115565559978e+00 -2.559427749807732688e+00 -3.260030392116256004e-01 1.070402028235110992e+00 4.081469755433603241e-01
-5.907839533721730430e-01 -2.686870080983183029e-01 -4.114967449112129638e-01 -2.304925813824705572e-02 1.223998304624449029e-01 1.192127425209203784e+00
-5.332436848579970995e-02 -6.100869452651688229e-01 6.923397133490903910e-01 1.923867639085536485e+00 4.153570449142235943e-01 4.801624090638428877e-01
-1.651915766087140636e+00 1.267224638077459442e+00 -1.906051855073732093e-01 1.302401255801481916e-01 -6.917232234305894512e-01 1.063996707781368789e+00
7.457395418059524772e-01 7.644876906782069326e-02 3.624015155929447562e-01 -1.584213786176062344e+00 -2.013703475005415022e+00 1.193904697224672795e-01
-4.209222907823855220e-01 1.030988530996162167e+00 -1.154217848396531521e-01 -2.177232363435862350e+00 -1.168449267828932658e+00 -8.054005462824401773e-01
5.809170942234876955e-01 5.063345432142354330e-01 -8.156042076376068817e-01 1.970653043756415146e+00 -1.576810535569821980e-01 1.009713528472480748e+00
7.155192103114281776e-01 4.965776901209746352e-01 4.885153325990920781e-01 4.186408045039292092e-01 6.491373178676747013e-01 -7.522145273028381096e-01
-8.920218722993736860e-01 -2.562720322276283991e-01 -1.284104540880577350e+00 -9.261726933698657405e-01 -6.159184548236597001e-01 -1.286409105660737129e-01
4.050447043829656368e-01 -1.477096333085510249e-01 1.455790667266591010e+00 -6.161672799638628906e-01 -5.805053996297543373e-01 2.810960644122790231e-01
-1.502284439143281025e+00 -8.079051110860377971e-01 1.730977901189201695e+00 -7.108055829323047803e-01 -1.436215652163871814e+00 -1.120399624265919547e+00
-2.052335399560075227e-02 8.671851834575587947e-01 5.573496150251165959e-01 1.102009450114571187e+00 6.145337228825621667e-02 2.759371425914809439e-01
-6.307806336173320538e-01 -4.768431899101122640e-01 -3.061408250174152967e-01 1.673802540029672992e+00 -2.741710342971114822e-01 5.273531611497951355e-01
1.250880717871190928e+00 2.089620330232894729e-01 -7.943017583850290331e-01 -5.158605297688743097e-01 1.251605244371071901e+00 3.076815884819842917e-01
-3.693899304721849575e+00 -2.033228352535263739e-01 1.775292880677935003e-01 -1.466512586700277343e-01 -1.814797610678376416e-01 5.353522109029421605e-01
