-1.515338122124151754e+00
4.783890526745527838e-01
5.056707246436185077e-01
3.472554307981673971e-01
-2.598765847871234991e-01
-6.505799289228882953e-01
-1.762926260749276164e+00
-6.856052574523979759e-02
-8.499509807047952448e-01
8.942401976356555426e-01
7.658318110871829010e-01
1.353575896463160344e+00
1.090007968214306427e-01
1.493757587330409864e+00
-3.446137294741842272e-01
-6.262389662898439069e-02
-5.746447290801368624e-01
-6.113693400282556034e-01
-3.031108232485270615e-01
-1.380723427243057966e+00
-8.024653810399176024e-01
8.354503386494199768e-01
-5.060231094199579838e-01
6.102784172812604213e-01
-2.876622570279647739e-01
-9.816525665023879688e-01
-5.893600974843494766e-01
-1.801039170271345746e-01
3.833565291015316734e-01
1.445297872234896808e+00
1.396515617394734843e+00
-2.419021675268362426e-02
-1.911645508800895898e+00
-6.878829851048667843e-01
-4.582004408378465704e-02
-1.535182227176362657e+00
5.930893784749067255e-01
1.570636393886170712e+00
-1.416764611411101660e+00
-3.795599373710988877e-01
8.636589606168885991e-02
-5.246325048838624827e-01
1.194886195520193040e+00
7.631278168324525657e-01
3.170612973411574553e-01
6.120927035937090421e-01
-2.119757163872239281e-01
-2.762037541415838793e-01
2.662766701672772296e+00
3.021799457992511151e-01
-1.797640066864352182e+00
-9.147776696208332892e-01
