-2.028386763362040934e+00 -3.961069358680632257e-01
-2.234176863061599905e-01 -1.359029640556026708e+00
2.271907556853283716e-02 -1.363073939225772246e+00
-3.897272250890747025e-01 4.530788073127331450e-01
-1.571670197175583761e+00 2.826904944740904035e+00
-2.941760125591719177e-02 -4.141554213991162636e-01
-1.301388480234183298e+00 1.009601607543360924e+00
-6.597265515775235789e-01 -1.229742860547060057e-01
1.612686210561766309e+00 4.716225018190975948e-01
7.395839109157520408e-01 9.131794047557748040e-02
-1.156176902925936778e+00 1.776717505187969115e+00
-7.557238482830898330e-02 1.945731318241208097e-01
-1.403514348177870193e-02 -2.773257951135544186e+00
6.703350605886949920e-02 -1.576506624735131812e+00
-7.510886833093517456e-01 -1.654071799548652466e+00
-8.871727602663928014e-01 1.993603247992948635e+00
1.912328467432307111e+00 6.641488376732844479e-02
2.773586573716691484e-01 1.292424873915145288e-02
-6.652587715306462757e-01 1.071131886220565849e-01
2.984448866426891112e+00 -2.312642296687534779e-02
1.181152835401027973e-01 -2.238176605009322695e-01
4.947336011245600518e-01 6.406321847013134452e-01
-6.605943935437387227e-01 -1.160021953334273270e+00
-6.664171311387379060e-01 -1.489162463143104409e-01
-1.017122093160575391e-01 1.583110734560792543e-01
8.139084267140282991e-01 -8.693813076669055784e-01
-9.107769887896236538e-01 4.390482594053902732e-01
3.664687222861885973e-01 1.245591877335325837e+00
-2.144026552379302064e+00 7.464506046652014115e-01
-3.250379830972386364e-01 -3.391103271879962189e-01
1.197698009034132427e-01 -5.954718019839793097e-01
-7.712511835079046696e-01 -1.630995617446811430e+00
1.619341647705919929e+00 4.397886147861047035e-01
-2.139528714342005533e-01 2.126394058230408057e-01
3.768188536763749652e-01 -1.759609061074961789e-01
1.432002830507387081e+00 1.279380511868804637e+00
-6.937160718433944828e-02 -3.895089121723633308e-01
-4.665838780623159376e-01 4.509290030122938830e-01
-3.792099377251433312e-01 5.550995291175208068e-01
-6.479550110579288535e-01 1.347023606454503364e+00
2.264286854019807116e+00 -1.000683726249493831e-02
-2.502617682987294812e-01 4.138616737815985491e-01
1.073767674318718335e+00 -8.910935650703617483e-01
5.775049671269765206e-01 1.246265700660778686e+00
-9.114224984560015397e-01 -7.468389173070549836e-01
-4.594440231906216643e-01 6.807384367169756478e-01
-9.007045856478598234e-01 -9.361252473168949484e-01
3.898070764400166088e-01 -4.165849695460333013e-01
2.221494847246092974e-01 2.827839736213312860e-01
-6.002853997687318532e-01 1.406408939544329106e+00
-1.164246656869344809e+00 -6.088484595554730650e-01
-5.423709237433839148e-01 -1.472151235754143306e+00
