-1.172067175207896605e+00 1.038994607225792510e+00 -2.666207770728621917e-01 1.255946398783623241e+00 -9.129039003787509099e-01 -8.612892082842482644e-02 7.398427695956838468e-01 1.116235005562387084e+00 -4.817414876758695508e-01 -1.517204925299952878e+00 5.388815141912426387e-01 -2.528112308940250852e+00 -3.247561650441444653e-02 1.374264721698321923e+00 -1.644996410380417107e-01 6.916146992822433948e-01 -9.213532182495576262e-02
-7.020672763962373386e-01 -1.889829861301209890e+00 -2.083744221844154865e-01 4.805192582160838777e-01 -4.465528137434219835e-01 -1.463233281486680193e+00 -9.629116179625427097e-02 3.498293755922611270e-01 1.709565742122356902e+00 -1.913823245816651086e+00 7.578982835402946483e-01 8.230623068497003869e-01 7.356777678342654170e-01 -1.620634015994579791e+00 1.659768505156751672e+00 2.783183060326843705e-01 -1.824031299245831628e+00
1.031008255650905259e+00 -4.775615911920998991e-01 -1.444897252001576815e+00 -3.348030243300283426e-01 1.572681137006516128e+00 -1.131000578066404527e+00 4.383309242869845579e-01 -1.204735623428901503e+00 -6.956569170497374222e-01 -1.284554812094126641e-01 1.235997171831722419e+00 1.804223499369677519e+00 9.236424666955248552e-01 2.242978024743250920e+00 -9.490486411114823495e-01 -6.341924391787510107e-01 -4.093529598632106824e-03
1.722892316325151274e+00 4.943319961786155070e-01 2.663826970049133491e-01 3.221308216733220764e-01 3.417885352261024745e-01 -3.228420167727083512e-01 1.249785140770186320e+00 -1.365064938056674171e+00 -2.878119398361580691e-02 1.024949833330378368e+00 1.258546972047298818e+00 -1.426060256028041096e-01 3.988693617459175278e-01 -8.902331654422274143e-01 -8.720377657494043921e-01 7.949865918629112072e-01 -6.462476985170421129e-01
7.233365611781048532e-01 -2.903576112235211060e+00 -9.852708108814156596e-01 7.326159140553752946e-01 2.805958239364180762e-01 1.467136371180309373e+00 5.303228896447033103e-01 -3.227300619354697697e-01 5.898855893481400603e-01 1.428291934903480387e+00 -8.513967815040587306e-01 6.417375339873050422e-01 1.295595186656739672e+00 2.185803473271643871e-01 -5.462030834332990414e-01 -9.923397361495708280e-01 1.008259362148360871e+00
-1.650972666833194769e+00 4.778381557421961801e-01 3.809092419744776192e-01 -9.784507950341760907e-01 -4.020020866455534247e-01 2.487372887459865234e-01 -1.807918174164850456e+00 -5.863134454077609803e-01 -1.119916794987595887e+00 -1.313019365236394842e+00 -7.237168295953655406e-01 -8.623744030799276317e-01 8.861373691853223766e-01 2.018153949931592722e-02 9.833179188432493723e-01 -1.605847449765716917e+00 -7.141908267996690540e-01
3.188773782630139331e-01 -1.220714229011040874e+00 -1.496856713547667805e+00 1.563321277271265131e-01 1.078882212819331832e+00 1.990499677262974165e+00 3.507941765447417648e-01 1.757684343109000791e+00 6.066098480419999106e-01 -3.976691815296569676e-01 -7.880632833776327617e-01 -1.638016130763499945e-01 -5.736769751287470465e-01 -3.044789765426649808e-01 1.591224281560489617e-01 -1.159234299222449804e+00 3.341473607909588028e-01
1.774837878598577889e+00 6.749689902386988294e-01 9.943166158059389970e-01 -2.855566856572563927e-01 -2.406670937037639624e-01 -4.740172600246346790e-01 -1.243763568476789594e+00 1.313328280752875443e+00 1.530793876704136025e+00 -1.350100295362959002e-01 1.366887724998955500e+00 -7.646127870721309838e-01 -9.601549215727526176e-01 -1.307086579929296697e-03 2.574348659638104886e-01 -2.191328867397190905e+00 -1.308002596221150338e+00
2.788060541069191656e-01 -2.114780750561154887e-01 1.148116033354249638e-02 4.797370363043290120e-01 -1.101443972033846336e-02 -1.072600970250197516e+00 -1.249223711768928380e-01 1.099959924380218057e+00 -1.070580995215734577e+00 1.967678878842557211e+00 5.113520470701417020e-01 7.696680671582318833e-01 -2.072206413650645729e-02 1.411634737803225459e+00 1.314926053034205233e-01 1.747971510714847243e+00 1.044838154886906567e+00
2.166575643846747889e-01 3.025280005917562409e+00 -8.082499361552464290e-01 1.074685722982799518e+00 -4.930852899985360693e-01 -1.888378103439221745e+00 -1.933685201740235060e+00 -3.160254708383578720e-02 7.197493162739483363e-01 -1.413189967554754622e-01 4.714177814196911509e-01 1.172562991007277455e+00 -2.057492433730411463e+00 -3.799237798800539911e-01 -4.799402022985288507e-01 4.044392778553231871e+00 9.070155805025053031e-01
5.632095807829314849e-01 4.394902688823975473e-02 4.834798845309442455e-02 1.500074804941499140e+00 -7.418858230940346132e-01 6.379777005825957303e-01 -6.013080896604744430e-01 -5.501614014232978356e-01 3.922500416586990335e-01 6.503212840645730686e-02 -5.914600873678974580e-01 -4.354284532113694012e-02 -5.348220632648716943e-01 -7.945522069048974734e-01 -8.373570748379829398e-01 1.186428830555398273e+00 1.655120055359221576e+00
-3.749976416975750459e-01 3.568485457229430557e-01 -2.787470206720001342e-01 -1.378128335888714195e+00 1.638853525061537919e+00 -1.300841212198838165e-02 3.191667367238981146e-01 -2.552637498270700078e-01 -1.210481885754949527e+00 1.148489540506184570e+00 7.914449061518414874e-01 -6.902760235677852796e-01 9.126056962128105132e-01 2.211136869573764763e+00 -1.302163162860581203e+00 -4.899334887466003652e-01 7.625261770305884479e-01
-5.483851343822973012e-01 1.470793129506933639e+00 -1.973971069928761035e-01 1.223370606433413332e+00 4.116080918476375250e-01 4.054489252413829292e-01 5.282308796365730030e-01 -5.152470313174672967e-01 -1.180655290776854827e+00 1.033105267916120562e+00 -8.705769924586145292e-01 -9.153980806283076310e-01 -5.351127138260519667e-01 1.123833223004331749e+00 -4.323912119634704121e-01 7.157220374846420263e-01 7.785059279524384479e-01
6.487518432647456645e-01 6.130598278545045243e-01 1.314624541227162879e+00 3.506973789388897478e-01 -4.433828885568327216e-01 -1.955134506245859827e+00 1.186678851054267847e+00 -1.240722164551793405e+00 -1.230080407436730416e+00 2.205239495586253096e+00 -1.166421718561102772e+00 9.655345846681123723e-01 2.254281764000235277e+00 -1.266168829674595708e-01 9.046946629281948926e-02 -1.254151697039641800e+00 -6.048478514878175005e-01
1.182853279112580536e+00 -7.864771125480183311e-01 8.196350132318848403e-02 -1.143148771560272836e+00 -5.714122600748101216e-02 1.105701654084103813e+00 1.912690253166448695e+00 9.007225293121278176e-01 -6.714866165129751430e-01 1.371850124426005069e-02 1.022521275975810662e+00 -5.322556692332949257e-01 -3.633136714272380829e-01 -1.346238544523488789e+00 -8.434658080896545451e-01 -3.398682446435160598e-01 4.506363261769635309e-01
1.083090080063593197e+00 3.296427513820046618e-01 4.446728412696273613e-01 -8.755961917338324352e-02 -4.364672242821552306e-01 -2.095171684616175867e+00 -7.290653162562831247e-01 1.948724940145037943e+00 -1.243273939174913134e-01 -1.364694780569678523e+00 1.107009621243215891e+00 3.725704630008944140e-01 -9.537521827725377044e-01 5.679507863344877006e-01 -1.052788401002359153e+00 1.896018780998715361e-02 2.491410146099755918e-01
4.240768656585625629e-01 9.392040368095481151e-01 3.104038118005175706e-01 2.574104362682705371e-01 -8.680656202978703773e-01 -1.335680192257898247e+00 -7.605202280044259799e-01 -1.112597354811246074e-02 -1.350224359306947397e+00 -2.407060242715514331e+00 2.350634604066126343e-01 1.329022029773485603e-01 -5.304022868327546991e-01 -1.703335828240602368e+00 4.468776774197966151e-02 1.789596614963060439e-01 5.475539431533874568e-01
-2.115467158564305894e+00 7.448403051320369173e-01 7.066943686761810728e-01 3.058202384983390587e-01 7.460618041189469585e-01 -8.259698353759967748e-01 -6.610080214553022415e-01 -9.672209921781536046e-01 -5.559918413236898393e-01 -8.588583347528383483e-01 1.602533917653956141e+00 -6.220946679777421551e-01 1.574891358997240198e-01 3.888546116585724910e-01 -4.836554950894225713e-01 1.596853068072824788e+00 -5.955706457685870925e-01
4.640278706221350191e-01 -4.333357678192635842e-01 2.115437019215365699e-01 -5.751715258586633794e-01 5.340963066819515159e-01 -1.120202623520868856e+00 5.457158318204913261e-01 -8.642814011859655254e-01 2.928758709090524270e-01 4.144719190110704998e-01 -6.821406177692855566e-02 -5.422811690807248786e-01 -1.357366187562492277e+00 -2.860732318401799090e-01 -3.333625973635010592e-02 1.210284974480910325e+00 -4.909498998732049202e-01
-2.790594289649281912e+00 5.494983771839581088e-01 4.395354721318542879e-01 -2.036958101757641582e-01 7.645859615365967477e-01 6.584219782805854626e-01 -1.168520295640308460e+00 1.968011104559811153e-01 -2.497533154555230173e+00 1.570137426329770713e-01 -5.629096054792295245e-01 2.532758497448565627e-01 1.702832360080511025e-03 3.360181397014137122e-02 2.676407289076457641e+00 1.197063029970111936e+00 -1.130703417040736403e+00
-2.310022846906553962e-01 2.293527774144953124e+00 -3.347107604224704325e+00 2.028242838520899396e-03 -8.541730967656420148e-01 7.186135074507105092e-01 -1.151530192390187723e+00 -7.379675561590230970e-01 -2.500887536865696315e-01 1.909077479196327476e-01 4.697450240443809544e-01 1.613080203167502003e+00 1.874259169027691740e+00 9.577745639426228363e-01 -2.999627724088744785e-01 1.421996623026843820e-01 -1.660892110155876678e+00
-1.494689757136279384e+00 -7.350966902008517767e-01 4.368429460088153055e-02 1.116396802974221947e+00 -1.365549553805162519e+00 3.472866947045318842e-01 1.038248141414213732e+00 2.469042678650416184e-02 3.844054923640928267e-01 1.205266203341093245e+00 -6.097907555981111338e-01 -4.637627551036205276e-01 1.593230665654052025e+00 2.061450286829788203e-01 -1.001492576312568827e+00 -1.555697686953941172e+00 2.402543898730391259e-01
-3.699070629504260244e-01 -1.406146847928628096e+00 -7.829564404095015195e-01 1.292171151489355380e-02 4.643806155879950937e-01 -2.148462436023152733e-01 3.318214522238221997e-01 -6.999831337593309666e-01 1.527967942673138291e+00 -2.155146490805029680e-01 -1.987158451230905676e-01 -2.032902651287149531e+00 -2.299577499939195468e-01 2.457604332930629909e-01 8.442903496495036686e-01 1.224390766905437272e-01 2.299068291184377111e-01
5.364870197491544701e-01 8.972319777717556732e-01 -3.102799859570363750e-01 -5.824564649808263717e-01 1.512887587532534939e+00 9.346678144894495777e-01 -2.521326840170288630e+00 9.090763481955639325e-01 -3.855321179345298499e-01 1.347934795431444899e+00 3.552409184804295461e-01 7.814866325624731935e-01 -3.961472362404726000e-01 -4.441764240573307099e-01 2.787451452289067433e+00 -1.175266255472322996e+00 -4.719394680297798739e-01
4.462463295736949775e-01 1.095340056761874958e+00 1.159399603275828444e-01 1.278960731228365288e+00 -2.461958664041450084e-01 -1.591365593987245641e-01 -1.720638002079111439e+00 1.436729813827004043e-01 6.130008187536432063e-01 -1.098382168602820119e+00 3.167689285102690544e-01 6.160526878654374316e-01 -6.732535713881790951e-01 -8.771013431971118601e-01 -1.414888845440983811e+00 -3.318375556091432421e-02 3.660767844402390558e-01
1.142289444021148404e+00 -7.026220307312250890e-01 1.497351993410096282e+00 1.304718859536974918e-01 -1.503655841857543640e+00 4.738097587514830678e-01 2.854376555161337037e-01 -3.873769740050811428e-01 1.313219191426147292e+00 -1.221035264344187826e-01 -7.303032258766362084e-01 -9.068139782308513031e-01 -1.103902015469571563e+00 -5.007933384616263250e-01 -4.802062592286318599e-01 6.325990469199783695e-01 5.587314058198396272e-02
-2.022788907747012033e+00 5.250180756712902533e-03 1.179541567813813696e+00 -3.876707444844037509e-01 1.164527212678715173e+00 -4.201726550162050988e-01 2.055091460756633959e-01 5.383096834622635996e-01 2.166257668872837439e+00 -4.201804042814571427e-01 -6.328469742614695193e-02 4.433617719754273656e-01 1.178750542848057359e+00 5.723220487075838525e-01 9.862062884168825150e-01 2.176630390150075811e-01 9.914427519380100140e-01
8.775596164233294694e-01 -8.662524922887412382e-01 5.627625936412785634e-01 -1.093342354962773544e-01 -7.373561991766787171e-01 1.159506328047225976e+00 1.326633368813449954e+00 3.890044969124304419e-01 9.687875127521862473e-02 -4.021988620205018128e-01 -1.409871629143662819e+00 -2.575119595819147511e-01 -2.733726698136295513e-02 -1.248735308771326658e+00 -3.997951121510871092e-02 -1.354027363541761453e+00 1.362691854055493312e-01
1.531269056266600925e+00 2.640173486741470010e-01 -8.465070643978883647e-01 1.147880345214143255e-01 1.909199143702450030e+00 6.382080349076946213e-01 1.299035863062192098e+00 -9.000311434071814887e-01 4.819173750985358828e-01 7.571601072110517583e-01 -1.130156581999186782e+00 -1.971902323791987932e+00 -3.071896805503099986e-02 -3.871514611596599265e-01 -6.323422248879196905e-01 9.027687139081524981e-01 4.377320866874321453e-02
2.489311341694794844e-01 -6.103239972875948993e-01 2.230840350144307926e+00 4.752796604128400881e-01 6.422511754124258232e-01 -1.502944673453110225e+00 1.702353354864658996e+00 -5.869534166429242195e-01 2.893411718986673264e+00 1.787195616676182652e+00 3.488402307664307256e-01 -8.401663920066204660e-01 -3.660074020568472863e-01 8.765068258362491704e-01 2.224887261830627683e+00 -4.368090170193586474e-01 -5.739226830480473884e-01
-8.171902105144065454e-01 2.173745558475725925e-01 2.527967487790275802e-01 -1.695123418269756932e-01 -5.808995650065665872e-01 -6.004217713510041632e-01 -5.942741597004076448e-01 -6.920520135841671250e-01 5.113885691092467933e-01 -7.080126066562756337e-01 -5.966493415996013683e-01 4.546044349119651162e-01 -8.060219852676437924e-01 8.265773984120772244e-01 6.537707973909950843e-01 -1.244785944241768999e-01 1.681848638811646923e+00
-1.203088219718033425e-01 1.142039717872705529e+00 3.187956770650980376e-01 -2.214523947708593177e-01 -1.366738726986729269e-01 5.196835559477682720e-01 -8.004504900611046914e-01 -1.526777784920770209e+00 -2.547524606711423889e+00 1.278967709103767947e-01 -1.375462679192155813e+00 1.669530643155356042e+00 1.039577214501986147e+00 -6.603113236563921129e-01 -1.643783844906735597e-02 2.099312994549714650e-01 2.906155144917683675e-01
-5.852603570486921702e-01 5.298694236991442486e-01 1.640409691390511293e+00 -1.244051680222815870e+00 7.372544697300971173e-01 -1.470566733806304649e+00 -3.223020757785050594e-01 4.912105101719624334e-02 1.853141227995968920e+00 2.410910512672945205e-01 -7.844704554899873949e-01 -2.284480891064870067e-01 2.900775407730342773e-02 1.909396556859567495e-01 -5.074562341599796467e-01 4.304058129408649958e-02 1.430074250620163856e-01
-1.179568086682194483e+00 8.605131308631808196e-01 6.590028561983792832e-01 1.276490562642799809e+00 -3.852134531240410387e-01 1.428569881304788458e+00 2.175471098981331952e+00 1.617130727478972574e+00 -2.111241155157012717e+00 6.874451153928178293e-01 2.758665790749746938e-01 -5.528060753147311379e-01 5.679003760765899411e-02 1.701339664473428659e+00 7.226897466211139320e-02 1.380132022216449483e+00 -6.619178844262547656e-01
-9.328681875705635562e-01 1.221478347823001354e+00 -1.103976135018473359e+00 1.359593857668189854e+00 -3.346042169779411823e-01 -3.025009011098169776e-01 -1.237019064817649755e-01 3.226840171070747831e-01 -1.524336513429401352e+00 1.955208084367415222e-01 7.821565613458528188e-02 -9.474067355888839970e-01 6.906523843749231562e-01 -1.701135907242548595e-01 -9.240791353919500795e-01 -5.544572884598767404e-01 1.134853068904950968e+00
-6.665048754228999894e-02 9.993018146829297788e-01 -2.842306436685442250e-01 -7.138104677524491626e-01 -1.010460419275242883e+00 -2.850129513965000694e-01 1.129097800362108606e+00 4.778154149472274015e-01 -4.630912697839670300e-01 1.443525953609116064e+00 -5.587412503981936673e-02 -1.097767186462922151e+00 -7.226658260058435035e-01 4.713851729586420181e-01 5.617702161393565152e-01 -1.085440161021083982e+00 -1.830029515552478392e+00
-7.662689001045235038e-02 1.233104749234546160e+00 3.294088635152950251e-01 -1.332311686107985116e+00 -8.771355746320999014e-01 -3.767749991563147938e-01 -1.297925878315370651e+00 1.665591101745951708e+00 1.280907200848360183e+00 2.396096228987286691e-01 3.407709256699021361e-01 1.218517582471768668e+00 -3.241821087235377541e-01 2.416264188257083168e-01 -4.728318270540518009e-01 1.003167226735297846e-02 1.170082789244591526e+00
-4.919421380574660052e-01 4.790019374232932226e-01 -4.554233844626070504e-01 -8.903195021715749613e-01 7.925882275800070209e-01 -6.855101268619181454e-01 3.362295371911216968e-01 -5.680198951439058286e-01 -2.935279487869274506e-01 5.838023450339229203e-01 -2.127674751822754631e-03 -1.169666441269582302e+00 -2.604364242034464816e-01 -2.051406041494190369e+00 1.323050460188703203e+00 -8.765535539182209845e-01 1.357554919816878978e-06
5.368011600536352068e-01 4.159622165082029754e-01 -1.896946050917305948e+00 -6.714636987937683266e-01 -1.351425745907180453e-01 -1.284365980580264965e+00 -2.184430395515975842e+00 6.885967104662008564e-01 3.889035715631499190e-01 -7.775491565992909138e-02 -1.761360435153744186e+00 -1.669078418752149462e+00 -6.507888731170273777e-01 4.753786783494978185e-01 -7.314295433507989443e-04 1.973134047252132595e+00 8.469686268059944956e-01
-7.736091943800330606e-01 -4.150038738567408680e-01 -5.352114778321760413e-01 -1.113016384036192630e+00 4.714040875522118590e-01 -1.001704356300499921e+00 -6.912974160852253247e-02 1.400235681632729268e+00 7.597323743929395023e-01 -1.402730259806650726e-01 -5.999582994621000670e-02 -7.528894794086311848e-02 9.206523564387359970e-01 -6.999191133773440265e-01 -5.173007407914333167e-02 2.423997489386948978e-01 -8.914636631795056498e-01
6.828225657264381798e-01 6.203671491427683593e-01 -1.552581535278880986e+00 -1.327773197055628351e+00 7.263777256410458572e-01 7.212857028683566929e-02 -1.724298335172173291e-01 -1.868131810819972261e+00 1.936672760677806901e-02 -9.896104591915161341e-01 -8.137781257270054747e-02 -4.586972790521121612e-01 1.916691371992844950e-01 -4.136927754381910377e-02 2.197360721835632524e-01 8.008751082708941149e-02 1.613083690560505878e-01
1.732238219204089436e-01 -8.091893920056486555e-01 2.369314783930099588e-01 -4.481916573438923246e-01 2.256248946889369278e-01 1.975028436910279406e-01 -1.222683267675570340e+00 -5.531573416830308787e-01 -9.955826131876643892e-01 1.885325785569848533e-01 3.923652374127086784e-01 6.940898090555834565e-03 -1.475285712089248469e-02 4.980259008910336571e-01 1.869467390701197385e+00 1.297825090008860038e-01 -1.578603429714817930e+00
7.926235911094235698e-02 8.806290471954408838e-01 -1.096981781703863623e+00 -1.342568093895344594e+00 -1.067722259251380645e+00 1.390755939500315064e+00 3.547535263241702319e-01 -9.540557935877609363e-01 8.194632046370044220e-02 -1.434940651188614025e+00 9.692932262113687636e-02 -8.006479747293481219e-01 4.194779063445209788e-01 7.268422891368162553e-01 1.978077960238358246e+00 -1.768338501235795723e+00 4.529245571833506734e-01
-7.208156959866127145e-02 3.228336237393121810e-01 -3.483909280546871323e-01 1.788608351985225164e+00 2.249443466041465278e+00 1.712649183027972422e+00 -1.746433941237134579e+00 6.158728456981817923e-01 1.522299726600560232e+00 1.029371412565622590e+00 -2.195951525327071607e+00 -7.456840044393117095e-01 -7.303863403311127156e-01 1.144787562091840405e+00 -3.617846547456295414e-01 2.870580767827782154e+00 1.248597216462941750e+00
-1.004961143682832292e+00 -1.797717269038076715e+00 5.218197427531581223e-01 1.487606074233807307e+00 -1.452153203102591883e-01 7.612562221152793240e-01 1.235220818364335171e+00 -3.113511519249003157e-01 6.724968378762953281e-01 -6.641105963662579104e-01 1.581713629988547254e+00 1.431580093638838536e+00 1.026048152476009001e+00 -9.622006458067516865e-02 -1.849037480030476799e-01 2.977598522383402280e-01 -3.280172997295175419e-01
2.557912686261791801e-01 -5.672076194079488376e-01 -4.200328467160193147e-01 2.034229335357461643e+00 6.056112862766358518e-01 -1.355500203778656543e+00 7.926942604911142443e-01 3.450950223729039035e-01 2.337700296042497516e+00 1.733690423036768014e+00 -5.264799437375048408e-01 -1.108919022730345594e+00 4.961946228512224555e-01 3.359506814597008617e-01 -1.408421023241302611e-02 -3.834237360490768687e-01 -1.048454763590942918e+00
-5.860108517203942158e-02 -1.373298263111309758e+00 -1.538772958965592519e+00 -1.238936185272813406e-01 -2.357224978470061405e+00 1.272884012766266060e-01 5.678813264241222569e-01 4.147811031890933919e-01 -7.288653999853437204e-01 -2.488471216428632393e-01 -1.621001631383168773e+00 -7.868839664623960006e-01 -6.970196190998424746e-02 -1.882406428719568758e+00 1.322391997838777700e+00 -4.269891092648721992e-02 8.511047584054241000e-01
-1.554597060074558001e+00 5.067533382449671553e-01 4.706037720734518315e-01 4.735739783575427242e-01 2.167420417762130569e+00 1.844035843572340849e-01 -2.786371512601906394e-02 -4.319170919758167915e-01 3.115887832048355177e-01 -8.058833324404915954e-01 1.640128605611941293e-01 -3.488240996276792405e-02 8.551365968473962909e-01 -2.347179303658328553e-01 -3.677140963132131124e-01 -5.995188669955846539e-01 -1.918257306362499970e-01
1.553276058621732014e-01 9.821253443506047232e-01 2.017973251230163800e+00 -8.568478722162969907e-01 1.184358772951328298e+00 5.015853012523725507e-01 1.256391633671389840e+00 3.713073153069065269e-01 -1.124424417223231387e+00 1.711037594214149582e+00 1.348826551339094459e+00 -1.295584595773990877e+00 4.750917943473398908e-01 9.298083409787499809e-01 4.642412473138485818e-01 -1.035520471737013004e+00 -9.345522465454992878e-01
-6.893096282282592524e-01 1.704817410920071441e-01 -8.282964238505995391e-01 3.025246692769950063e-01 -8.375250639782276796e-01 -2.345639637470298133e+00 -1.930725292906757762e+00 1.131184979391229195e+00 -4.034746055281991928e-01 -1.250502516028840327e+00 -5.981976694484133494e-01 9.759760245842666326e-02 1.724868286407498785e-01 -1.989817753144699441e+00 -9.031467217525798175e-01 2.352494709037804999e+00 -2.887054296492418959e-01
-2.434812730573682749e-01 -4.788785721643385451e-01 2.172381215247583430e+00 -4.387239855122427867e-01 7.944875452167322605e-01 -5.217081779301415700e-01 9.795408976166794512e-02 -1.020364812631917584e+00 5.619711794090372914e-01 1.134746053540863997e+00 1.557419267379264172e-01 1.407494971575769194e+00 -2.153532712475908772e-01 2.003511087557056758e+00 -2.707145362945120315e-01 1.900389820162107002e+00 -4.122154577561933375e-01
9.693694977452651518e-01 1.861722635092663003e-01 3.239327691124948005e-01 3.307472054519680627e-01 7.326253521203187624e-01 -1.437987903478856744e+00 5.283723706076580706e-01 1.204261035482312447e+00 1.847115144139831244e+00 2.273722920404620762e+00 1.185564685932685602e+00 -5.249753546729093445e-01 -3.138340330885193707e-01 -6.570931452923501892e-01 -1.689169892145571561e+00 -1.312564858011135538e+00 1.657144267514939040e+00
