-3.872704804704450998e-01 3.744840023252243855e-01 4.910264315629439547e-01
7.075347614805312935e-01 9.422035373606492126e-01 1.060678823839446228e+00
-8.428561851434372976e-01 -2.238950481067844001e-01 1.613857367412382615e+00
-3.285858740466069960e-01 -1.815441447917060858e+00 1.473629616817887511e-01
-5.113391770690893512e-02 -6.402847663064860084e-01 2.644025183370283250e-01
2.490038149341506468e+00 3.039165298772386614e-01 6.698891705879920222e-01
-5.126206335483989296e-01 -1.089753083841529940e-01 7.579052794341596400e-01
1.637351842033814231e+00 -8.444290354798861253e-01 -9.907657864019341065e-02
-2.381199808369621085e+00 7.848782663071078580e-02 2.930677767962342473e-01
-1.424760130279569159e+00 1.921289968900024459e+00 -2.279962987653498807e-01
3.460951148442427128e-01 8.193520815720916062e-01 -5.765179010101578738e-02
4.719343998155008935e-01 -5.238865576896739595e-01 -1.304922257455165324e+00
-6.047279656999856590e-01 1.134344495566827149e+00 -3.796336426639495415e-02
1.853911795083960090e+00 1.584646182330981201e+00 4.789524162428223653e-01
-1.191952685605151885e+00 -9.393380198397317526e-01 -1.468571086026843275e+00
-1.159157276222433364e+00 -8.071360604988361276e-01 -1.917274302056547697e+00
8.009681600931949363e-01 2.165649172074008699e-01 -8.072387226869522092e-02
-1.522776591748829400e+00 -4.273291296813879758e-01 -3.773541517724151584e-01
3.196133911111760928e-01 1.294809896899471457e+00 -1.050611139578056630e+00
-7.614915748862788325e-01 3.952365648122636022e-01 -3.668505867846800217e-01
7.507495934485987066e-01 -3.809473897430489808e-01 1.628664950630868802e+00
-1.025047267479389790e+00 1.011140021751335771e+00 -1.973737679108197751e+00
-6.792147474008086716e-01 -2.913150049976704348e-01 3.840341414679563359e-01
-7.727370844230075919e-01 4.839028006705165669e-02 -1.421012095387213181e+00
1.550807989004201748e-01 8.140654216104011853e-01 -5.592118387867267559e-01
-1.094238727085846241e+00 -1.917579286330381994e+00 9.804430365840302031e-01
5.263125344297329145e-01 -3.955533360846381630e-01 -2.081447056629258885e+00
-1.035372640046809956e+00 -5.561177608682319473e-01 6.678739997949603158e-01
9.306381219999751986e-01 1.056926310641991495e+00 2.671119124727419081e-01
7.738989997091640927e-01 6.217985696409792373e-01 4.822658072566183285e-01
5.604826235953908053e-01 -8.792938485047989694e-01 -4.615804385935010634e-01
7.812644375080806114e-01 -9.044630780517862734e-01 5.312201998399911362e-01
-2.000443296933090753e+00 3.837565976864223960e-01 1.076392275984215496e+00
-5.263844278544070887e-01 -4.532098733590440576e-01 2.635488890907919379e-01
-1.055403076304066934e+00 4.328409004902476487e-01 2.036998987071699130e+00
5.914914918225017137e-01 5.039311767240988171e-01 -3.074372945019913761e+00
-5.136348585196222061e-01 1.305100986435500543e+00 1.550269723558487467e+00
-1.156527459354634857e+00 7.015801673969760399e-01 -5.769325664288494915e-01
2.901645931638054954e-01 1.668652896008688824e-01 -8.083132867991994486e-01
-1.352324648667913853e-01 -9.341836007294165301e-01 -1.280110095630630079e-02
1.448911436890650162e+00 -7.014453605709061179e-01 2.129344403264971930e-01
1.743131502098441143e-01 6.832187235134641601e-02 -1.386231046795868727e+00
1.648066484797447107e+00 -8.529783611765658913e-01 -3.157087821841439435e-01
-5.595765706574995502e-01 6.485731741560615271e-01 -1.085031564944143219e-02
6.259219195139789083e-01 -8.113300698962105928e-02 8.404368395970212013e-01
1.489713159081880622e+00 3.939294788032120520e-01 1.656576310317318668e-01
-1.783087694015408786e+00 8.163113530559565519e-04 -3.634213876362292206e-01
-1.358732170572253262e+00 -9.759462688762093885e-01 5.516535692573549809e-01
1.626913427510331134e-01 6.571147612602955546e-01 1.488635415287761776e-01
6.707149560828440382e-01 -4.308761240738905873e-01 -4.147113298085843835e-01
2.159637818749305715e+00 -1.306839852404852342e+00 -3.448402516699745901e-02
7.186368420153942393e-01 3.565014537453154927e-03 1.273931454893822979e-01
